  0.0242991235
 -0.00754407687
  0.0202213739
  0.0213171457
  0.0294033842
 -0.0216034736
 -0.0117698035
  0.0191592574
 -0.0158732342
  0.00385499852
 -0.00161449611
  0.0092050646
 -0.00965825149
  0.00095720802
  0.0323021242
  0.029728221
  0.00969369497
  0.0155212113
 -0.0255998171
  0.00764063426
 -0.0345499591
 -0.0183652309
 -0.0259120305
  0.0217269106
 -0.0245229219
 -0.00707540129
 -0.02644354
 -0.0279422285
  0.0356374638
 -0.0201245067
  0.00092374427
  0.0242223016
  0.00804570317
 -0.0145691697
  0.00982516153
  0.00173449562
 -0.000428724154
  0.0338401224
 -0.0147675617
  0.0194109629
  0.0019121174
  0.0193069904
 -0.00629991025
  0.0332858482
 -0.0108996772
 -0.00879444846
  0.0220675692
  0.0299307163
 -0.030731476
  0.0320957651
  0.00185747462
 -0.0295674396
 -0.0219847251
  0.0116590645
  0.0278737588
 -0.0107933623
 -0.0311306199
 -0.034284068
 -0.0030213041
 -0.0312074402
 -0.0186942898
  0.0336167435
  0.0287292509
  0.025075133
 -0.0165861933
  0.00293701244
 -0.00887024009
  0.0185641289
  0.000169572862
  0.0130613107
  0.0123857548
 -0.0195551184
  0.00597122603
  0.0411251555
  0.0368482679
  0.0189938942
 -0.0129770372
  0.0177036424
  0.0103842754
 -0.010330359
  0.0134614259
 -0.0238589879
 -0.00427824897
  0.0271482297
  0.0235143644
 -0.0121187759
 -0.0193594162
  0.0280980297
 -0.0106885583
  0.0133339344
  0.0326299427
  0.0083255834
  0.0113932966
  0.0275797051
 -0.000349562014
  0.066864826
  0.0297393922
  0.014509974
 -0.00186517608
  0.0243790822
 -0.010112414
 -0.0367628133
  0.0276632523
  0.0269536493
 -0.0544152205
 -0.0482509379
 -0.0208767159
 -0.00237877795
  0.00849369708
 -0.0156386133
  0.0204287214
 -0.0137530097
 -0.00378331542
 -0.0195638122
 -0.0223190635
 -0.0159828997
  0.00389650632
 -0.00648926976
 -0.0220376122
  0.0258808111
 -0.032420675
 -0.0487990538
  0.0102272406
  0.0187353051
 -0.014565696
 -0.0773717413
 -0.149815205
 -0.166455828
 -0.111001508
 -0.0933777779
 -0.0540388524
 -0.0666622745
 -0.0910719221
 -0.124220985
 -0.096525708
  0.00604596333
 -0.0306693709
  0.0214048253
 -0.0239927194
  0.0175051008
 -0.0303907288
  0.0321502898
 -0.0319810381
  0.00163793258
 -0.021948625
 -0.0290541243
 -0.0277087008
 -0.0336189663
 -0.0309314957
 -0.0211240452
 -0.0112448612
 -0.107948711
 -0.226800063
 -0.260337659
 -0.306242759
 -0.351996298
 -0.340651581
 -0.259735521
 -0.162540952
 -0.109696187
 -0.148462055
 -0.106448306
 -0.108992695
 -0.0697956458
  0.0240545811
 -0.0203054192
  0.027863151
 -0.0267521939
  0.0355570699
 -0.0318530303
  0.0266050177
 -0.0321571604
 -0.0536484206
 -0.0249769036
 -0.134217532
 -0.100748658
 -0.0422118678
 -0.135499304
 -0.209514755
 -0.406023246
 -0.44961089
 -0.348301364
 -0.173336322
 -0.238229503
 -0.262555119
 -0.347456089
 -0.250464899
 -0.221531813
 -0.224971567
 -0.0790349057
 -0.0229531165
 -0.0465364297
 -0.039361911
 -0.00406679451
 -0.0341654613
  0.017736016
  0.0238682603
  0.0305611298
  0.0297967083
  0.0176142283
  0.0756240393
  0.0942996752
  0.131831981
  0.199866755
 -0.0921122347
 -0.0623199694
 -0.178684475
 -0.289257484
 -0.4249387
 -0.34553027
 -0.34501917
 -0.499181785
 -0.347171654
 -0.15384397
  0.0668479325
 -0.323054635
 -0.434742614
 -0.268467878
 -0.0985132273
 -0.0313538163
 -0.0638326777
 -0.0113741534
 -0.00423928321
  0.0336143022
 -0.0154450736
  0.00412052924
  0.0277183972
  0.0152028775
  0.111946406
  0.248884984
  0.277124751
  0.158658881
  0.156167695
  0.370721212
  0.191996236
 -0.0318297702
 -0.0557864328
 -0.166915917
 -0.233128322
 -0.268483833
 -0.280263059
  0.0538468073
  0.182352134
 -0.210770643
 -0.377991948
 -0.269305266
  0.0424970589
  0.0378023415
  0.0311856824
 -0.0272183636
  0.00752659713
  0.00832502189
 -0.0108770877
  0.0167130531
  0.0548689586
  0.12554485
  0.148968324
  0.30599831
  0.262364372
  0.159683865
  0.471994111
  0.437900433
  0.344458373
  0.163217569
  0.0947255861
 -0.0103025884
  0.0985691618
  0.0962629786
 -0.184032047
 -0.0219911549
  0.272901465
  0.28035954
  0.00265684612
  0.093481023
  0.181598303
  0.0941103531
  0.111204019
 -0.0352043584
 -0.0147001462
 -0.0225847335
  0.0345973713
 -0.0302972578
  0.144162679
  0.214965018
  0.281231141
  0.245268908
  0.192678183
  0.277937842
  0.364252256
  0.21075021
  0.225020558
  0.325239939
  0.443454935
  0.498207003
  0.257996444
  0.0728412082
 -0.147260053
  0.25178627
  0.489674841
  0.489527879
  0.241438562
  0.227351198
  0.143673729
  0.194638032
  0.0997420874
  0.00497384145
 -0.0240552647
 -0.0161492016
  0.0260413545
  0.00256212749
  0.0848300023
  0.274208701
  0.299397832
  0.0604481518
 -0.115924141
 -0.0503801773
 -0.0997757337
  0.175033014
  0.47907318
  0.236656487
  0.259718837
  0.188482769
 -0.0795408461
 -0.190840146
  0.0812541591
  0.300939246
  0.670681194
  0.412869431
  0.182549463
  0.132918619
  0.16279178
  0.0238699295
  0.0287061593
 -0.0105658406
 -0.0678196531
 -0.0117876978
 -0.00754805974
  0.0145533537
  0.0454267731
  0.153392001
  0.00522028161
 -0.264509405
 -0.258588365
 -0.22371369
 -0.131536808
  0.306494897
  0.121981336
 -0.251284551
 -0.398775839
 -0.509867283
 -0.525157314
 -0.524943395
 -0.166136852
  0.105838857
  0.252823304
  0.294216501
  0.290885214
  0.0668348426
  0.108488493
 -0.0638945937
 -0.00651829527
 -0.0450332388
 -0.0302632325
 -0.00754355638
 -0.0182623576
 -0.0119848212
  0.0948679842
  0.0164300267
  0.0654245767
  0.00954060239
  0.0405427695
 -0.362346552
 -0.182878104
  0.0639080134
 -0.246393964
 -0.60512748
 -0.885199093
 -0.904822251
 -0.751590694
 -0.54220347
 -0.267187455
 -0.103372188
  0.00236290116
  0.235970691
  0.218877818
  0.103320542
 -0.00246054909
 -0.0836726875
 -0.0578442727
 -0.0164278042
 -0.0204303919
  0.0112228521
  0.0220782374
 -0.0263139469
 -0.0172497848
 -0.0374286053
 -0.0221011448
  0.124191791
 -0.019208479
 -0.188057054
  0.0374574813
 -0.122717594
 -0.47363228
 -0.679517937
 -0.645661658
 -0.64901689
 -0.619748967
 -0.270268645
 -0.230862617
 -0.262946097
  0.0919685511
  0.364513495
  0.217313463
 -0.0593941491
 -0.113610678
 -0.0281710943
 -0.0366305905
 -0.0217726674
  0.030199945
 -0.0235964645
 -0.00130476058
 -0.0196081369
  0.0233300932
 -0.0371513966
 -0.102005695
 -0.129616355
 -0.15580488
 -0.126566638
 -0.157947125
 -0.371301397
 -0.509502573
 -0.648658528
 -0.770896867
 -0.7620472
 -0.419724853
 -0.291193714
 -0.375720443
 -0.0595158569
  0.0345405238
  0.443838428
  0.16282034
 -0.0439358115
 -0.100538117
 -0.0382320891
 -0.0112854408
 -0.00101195981
 -0.0190912496
 -0.00813236697
  0.002346141
 -0.0246625883
  0.00635681929
 -0.0270181081
 -0.0467034054
 -0.203024528
 -0.297483777
 -0.415012131
 -0.178139384
 -0.22985377
 -0.320880332
 -0.553533047
 -0.554041466
 -0.39722451
 -0.0944762816
 -0.0672032118
 -0.210335513
  0.116510042
  0.18796376
  0.236600508
  0.102759201
 -0.121178092
 -0.0764134586
 -0.072264289
 -0.0395084114
 -0.0090216936
  0.0226031797
  0.0127530822
 -0.024794586
 -0.0333648106
 -0.0346047156
  0.00392806369
 -0.0823054352
 -0.22376576
 -0.307760393
 -0.318984281
 -0.242918028
 -0.359454106
 -0.322310886
 -0.396576892
 -0.236478602
 -0.120368819
  0.0564686535
 -0.0486332745
 -0.0476054727
  0.060233868
  0.10829536
 -0.0245990128
 -0.0139503852
 -0.178104379
 -0.247166871
 -0.103624247
 -0.0335721979
  0.00328660775
  0.0274774808
 -0.0220112136
 -0.00753419314
  0.014719052
  0.0591227459
 -0.00650070415
 -0.0930732606
 -0.27396408
 -0.338418708
 -0.219208771
 -0.151531461
 -0.28826757
 -0.303806225
 -0.335807664
 -0.239227682
 -0.0731789458
  0.104320632
 -0.127736418
 -0.189682158
 -0.0638444116
  0.0465440716
 -0.226560178
 -0.163799282
 -0.220663868
 -0.279268318
 -0.08224284
 -0.0226945109
  0.0175883457
 -0.019776705
  0.00747033736
 -0.00210255597
 -0.0237889567
  0.072586004
  0.0287748871
 -0.082031808
 -0.300439098
 -0.387652878
 -0.377676485
 -0.297055529
 -0.290904804
 -0.138222402
 -0.133889957
 -0.172104404
 -0.0529713847
 -0.162101906
 -0.310738418
 -0.213298738
 -0.0836114833
 -0.21462094
 -0.295513497
 -0.167820853
 -0.264642734
 -0.240774661
 -0.052255399
 -0.00397142117
 -0.00357563749
 -0.0257416734
 -0.00621243952
 -0.0180691044
 -0.00665953117
 -0.0392078877
  0.00816651598
 -0.0824183623
 -0.213962317
 -0.414636444
 -0.440407372
 -0.390060307
 -0.185307361
 -0.0500859044
 -0.121920179
  0.169676473
  0.165367264
 -0.163017615
 -0.212036287
 -0.300182682
 -0.0742473499
 -0.188744109
 -0.240189766
 -0.0907983406
 -0.120827272
 -0.18579185
 -0.0312903643
  0.0126020965
 -0.000338705588
 -0.0567066726
  0.00262446489
 -0.0200617101
 -0.00160348415
  0.0319633604
 -0.00315135944
 -0.0123850282
 -0.11856633
 -0.306905345
 -0.391614186
 -0.353235445
 -0.0724287098
  0.0244232882
  0.185013396
  0.300904032
  0.187557546
 -0.214279916
 -0.167211991
 -0.249856723
 -0.184702934
 -0.270370598
 -0.26098503
 -0.116333475
 -0.0498171302
 -0.216610771
 -0.0587778655
 -0.0268332437
 -0.0255721125
 -0.0519265106
 -0.0278730222
 -0.00903172578
 -0.0214998052
  0.0104626036
  0.00694613765
 -0.000877233064
 -0.0519125383
 -0.1502153
 -0.226665747
 -0.206921864
 -0.118593232
  0.0100264765
  0.140389223
  0.252781324
  0.0401813639
 -0.12383447
  0.0555751789
 -0.0382351932
 -0.178782585
 -0.33975394
 -0.208448491
 -0.0928875972
 -0.00208318805
 -0.207763604
 -0.0603310962
 -0.0282327737
 -0.0333824014
 -0.0166411028
 -0.00956943205
  0.0285308063
  0.0176884106
 -0.00172854346
 -0.0160533437
  0.0152731021
 -0.0369777647
  0.0177892197
  0.0272598632
  0.0033243096
  0.000323152885
  0.219131717
  0.174392617
  0.0668603773
 -0.149630321
  0.0726060579
  0.100966976
 -0.0515027712
 -0.102410065
 -0.232855313
 -0.327760105
 -0.128218701
 -0.0561737542
 -0.169536526
 -0.0443500163
  0.0279249437
 -0.0284021604
  0.00857167959
 -0.0306745023
 -0.00758956586
 -0.000254931194
 -0.00452964859
 -0.0209911357
 -0.0420914935
  0.0315233336
  0.0365534034
  0.093420123
  0.122968761
  0.267444258
  0.327620702
  0.250485917
  0.0514256334
  0.191752077
  0.364230759
  0.104138695
 -0.0485628776
  0.025345288
 -0.177134915
 -0.311334582
 -0.0940153799
  0.0173313551
 -0.0861623293
 -0.0634796802
  0.0184383408
  0.0216664416
  0.014193786
  0.0129944086
  0.0288705102
 -0.0133614498
  0.0180341942
 -0.0144311554
  0.0219099618
  0.018204169
  0.057436103
  0.0310072097
  0.131125868
  0.326834389
  0.322085579
  0.280398695
  0.205765256
  0.275901183
  0.42656977
  0.169659628
  0.0574360686
  0.19137776
 -0.0492446909
 -0.177202317
 -0.101938213
 -0.0035659317
 -0.0186259479
 -0.0152297675
  0.0222737291
  0.0304333951
  0.00189446977
  0.00587500845
  0.016385551
 -0.019626031
 -0.0168448665
  0.00874583487
 -0.00192855521
 -0.0105240179
 -0.0882721925
 -0.07979371
  0.097573449
  0.249450871
  0.171056444
  0.0365089479
  0.147580059
  0.206882118
  0.0383254364
  0.0257680123
  0.12468371
  0.196423167
  0.148533231
  0.123210046
 -0.0567808841
  0.0517769506
 -0.00861562725
  0.0211267094
  0.0251722251
  0.00719733323
 -0.0127516048
  0.0119971548
  0.0019164426
  0.0248571507
 -0.0178421204
 -0.0174122942
 -0.0304831671
  0.0011357032
  0.0284021017
  0.0199657737
  0.0253058816
  0.043531043
  0.0487138349
  0.0321547671
  0.0341365523
  0.113790219
  0.0727326952
 -0.150505655
 -0.0517694196
  0.0576577486
  0.00824928648
  0.0174266644
  0.0279877569
  0.0677307398
  0.0408312212
 -0.0301244371
 -0.0220726037
 -0.0011679743
  0.0302414809
 -0.0326146635
 -0.0296849289
 -0.0182244065
  0.0150967751
  0.00794579727
 -0.0290815426
  0.0329689426
  0.0262477909
 -0.0238504239
 -0.00171804641
  0.01837727
  0.0198217843
 -0.0352157061
  0.00561518329
  0.0168901341
  0.0174090777
  0.0301837155
 -0.0288282771
  0.0205458828
  0.0318882295
 -0.0284656914
 -0.0160788191
 -0.0186199439
  0.0221244821
 -0.0289255178
  0.0176235948
 -0.0159133119
 -0.0233356697
  0.0312652758
  0.0186329995
 -0.0288084724
  0.0343649004
  0.0246623584
 -0.0113185942
  0.0137473898
 -0.00310613002
 -0.00468548662
  0.0110844027
 -0.0123807988
  0.00730879161
 -0.0264265534
 -0.0299076196
 -0.00857057189
 -0.0255570026
  0.00477239862
 -0.0146617072
  0.0513233216
  0.00850822012
 -0.0174869119
  0.016173017
  0.00246191871
 -0.013401635
  0.0316587218
  0.0191575459
 -0.0269938393
 -0.0329810831
  0.00106685502
 -0.00719286501
 -0.0206024668
 -0.00338215487
 -0.0242741502
 -0.0136744668
 -0.00472048276
 -0.0352854445
  0.0107413989
 -0.0262788012
  0.00409341176
 -0.019511352
  0.0336561387
 -0.00420817016
 -0.0593889792
 -0.0246039859
  0.0568878671
 -0.0248465092
 -0.0181796672
  0.0402902769
  0.0336997388
  0.0609628316
 -0.0158983773
 -0.0033025956
  0.00812433567
  0.0104628205
  0.0143099725
  0.00281524232
 -0.00667035367
  0.0230304173
  0.00554844737
  0.0301107849
 -0.0198767313
  0.0206625593
 -0.00884743748
 -0.0131879667
 -0.0266246049
  0.022158677
 -0.0139312694
  0.00204459039
 -0.259702664
 -0.574824673
 -0.55644646
 -0.334685267
 -0.177617331
 -0.222631042
 -0.238990984
 -0.232344563
 -0.164396567
 -0.30088244
 -0.301564347
 -0.0948339964
 -0.0595871198
 -0.0683711354
 -0.025432741
 -0.0217215802
  0.0198150192
  0.0245915183
  0.0168079478
 -0.0225696223
  0.0119076498
 -0.0460296918
 -0.106838752
 -0.0278519398
 -0.0571577887
 -0.0100218545
 -0.0401433094
 -0.248767242
 -0.50713524
 -0.684142875
 -0.592223878
 -0.611675463
 -0.501804885
 -0.221007233
 -0.0676696132
 -0.140442221
 -0.111414317
 -0.221142721
 -0.331776999
 -0.315030526
 -0.242802422
 -0.072482337
  0.0076149745
  0.0237539027
  0.0223569189
  0.0195214961
 -0.0336819616
  0.00645766018
  0.00849620266
 -0.0040408871
 -0.0641508729
 -0.115461668
 -0.143775661
 -0.0948197896
 -0.254306931
 -0.51769646
 -0.758874552
 -0.492533112
 -0.130145939
  0.0165661482
 -0.111636528
 -0.178586037
  0.149693399
  0.262279872
  0.00578671111
 -0.0606964342
 -0.150053887
 -0.181017453
 -0.0794992522
 -0.0558507792
 -0.0206988908
  0.00412616747
 -0.0308261528
  0.0286820446
 -0.00484291996
  0.0234906777
 -0.00577575353
 -0.00077367385
 -0.0425124392
 -0.117184705
 -0.205584688
 -0.401815447
 -0.543834067
 -0.663997777
 -0.603153264
 -0.0321414402
  0.261057964
  0.0472382941
 -0.247108142
  0.0356987617
  0.227157195
  0.277066341
  0.502899308
  0.354145517
  0.3690783
  0.0177989326
 -0.188633988
 -0.174957958
 -0.108450301
 -0.039343367
 -0.0330508052
  0.0328368844
  0.018336896
 -0.0986476778
 -0.0834195036
 -0.14591635
 -0.165918758
 -0.292302936
 -0.422825542
 -0.535694875
 -0.35504636
 -0.368703536
 -0.275053537
 -0.349056779
 -0.230983583
 -0.406067422
 -0.215121276
  0.180488591
  0.0157277073
  0.0786939878
 -0.0550751365
  0.227512235
  0.0264407543
 -0.110805946
 -0.210180276
 -0.151262298
 -0.15177047
 -0.0471535098
 -0.0222077603
  0.0138121636
 -0.00399082117
 -0.0581729957
 -0.1091088
 -0.202733503
 -0.234438936
 -0.348691139
 -0.555637178
 -0.50241554
 -0.521102416
 -0.369988451
 -0.302631954
 -0.275656302
 -0.207439887
 -0.313361148
 -0.264273328
 -0.301350668
 -0.151217528
 -0.0171026551
 -0.123395073
  0.152290715
 -0.0723890511
 -0.096896166
 -0.131490891
 -0.106665305
 -0.14165955
 -0.0249511765
  0.017743408
 -0.0279118982
  0.0236606023
 -0.0264450366
 -0.0572261806
 -0.182332551
 -0.18371649
 -0.193437815
 -0.249146639
 -0.183939764
 -0.217238839
 -0.279865953
 -0.430392893
 -0.226687728
 -0.258872634
 -0.128254892
 -0.606806956
 -0.581021156
 -0.476740036
 -0.026028544
 -0.133515199
 -0.189433097
 -0.0563661011
 -0.0198895692
 -0.0173845832
 -0.0616794188
 -0.0657095036
 -0.0157218131
  0.0144220071
  0.00452333689
 -0.0255205487
  0.0216004172
  0.000933069183
 -0.257068478
 -0.18498925
 -0.0419654543
 -0.0813770007
 -0.158964482
 -0.204938095
 -0.412476269
 -0.321414571
 -0.286282103
 -0.187613685
 -0.293458888
 -0.659418147
 -0.676380168
 -0.103563746
  0.310420014
  0.076723029
 -0.132960167
  0.0830424931
  0.246942092
  0.240716612
  0.105103729
 -0.0291644951
  0.017745226
 -0.0331074375
  0.01584446
 -0.0106872948
  0.0263258988
 -0.0533636669
 -0.185676188
 -0.209268814
  0.106467526
  0.126222032
 -0.159984565
 -0.278063458
 -0.207597195
  0.0313786077
 -0.390075089
 -0.221897276
 -0.627352584
 -1.14964858
 -0.927665657
 -0.25244546
  0.210973111
  0.373516686
  0.00504064197
 -0.0979875997
  0.236862847
  0.502263404
  0.14735862
  0.0348538303
  0.00897746469
  0.00994281429
 -0.0251264104
  0.0302861108
  0.0122754731
 -0.00483342329
 -0.150499367
 -0.0341196025
  0.104242051
 -0.0478786461
 -0.204272794
 -0.136450739
  0.0157779378
 -0.410417351
 -0.562067532
 -0.556939878
 -1.22365003
 -1.39177974
 -1.14587267
 -0.646095427
 -0.131689775
  0.239186111
 -0.170931954
 -0.338607309
  0.191314383
  0.565861864
  0.241812111
  0.0243257215
  0.0268158693
 -0.0086569919
  0.000131096159
  0.0136688652
 -0.01059829
 -0.00442731535
 -0.131574209
  0.160491796
  0.0170813117
 -0.145633004
 -0.118210453
  0.23822444
  0.250286885
 -0.10753579
 -0.124947343
 -0.487551841
 -1.13342482
 -1.16659694
 -1.20853531
 -0.870845035
 -0.374920418
 -0.0647514141
 -0.342851341
 -0.317482446
  0.126289744
  0.463032947
  0.382953012
 -0.00771260501
 -0.0318057341
 -0.0253609866
  0.0175110272
  0.00208910912
  0.00150027271
 -0.0308289066
 -0.108832727
  0.266801938
 -0.0147069236
  0.0848121389
  0.088910948
  0.460708686
  0.29055365
  0.225796288
 -0.246351887
 -0.761281796
 -1.09503144
 -1.08394205
 -1.00496373
 -0.780165258
 -0.259712496
 -0.0512139861
 -0.388972026
 -0.261193867
  0.239964371
  0.483649378
  0.350557423
  0.00994726327
  0.0302448035
  0.010982837
  0.0103222983
  0.034636781
  0.0211944213
 -0.0246492316
 -0.0336936652
  0.361299633
  0.188622368
  0.368258535
  0.515800078
  0.403522598
  0.0343681822
 -0.22606217
 -0.409230913
 -0.965065856
 -0.977936951
 -0.919565192
 -0.680576225
 -0.835640543
 -0.291358658
 -0.202922512
 -0.214218948
 -0.325875147
  0.216593434
  0.344776096
  0.222921184
 -0.0837056607
 -0.0353307326
 -0.00191871892
  0.00162349003
  0.0207799843
 -0.0572120726
 -0.0955926159
 -0.119584669
  0.234902202
  0.320545648
  0.671168209
  0.624087362
  0.374865409
 -0.0757659566
 -0.134256859
 -0.705291816
 -1.04130337
 -1.00280699
 -0.803858847
 -0.577027571
 -0.590275368
 -0.081767415
 -0.142614824
 -0.317574279
 -0.313224292
  0.0508876546
  0.14727787
  0.0969712192
 -0.0232959674
 -0.0420397806
 -0.00844485548
  0.0262372494
 -0.0255859728
 -0.00992194794
 -0.101763951
 -0.298479277
 -0.145853656
  0.342330879
  0.883850718
  0.727941454
  0.389762666
  0.156846708
 -0.0299497708
 -0.620874829
 -1.10411016
 -1.10168307
 -0.925306151
 -0.595723809
 -0.429278398
 -0.0206024642
  0.0688946151
 -0.166394041
 -0.291814608
  0.105776557
  0.00985344895
 -0.0332494117
 -0.0199737345
  0.0122261041
  0.0260743879
 -0.0123124272
  0.0347104498
 -0.0229263287
 -0.257792397
 -0.461676367
 -0.216822672
  0.29848938
  0.567814371
  0.286853282
  0.0524788927
 -0.0333490339
 -0.231735683
 -0.745092409
 -1.13234345
 -0.845108098
 -0.656570438
 -0.656146234
 -0.392951978
 -0.153850126
  0.00869185384
 -0.314820392
 -0.212811029
 -0.0703797639
 -0.147455937
 -0.0176827517
 -0.0130460232
  0.0168693618
  0.0234054111
  0.0226962183
 -0.00757656353
 -0.00386196551
 -0.360839981
 -0.45850775
 -0.351682204
 -0.0428872579
  0.311667515
 -0.163287786
  0.0584335501
  0.0702900896
 -0.132959236
 -0.461252993
 -0.691261399
 -0.642960172
 -0.650054697
 -0.779796903
 -0.518443514
 -0.0488363293
 -0.551915692
 -0.885065347
 -0.527646242
 -0.356302354
 -0.18438654
 -0.053451478
 -0.00350400642
  0.0157449828
  0.00338285275
  0.0171750358
 -0.00379457005
 -0.0204544539
 -0.216967524
 -0.266046494
 -0.422793347
 -0.236000977
 -0.269593357
 -0.234708766
  0.0242041787
  0.32077538
  0.213183169
 -0.00181265441
 -0.0935475545
 -0.660478572
 -0.739048863
 -0.741755038
 -0.481072045
 -0.47392561
 -0.928420081
 -0.920895519
 -0.693120217
 -0.379427421
 -0.174913426
 -0.0568386581
 -0.0251381294
  0.0424423718
  0.00264501572
 -0.0076359106
 -0.00134827622
 -0.0298868581
 -0.0546791895
 -0.0517637768
 -0.0851152067
 -0.256238691
 -0.242137251
 -0.15371741
  0.0452135521
  0.336467102
  0.507267221
  0.0954524413
 -0.51950358
 -0.692756985
 -0.592718884
 -0.553802364
 -0.482915972
 -0.491754706
 -0.69099119
 -0.723277404
 -0.333174428
 -0.205153992
 -0.114997706
 -0.0635608568
 -0.0208673924
  0.0568898036
  0.0208793879
 -0.0331059971
  0.00282742296
 -0.0121899095
 -0.0134364058
 -0.0851507555
  0.0451521576
  0.0666552043
  0.00245029758
 -0.250028719
 -0.130632078
 -0.05256649
 -0.0316005636
  0.0318493393
 -0.249356062
 -0.318433005
 -0.291154734
 -0.136035377
 -0.141266796
 -0.419615295
 -0.335038732
 -0.270443003
 -0.121557338
 -0.122346731
 -0.0574224262
  0.00781745263
  0.00536966115
  0.0466368051
  0.0217600507
  0.0005978133
  0.00966043557
  0.0069251502
  0.0010719018
 -0.146101281
 -0.00770658948
  0.0177429732
 -0.0165782855
  0.0371863208
 -0.0540117273
 -0.0426432433
  0.0899934295
  0.227286193
  0.234849276
 -0.087907208
  0.0203998404
 -0.0860550718
 -0.11022208
 -0.169454419
 -0.225111981
 -0.217775164
 -0.13473846
 -0.0483382243
 -0.0312718894
  0.0327724746
  0.00125503443
  0.007668731
  0.015884046
  0.0352221685
 -0.00186850556
  0.00192980681
  0.00679981247
 -0.0482860513
 -0.0261863141
 -0.0574192543
 -0.088364618
 -0.131736506
 -0.137196554
 -0.0979425373
 -0.140552869
 -0.0621096335
 -0.215863869
 -0.270403855
 -0.0707402432
 -0.0585175604
 -0.217141752
 -0.191941521
 -0.181811112
 -0.0947842735
 -0.0457728145
 -0.0428815852
  0.00892424348
 -0.0110558192
 -0.00141475882
 -0.025507944
 -0.0121922472
  0.0356600838
  0.0182959224
 -0.0320224892
  0.0351679064
 -0.0192318447
  0.00753703723
 -0.0123265325
 -0.0899311281
 -0.0901839114
 -0.100396019
 -0.115250044
 -0.138558512
 -0.178413405
 -0.248484446
 -0.275169584
 -0.159432477
 -0.040272246
 -0.0988793988
 -0.149069763
 -0.140666501
 -0.0515000783
 -0.0439770662
 -0.0303230878
  0.0119740124
 -0.00150931654
 -0.0133171358
  0.00340092608
  0.0319150984
  0.0209823889
  0.0136072678
 -0.0159914366
  0.0209311603
 -0.00379319027
 -0.0129463986
 -0.0626612224
 -0.0712921228
 -0.0390790157
 -0.0780110449
 -0.0958894704
 -0.0476741387
 -0.0596611919
 -0.109155646
 -0.0918907116
 -0.0100639044
  0.025525175
 -0.029617844
 -0.0854016711
 -0.0652272456
 -0.0531070998
  0.0168036809
  0.00146056326
 -0.0255120595
 -0.0189110583
  0.031764056
  0.031488359
  0.0232781853
 -0.0172673655
 -0.000825002789
  0.0194789938
 -0.0319992628
 -0.0229320207
 -0.0322266437
  0.0246468349
  0.00975538104
 -0.00649717047
  0.0116522031
 -0.0125283468
 -0.0235069575
 -0.0149221643
 -0.0669937177
 -0.00471460528
  0.0261271765
  0.0364004159
 -0.0135021927
 -0.0231537738
  0.0156359082
  0.0182657033
  0.0028003965
 -0.0282568346
 -0.034875336
  0.00571774159
  0.0245638319
 -0.0195134687
  0.0225209679
  0.0206136022
 -0.0237393965
  0.0100848675
 -0.0323680509
  0.0111498875
 -0.00615042235
 -0.0286530278
  0.0239321504
 -0.00266286518
  0.0317044684
 -0.00281096569
  0.02423934
  0.0053009774
  0.018776519
 -0.0269650647
 -0.00116126026
 -0.0299431953
 -0.0346566504
 -0.0205253522
 -0.0330424045
 -0.0164829024
 -0.0127155568
  0.0167962398
 -0.0336420979
  0.0308098538
  0.028583037
 -0.032803148
  0.000813309635
  0.0174325832
 -0.016602331
 -0.0123800061
  0.00233189975
 -0.00462744279
  0.0334191493
  0.00567813431
 -0.0292135119
 -0.00829679674
  0.013160852
  0.0308886638
  0.0286369058
  0.0100062204
 -0.00341095926
  0.0181845945
 -0.000308667535
  0.00210396661
  0.0328799776
  0.0156823558
 -0.0163580155
  0.0281941934
  0.0289701359
 -0.0166329862
 -0.0292594188
 -0.0203716148
 -0.0354834967
 -0.0271872314
 -0.0252760457
  0.0288138262
 -0.0242760937
  0.0112515518
  0.0105321237
 -0.00405335781
  0.0347581968
 -0.0225838831
  0.0250803075
  0.0299886252
  0.0189238334
  0.0387215641
 -0.00550913019
 -0.00777765125
  0.0454142659
  0.0578494584
  0.0449114505
  0.00480256213
  0.128171334
  0.0713005827
  0.074063651
  0.0356938775
  0.0353259401
  0.0202233947
  0.00315154967
  0.0246760684
  0.0297321762
  0.00571181944
 -0.0325452797
  0.0299629654
  0.0142388727
 -0.0221070392
  0.0230625059
  0.0257919764
  0.0256060738
 -0.00332166022
 -0.0219346131
  0.00598918975
 -0.0152576404
 -0.0594696125
 -0.00349645156
 -0.0601151382
 -0.00893326182
  0.269008503
  0.183884116
 -0.0671546128
 -0.0789418114
  0.188883664
  0.268888366
  0.187814352
  0.225972567
  0.143894444
  0.0715837282
 -0.0219057141
 -0.0129863705
 -0.0130962176
  0.0307867314
 -0.018968481
  0.0283298876
  0.0339557358
 -0.0247201584
  0.00646733472
 -0.0321444526
  0.00412729375
 -0.0887410043
 -0.21180344
 -0.146889767
 -0.0961800883
 -0.0949093809
 -0.161764844
  0.0463181313
  0.392972589
  0.325849541
  0.223011498
  0.0291589806
  0.128005984
  0.396631275
  0.480190966
  0.389188331
  0.278244266
  0.170725091
  0.109833859
  0.0946035195
 -0.0335261669
  0.00212528876
 -0.0198050471
 -0.0109080992
 -0.00279092569
 -0.00511487287
 -0.0330053749
 -0.0523506946
 -0.12555631
 -0.231274934
 -0.21826089
 -0.185320788
 -0.319049599
 -0.486247262
 -0.353093288
  0.0161026297
  0.201823659
 -0.0318775106
  0.168878217
  0.328232339
  0.374878868
  0.439157772
  0.424646777
  0.364173869
  0.367520981
  0.286823606
  0.123442808
  0.0289454978
 -0.0302620693
  0.0134129155
 -0.0322329631
 -0.0271255236
 -0.0191397577
 -0.0242979085
 -0.0477874414
 -0.0787672235
 -0.187951155
 -0.346506793
 -0.307846314
 -0.293599199
 -0.469674766
 -0.203265487
  0.0875436158
  0.179378993
  0.15769931
  0.0694619897
 -0.0480816389
  0.167997472
  0.276387879
  0.151941436
  0.203072157
  0.0366570683
  0.0456662926
  0.110769545
  0.0734872729
  0.0660182329
  0.00704635644
  0.0342162266
  0.0211991738
  0.00979612631
  0.0205788536
 -0.0121369344
 -0.020606054
 -0.0496527653
 -0.155951841
 -0.223454527
 -0.200978347
 -0.143702372
 -0.184306966
  0.00582660786
  0.380994989
  0.196389701
 -0.022326252
 -0.0131777153
 -0.0822193666
 -0.0529469855
 -0.252524904
 -0.21994407
 -0.0212587306
 -0.133606802
 -0.303108801
 -0.0587352599
  0.0782269775
  0.108915056
 -0.0204779063
  0.00912091264
 -0.000302264271
  0.0184523728
  0.0134470304
 -0.0111694616
 -0.0192025986
 -0.0481989194
 -0.0862739681
 -0.0856478591
 -0.131706508
 -0.0529435005
 -0.262371246
 -0.0193546573
 -0.0301177165
 -0.0657900273
 -0.0929847883
 -0.180215939
 -0.503413189
 -0.528971588
 -0.747252389
 -0.461501502
 -0.288034865
 -0.356817447
 -0.488090243
 -0.250410928
  0.0185260459
  0.0851346885
  0.00838663091
  0.00015768458
  0.0187265407
  0.0124866602
 -0.0227317774
  0.00216453205
  0.00163072109
 -0.00633680132
 -0.0855500872
 -0.100125713
 -0.207560999
 -0.157866442
 -0.451913614
 -0.325038839
 -0.208024977
 -0.0860513317
 -0.111536926
 -0.435099579
 -0.798128609
 -0.918089392
 -0.87428607
 -0.771256873
 -0.643410494
 -0.605572176
 -0.630750079
 -0.36050661
 -0.0904306702
  0.0380254707
 -0.0217108748
  0.0254064694
  0.0183045822
  0.0129082146
 -0.0066144559
  0.0139367737
  0.01649773
 -0.00900788135
 -0.167267048
 -0.220669624
 -0.249281753
 -0.139054258
 -0.320865442
 -0.21166282
 -0.486382556
  0.0839127043
  0.185711255
 -0.308734572
 -0.80823275
 -0.853338041
 -0.909121992
 -0.969286537
 -0.750894195
 -0.670575613
 -0.523532995
 -0.242283981
 -0.0949425259
  0.0068526943
  0.0354027695
 -0.016601537
 -0.00677938121
 -0.0300935956
 -0.0265981198
 -0.0196423366
  0.0228943938
 -0.0294617299
 -0.195389174
 -0.330652834
 -0.237630672
 -0.183285192
 -0.294160111
 -0.26668562
 -0.257639062
 -0.00431185763
 -0.130499161
 -0.271255517
 -0.363306445
 -0.425571418
 -0.590266743
 -0.602713298
 -0.60275747
 -0.539820921
 -0.466923251
 -0.197407931
 -0.0819128087
  0.0252815173
 -0.0167924847
 -0.0242617988
  0.00471133845
 -0.0236141438
 -0.00571373116
  0.0332796354
 -0.0293914619
 -0.00986568397
 -0.199206121
 -0.315238405
 -0.292311878
 -0.275517378
 -0.144731678
 -0.0542845068
  0.0637299601
  0.205111217
  0.0937303964
 -0.232527437
 -0.222122503
 -0.0232818985
  0.0015966965
 -0.188631639
 -0.241922862
 -0.330758054
 -0.245534928
 -0.157660728
 -0.0741169479
 -0.0154696887
  0.0218658938
 -0.00212138709
 -0.00726502495
 -0.035275971
  0.00488810784
  0.0342266333
 -0.0369192789
 -0.0506675282
 -0.161019281
 -0.266369237
 -0.377006418
 -0.351132324
  0.0216521481
  0.302520392
  0.312442843
  0.249414558
  0.175325176
  0.0770038612
 -0.159827974
  0.0366799943
 -0.0436005123
  0.119924301
  0.0136493359
 -0.21180039
 -0.233380623
 -0.101191509
 -0.0399285077
 -0.0235199186
 -0.0137409709
 -0.0339032192
  0.00682030405
 -0.0312217903
 -0.00120500543
  0.0362943193
 -0.0475810042
 -0.10254696
 -0.104367214
 -0.283224699
 -0.397923222
 -0.241163562
  0.0409032697
  0.113744385
  0.213554399
 -0.0511247083
 -0.0651655201
  0.104794397
  0.161762184
  0.107649547
 -0.0339964274
  0.148772164
  0.194053303
 -0.133937197
 -0.108707783
 -0.0996281548
 -0.0754155377
 -0.0103021346
  0.0196961342
  0.0282231825
  0.0103895026
 -0.027949907
  0.0298503966
 -0.0179896151
 -0.0448098702
 -0.077958446
 -0.167793451
 -0.389268889
 -0.372334433
 -0.25018776
 -0.0199600641
 -0.119882278
 -0.373034328
 -0.291490046
 -0.10580355
  0.130346658
  0.257282714
  0.329948859
  0.27676269
  0.169110986
  0.130686717
 -0.0160768063
 -0.148821707
 -0.0978798992
 -0.101376465
 -0.00781455494
  0.0203274797
 -0.0139990801
 -0.0187252941
  0.00460600853
 -0.0197169033
  0.0356339414
  0.050502137
 -0.0984768872
 -0.182346462
 -0.45254368
 -0.506196833
 -0.30721139
 -0.0944436138
 -0.142431794
 -0.0986485292
 -0.0887557332
  0.153158108
  0.214568497
  0.110969117
  0.314787254
  0.392260783
  0.0505482264
  0.0940791971
  0.0616009827
 -0.16253751
 -0.213971269
 -0.0816057197
 -0.00985285342
  0.0020140474
  0.00111413155
  0.0003540005
  0.00469149436
  0.0250439082
  0.0366301529
  0.0303421185
 -0.127140117
 -0.0783186364
 -0.2962424
 -0.521059399
 -0.508586513
 -0.280882054
 -0.0150603243
 -0.163229504
 -0.0549248683
 -0.0941554839
 -0.0762169509
 -0.0264601056
  0.23219083
  0.279879097
  0.104833274
  0.0805816613
  0.0414443245
 -0.208293857
 -0.155773255
 -0.0702691697
 -0.0186453134
 -0.0124000041
 -0.0353611266
 -0.0321476478
 -0.00547300279
  0.00867627762
  0.0582394687
  0.0915726391
 -0.106417319
 -0.168664544
 -0.0157239241
 -0.336905574
 -0.395374893
 -0.156699006
 -0.144856862
 -0.312672396
 -0.169381639
  0.114742966
  0.111004035
 -0.100302878
 -0.0378820673
  0.191360585
  0.129099481
 -0.0309424135
 -0.108762824
 -0.0462337748
  0.0195568146
 -0.00341887799
  0.0385599492
 -0.00856645921
 -0.0157998638
 -0.0142661035
 -0.0283797697
  0.105161756
  0.0903704312
  0.0499998223
 -0.135531335
 -0.0575824343
  0.207304631
  0.0733371652
  0.0857281277
  0.0764180597
  0.00409966783
 -0.155732321
  0.0640377899
  0.127345012
  0.0625251943
 -0.147886637
  0.0742743174
  0.325717794
  0.034638603
 -0.0758857083
 -0.194116311
 -0.00582526815
  0.047663118
  0.0414043182
  0.0351830466
 -0.0153622661
 -0.000401694929
  0.0243149613
  0.0216187877
  0.0911959468
  0.0718497899
  0.0378398436
 -0.17131368
 -0.150586017
  0.216512043
  0.462850309
  0.420050708
  0.518010717
  0.172842436
  0.00508836587
  0.14363068
  0.128205827
  0.223273065
  0.14048463
  0.0723839206
  0.0296575408
  0.0221914945
  0.00688847092
 -0.109739392
  0.0490050595
  0.09637209
  0.0385272594
  0.0263768205
 -0.0297105217
  0.029304398
  0.0135363255
 -0.000405918275
  0.00135455247
  0.00795744198
  0.00823557815
 -0.0984065058
 -0.162076883
  0.0106072286
  0.279827098
  0.275342189
  0.464288442
  0.354816621
  0.143272452
  0.186163519
  0.163619912
  0.068869966
 -0.27949625
 -0.19697695
 -0.0206143794
 -0.0087955418
  0.061983197
 -0.00246905619
  0.0319922179
  0.0368772765
  0.0498598844
 -0.0130484313
  0.0213216913
  0.0111813928
 -0.0287486788
 -0.0355633537
  0.00618249165
  0.0242566369
  0.0124897682
 -0.0577392301
 -0.164807658
  0.0166288972
 -0.0403708561
 -0.0641944148
 -0.038424365
 -0.0144980173
 -0.118292091
 -0.193469226
 -0.103024906
 -0.275302263
 -0.343959444
 -0.205607049
 -0.103968248
  0.0236863682
  0.0737821505
  0.0563030862
  0.035939435
  0.0480286097
 -0.00516731811
 -0.0179418873
  0.0176774762
  0.0121370213
  0.00123861432
  0.00465638723
 -0.0124202656
  0.00865286345
 -0.0129474413
 -0.016801366
 -0.113120331
 -0.101247199
 -0.120174072
 -0.189653641
 -0.171668669
 -0.331512252
 -0.373343271
 -0.26105925
 -0.237811351
 -0.21012389
 -0.307501892
 -0.27321705
  0.0283271496
  0.0774179593
  0.0549892397
 -0.0247554512
 -0.0450351718
 -0.0358756638
 -0.024551219
  0.0166817658
  0.0323406746
 -0.0127734648
  0.0335219843
  0.0142573672
  0.0350778443
  0.000889571292
 -0.0100401177
 -0.0139906203
 -0.0627193384
 -0.00660843457
 -0.0159811538
 -0.0188576807
  0.0559895162
 -0.131437484
 -0.0151763535
  0.0114149445
 -0.276869746
 -0.347433388
 -0.302935781
 -0.153839597
  0.0183494697
  0.0078334932
  0.0246312436
 -0.0696660323
 -0.0546634277
 -0.0598699266
  0.013825019
  0.0245164079
  0.00456534113
  0.0314136744
  0.00543199692
  0.00096363255
 -0.0170740762
  0.00324348253
 -0.0223542073
 -0.0231829685
 -0.0411404305
 -0.0263948285
 -0.0106356135
  0.0320212687
  0.0277846562
  0.0489580727
  0.0322677524
 -0.0052619997
  0.0296548777
 -0.0444438821
 -0.0179055282
  0.0273254419
  0.00679886267
 -0.0178483265
 -0.0358635018
 -0.0292603641
 -0.0111806255
 -0.033027455
  0.0291508562
 -0.00477758263
 -0.00136563395
  0.0134571067
 -0.0159754625
 -0.0325145764
  0.00915649533
  0.0241875497
 -0.0020723445
  0.0244320814
 -0.00821158173
  0.0194545737
 -0.0256010038
 -0.00318748551
 -0.0140512951
  0.0113334293
  0.00117855266
  0.00361291749
  0.00741717791
 -0.0281255963
  0.00312128643
 -0.0275647162
 -0.0580962626
 -0.00701786631
 -0.0346556673
  0.0125055264
 -0.0218054378
  0.0229296994
 -0.00580106676
  0.0315213757
  0.0354601145
 -0.0116784083
 -0.00897049265
 -0.00161980518
 -0.0339355868
  0.0107683284
  0.00157990626
  0.0109379741
  0.000222432558
 -0.0299401137
  0.00306893159
  0.0286700374
  0.0251626976
  0.0135031086
 -0.0103375472
 -0.0268549543
 -0.00666410019
  0.0274706886
  0.011079683
  0.027713097
 -0.0338046888
 -0.00777229068
 -0.018921518
 -0.02776708
 -0.0273693876
  0.00423819252
 -0.0356853149
 -0.0044523733
 -0.00544453519
 -0.00577209464
 -0.00864528332
 -0.00569870429
  0.0182637828
  0.0180985119
  0.0283957762
  0.0200424833
 -0.00684744545
 -0.00573860535
 -0.00473661082
  0.029091703
  4.64490482E-06
  0.0339952878
  0.0220127957
 -0.0105820511
  0.0113847979
 -0.0257981622
 -0.00336393714
 -0.0318823372
 -0.0333760631
 -0.0276280471
  0.0313657948
 -0.0266562551
  0.00275485005
 -0.0231788478
 -0.0157008937
  0.0134118881
  0.0167736283
 -0.0156719216
 -0.026754771
 -0.0243851915
  0.0142702673
  0.00031423143
  0.00563039098
 -0.0031802335
 -0.0173015424
 -0.00168547856
 -0.0188388749
  0.0115872818
  0.0283532487
  0.0122629753
  0.00498231816
 -0.00742643418
  0.0102783
 -0.00969403396
  0.0148163233
 -0.0149386457
  0.00106753588
 -0.0215886665
 -0.0103865475
  0.003310875
 -0.0133933823
 -0.0144393891
  0.0125536025
  0.0251873008
 -0.00190395117
  0.0325669987
  0.00288490312
 -0.0208446085
 -0.0188192108
  0.0118444179
 -0.00951548711
  0.031158254
 -0.0235885225
  0.0318194794
 -0.00746318609
 -0.000543496036
 -0.00437905242
  0.00709336717
 -0.0464285976
 -0.0350089958
 -0.0379932816
 -0.00923662448
 -0.00596568567
  0.00304655306
 -0.0647010756
 -0.0118863088
 -0.031561988
 -0.0162514098
  0.00467191558
  0.00823244476
 -0.0281730356
  0.0340667665
  0.0289265003
  0.0198128734
  0.0235397816
 -0.00869173876
  0.0166655821
 -0.00928960102
  0.00617794347
  0.0333293023
 -0.0339960786
  0.0308273674
  0.0317687028
 -0.0538953355
 -0.0713212978
 -0.117736192
 -0.0914625774
 -0.0927296483
 -0.0477061846
 -0.0701995617
 -0.130432441
 -0.181241819
 -0.143818454
 -0.124021712
 -0.0804147031
 -0.0660118356
 -0.0216687597
 -0.00469006664
  0.0379758025
 -0.00158127717
 -0.0341233658
 -0.0304411596
 -0.00322879638
  0.0305174206
  0.0250859984
 -0.0154028905
 -0.014553585
  0.00417544449
  0.00701566689
 -0.00199266467
 -0.0971597398
 -0.141545662
 -0.155284148
 -0.163608477
 -0.147141162
 -0.155997441
 -0.160765979
 -0.244974494
 -0.343907955
 -0.320893551
 -0.251661709
 -0.194737836
 -0.178686137
 -0.120308527
 -0.0705030425
  0.0434288771
  0.112121377
  0.189785316
 -0.000738865563
 -0.0336675154
 -0.0107347923
  0.000852052655
 -0.0283929684
  0.0208475071
 -0.0076704642
  0.0242670149
 -0.067034179
 -0.0999002904
 -0.153061681
 -0.139315282
 -0.142013684
 -0.164638043
 -0.197605206
 -0.285759627
 -0.257543921
 -0.380894661
 -0.446090437
 -0.283918997
 -0.221070643
 -0.184904299
  0.0131782021
  0.106674651
  0.202240413
  0.213141045
  0.154668455
  0.00323636035
  0.0133444155
  0.0219191049
  0.0302870146
 -0.0022983402
  0.02394997
 -0.0177801401
  0.0257657118
  0.0144808249
 -0.0906648048
 -0.136997314
 -0.0569454708
 -0.0975091967
 -0.18786298
 -0.25550532
 -0.248593168
 -0.311969092
 -0.388999543
 -0.422072053
 -0.468170503
 -0.384442566
 -0.269441789
 -0.143514291
 -0.0767524658
 -0.0285983468
 -0.101655648
 -0.0460093232
  0.117532943
  0.0252466232
 -0.104224434
 -0.0833709085
  0.0248363919
 -0.0171882252
 -0.0213365898
  0.0159697299
 -0.0251238391
 -0.0886280329
 -0.106965848
 -0.0968857995
 -0.0415162495
 -0.137583206
 -0.216581287
 -0.289712249
 -0.374669681
 -0.478353853
 -0.527047412
 -0.471012153
 -0.442317203
 -0.42222679
 -0.385865236
 -0.261051947
 -0.147987107
  0.0763152227
  0.285599088
  0.279395996
  0.438840405
  0.156733903
 -0.0272343153
 -0.0560980056
 -0.00124681351
  0.0322463576
  0.0209225137
 -0.0293990505
 -0.110611757
 -0.0624625986
 -0.121860851
  0.0154935807
 -0.033644948
 -0.065409225
 -0.119581678
 -0.225935887
 -0.255187328
 -0.371722303
 -0.181581954
  0.0342656731
 -0.152507061
 -0.15572952
  0.110263183
  0.0881609914
  0.272280587
  0.352391773
  0.43930399
  0.601312749
  0.577988662
  0.409262545
  0.00418620248
 -0.00584717177
 -0.0261685456
  0.0240357074
  0.0182568214
 -0.00217647758
 -0.0311781653
 -0.0730586144
 -0.010958545
  0.0989858618
  0.0494025488
 -0.091686506
 -0.0247244438
 -0.0328784425
 -0.0932390419
 -0.086140326
  0.294894446
  0.0848532134
 -0.0695165226
  0.0397298249
  0.220447661
  0.117910841
  0.169580973
  0.292387993
  0.397256479
  0.29810478
  0.320693195
  0.285431612
  0.0749527629
  0.0154447362
  0.0122133791
  0.00546889301
  0.0645722232
  0.061785969
 -0.0117847162
 -0.0423539272
  0.0510223961
  0.115291943
  0.056953142
  0.000742310163
  0.128913072
  0.0130088355
  0.0879244509
  0.339570218
  0.356037888
  0.0598169103
  0.141228253
 -0.0319419728
 -0.0586643203
 -0.0314008873
  0.120362383
  0.22146318
  0.149856525
  0.102269327
  0.145255367
  0.156830851
  0.0959813579
  0.0355624684
 -0.00105310338
 -0.0167364695
  0.0345073245
  0.0295953818
  0.0433567253
 -0.0293294266
  0.18056659
  0.141862536
 -0.0180715414
 -0.154534993
  0.086386164
  0.101325281
  0.0662650113
  0.144105001
 -0.00149801943
  0.144094482
  0.387084153
  0.107509594
 -0.219209091
 -0.329440163
 -0.290333219
  0.0310758408
 -0.0815320506
 -0.0707583813
  0.0709019543
  0.0472896449
  0.00518697008
  0.0256632046
 -0.00852357064
 -0.0335684461
  0.0308914415
  0.0608005414
 -0.0224157852
 -0.0703983516
  0.137478022
  0.101911464
 -0.0029022712
  0.0575433118
  0.0445970317
 -0.126830411
  0.123033124
  0.412392306
  0.283715851
 -0.128727516
 -0.375756711
 -0.327675752
 -0.478080475
 -0.366799425
 -0.160899118
 -0.0933178505
 -0.0642586648
 -0.183739598
 -0.00980895399
  0.0627622495
 -0.0219194878
  0.026284116
 -0.0295271426
 -0.010585995
  0.0281743118
 -0.0115906793
 -0.0387651508
 -0.0242165081
  0.251297144
  0.252306042
  0.115972587
  0.0231762035
  0.0712918894
  0.017417091
  0.229395805
  0.270611521
 -0.112926032
 -0.275016653
 -0.393397499
 -0.460355655
 -0.66650015
 -0.407000787
 -0.261969785
 -0.225222606
 -0.273785247
 -0.23447107
 -0.0968187017
  0.0099899366
  0.0267360779
 -0.031758103
  0.016182627
 -0.0314694996
  0.0326400502
  0.00976094895
 -0.0461626636
  0.104557773
  0.497193975
  0.285323555
  0.117956005
  0.329482621
  0.424988552
  0.403560975
  0.16003091
 -0.123434549
 -0.178665218
 -0.125284121
 -0.0110756853
  0.038471061
 -0.318093108
 -0.366575263
 -0.230569141
 -0.171309839
 -0.179352129
 -0.183939943
 -0.0142568313
  0.0315998847
 -0.000957104143
 -0.0307222466
  0.0179599353
 -0.00705086609
 -0.0268065577
  0.026918263
  0.028818124
  0.266462851
  0.407213769
  0.155956096
  0.0420276213
  0.116882973
  0.158450537
 -0.0589973055
 -0.318098699
 -0.336215435
 -0.371030834
 -0.432596927
 -0.159119293
  0.27502021
  0.175668961
 -0.158155992
 -0.244300862
 -0.179201436
 -0.16221147
 -0.08809601
 -0.0698049718
 -0.00190644949
  0.00609061155
 -0.0198450506
  0.0316857568
  0.0016134509
 -0.0150304643
  0.0864890103
  0.133413613
  0.17856953
  0.15238949
  0.0126412401
 -0.158642176
 -0.153639304
 -0.13767796
 -0.230245423
 -0.176672788
 -0.0661592401
 -0.0191514112
 -0.107669669
 -0.161571397
 -0.0146865326
  0.129573249
 -0.200054406
 -0.135887708
 -0.046134425
 -0.155329098
 -0.14646077
 -0.0575094261
 -0.0209685144
 -0.0528005425
  0.00791457947
  0.00754549674
 -0.0354384295
  0.0208802893
  0.0737191241
  0.0692493708
  0.0466564703
  0.267252215
  0.3316784
  0.0544884427
 -0.149784086
 -0.157618704
  0.000631094014
  0.145300299
  0.0207895819
 -0.105711185
  0.0129018867
 -0.0565441115
 -0.116296468
  0.0282727746
 -0.25504343
 -0.0706556736
 -0.0505621643
 -0.0949404124
 -0.0768966905
 -0.0281348643
  0.0292675468
 -0.00110320637
  0.0115227338
  0.00827851892
  0.0050760167
 -0.00713506821
 -0.0101621413
  0.00847174039
 -0.0603400813
  0.409977456
  0.435611743
  0.204431479
 -0.139059616
 -0.214452235
 -0.141318857
 -0.187233958
 -0.143931343
  0.00147438255
  0.0583697809
 -0.213429148
 -0.0767969345
  0.0100772886
 -0.194714331
 -0.165395164
 -0.0470616828
 -0.0720348444
 -0.0382062512
  0.0170939659
 -0.0194103325
 -0.0140367498
 -0.0199278376
 -0.0259312732
  0.0283874358
  0.0486567719
  0.0170606689
 -0.104564747
 -0.297412387
  0.105096684
  0.462572452
  0.300144478
  0.0513572826
 -0.251188598
 -0.14792388
 -0.0487755513
  0.205761372
  0.119504011
 -0.185420033
 -0.38371618
 -0.00896379754
 -0.000891154087
 -0.18520169
 -0.124389302
 -0.046075575
 -0.0740341161
 -0.0520327076
 -0.0318276662
  0.015867121
  0.034737202
  0.0342856387
  0.0236259827
 -0.0126692972
 -0.0174736127
  0.0140620397
 -0.096081916
 -0.309943944
 -0.216983714
  0.23076365
  0.227645796
  0.114354308
  0.155804366
  0.261961216
  0.268062362
  0.195815725
 -0.253198621
 -0.389397957
 -0.245639121
  0.00488610765
 -0.212275566
 -0.161178736
 -0.125795524
 -0.0707518347
 -0.113736171
 -0.038169053
 -5.84253695E-05
 -0.0145223921
  0.000293309701
  0.0174770228
  0.0316242235
 -0.000937623637
  0.0169232975
 -0.00224444268
 -0.028860537
 -0.199573859
 -0.29948526
 -0.306126665
 -0.318667304
 -0.346752507
 -0.216791127
 -0.0977351161
 -0.272032999
 -0.264959368
 -0.15399163
 -0.113886361
 -0.00974193355
 -0.237706049
 -0.0778370344
 -0.0102166134
 -0.035610185
 -0.0747465485
 -0.0858449996
 -0.0203152637
 -0.034553791
  0.0207801488
  0.0356766194
  0.0162071628
 -0.0310730769
 -0.000464064734
 -0.00201171133
 -0.0446043385
 -0.00832615325
 -0.176539747
 -0.0851637351
 -0.187512483
 -0.37055728
 -0.373374189
 -0.306359738
 -0.266793001
 -0.194252549
 -0.066093633
  0.0990086095
  0.00223986784
 -0.0916275683
 -0.0472655428
  0.0659315383
  0.0734549055
 -0.00252297105
 -0.0227477351
 -0.100170503
 -0.00463372126
  0.0103855236
  0.0198012607
  0.00500868804
  0.0225287293
  0.0035370418
  0.00466111302
  0.00302142623
  0.00731314504
 -0.0508910308
 -0.0868999802
 -0.108608545
 -0.14405301
 -0.209014216
 -0.336664772
 -0.190051442
 -0.123716593
  0.0384132346
  0.129092163
  0.0293253573
 -0.0498297213
 -0.0172153184
  0.0738769321
  0.0673193928
 -0.0668217311
 -0.0248061206
 -0.0607529698
 -0.0787322758
 -0.0328759586
 -0.0130934201
  0.0143875349
 -0.0115482469
 -0.0321246862
 -0.00187110475
  0.0295757013
  0.0261183296
 -0.0351742369
 -0.010702568
 -0.0150208689
 -0.0410914793
 -0.0497869962
 -0.0509709575
 -0.0974176731
  0.00144270419
  0.131273696
  0.198652852
 -0.0405323145
 -0.117125979
  0.0241644361
  0.0497591289
  0.0993281106
 -0.0191482465
 -0.0520553136
 -0.0120744639
 -0.0549096571
 -0.0640545105
  0.0130418478
 -0.0113597036
  0.0287297496
 -0.0158847358
  0.0117508173
  0.00747528246
  0.00856895106
  0.0153404176
 -0.030389058
 -0.00194317444
  0.000700156512
 -0.0563947025
 -0.105825696
 -0.0199445431
 -0.0423297631
  0.00804720806
  0.0137714918
  0.0738985329
  0.036514137
  0.0112278512
  0.000987580164
  0.0303900511
 -0.0227239207
 -0.0512666493
 -0.0307366011
 -0.0488370269
 -0.056099007
 -0.0246351854
  0.000164721612
 -0.0165290333
 -0.018255387
  0.00574028492
  0.0101800731
 -0.0252399221
  0.0255698349
 -0.0137833953
  0.0174823214
 -0.00510643773
 -0.0464682377
 -0.0445891622
 -0.101333099
 -0.0337679834
 -0.0144465758
 -0.0614118753
 -0.023431316
  0.00147094784
  0.0123983274
 -0.09536948
 -0.0497107723
 -0.00918770162
 -0.0685484216
 -0.0851252181
 -0.0772252804
 -0.0830468928
 -0.0257150379
  0.00689791323
  0.0221855142
 -0.0115571916
  0.0114215059
  0.0116709769
  0.0100571598
  0.0288804046
 -0.0183030271
 -0.0154770528
 -0.0320738038
 -0.0284474779
  0.0075847342
  0.022306236
  0.00225352115
  0.00727044037
  0.0105283526
  0.0077461671
 -0.0319214747
 -0.00520952161
  0.026978361
  0.0424235219
 -0.0493932513
 -0.0304051667
  0.0228906269
  0.0132264814
  0.0207950804
  0.025819155
 -0.025911217
 -0.0312712743
 -0.0354386938
  0.0232568894
  0.0334956092
  0.0301312038
 -0.024014589
  0.00920282517
  0.00608789069
  0.0217568576
  0.00236894403
  0.0234991482
 -0.029434483
  0.00600942544
  0.0307659592
  0.0127336383
 -0.00811472961
  0.000742980412
 -0.0149697853
 -0.0343993495
 -0.0284251209
  0.000342560666
  0.00585425752
  0.0156431198
 -0.0135877771
  0.0226175359
  0.0294773238
 -0.0274592457
  0.0158640913
  0.0222649191
  0.0339862491
  0.0329575879
  0.0322092984
  0.0342618397
  0.0205001916
  0.0299906177
  0.0286787578
  0.0321998894
  0.00347916143
 -0.000947637217
  0.0182424613
 -0.0298661802
 -0.0131627543
  0.0245205831
  0.011853527
 -0.0181136595
  0.00154239487
 -0.0319694709
  0.0183509532
  0.022285323
 -0.0308672962
  0.0242364323
 -0.0134019002
  0.010891187
  0.00556312663
  0.00904016304
 -0.00218404169
 -0.000672261259
  0.0172959438
 -0.0220349484
 -0.0141221604
  0.0155679073
 -0.0247916462
 -0.0176271498
  0.0141154613
  0.0314228322
 -0.0233508168
  0.0070799331
  0.0279084322
  0.0158426122
 -0.0295825254
  0.0104327952
  0.0216967672
 -0.00771437153
 -0.0105903316
 -0.105264173
 -0.0786518219
 -0.0697612009
 -0.00294249943
 -0.0113210089
  0.0117791697
 -0.00634456587
 -0.0207841064
 -0.0271335374
 -0.0258549648
  0.0179683798
  0.0190230317
  0.015359762
 -0.0119829987
  0.000609282936
  0.0290410987
  0.00960912875
 -0.0195370966
 -0.0314648314
  0.0276962604
  0.0302926515
  0.0356720578
 -0.031521606
  0.000744411713
  0.0247742973
 -0.0250066532
 -0.0980142705
 -0.0942289461
 -0.162654279
 -0.295575008
 -0.385073978
 -0.19531593
 -0.0814440178
 -0.0140085801
  0.137039226
 -0.0561570313
 -0.031394188
 -0.0510688918
 -0.0199169132
  0.0363779753
 -0.00594887821
 -0.0236471679
  0.0189919387
 -0.0263104769
  8.41191837E-05
 -0.0161130641
 -0.0329836623
 -0.0260208557
  0.000538991817
 -0.0358270732
 -0.06601968
 -0.058012313
 -0.113907318
 -0.196065939
 -0.147577973
 -0.168354844
 -0.259589034
 -0.549418201
 -0.491506465
  0.0843618486
  0.135943397
 -0.0813541532
  0.283395811
  0.0465492153
 -0.136696506
 -0.08977811
 -0.0221191906
 -0.00099745471
 -0.0180365613
  0.00960598479
 -0.00392620053
  0.0124846271
  0.0204518693
 -0.0206485465
  0.021870983
 -0.0151125246
 -0.0122167334
 -0.0614802511
 -0.109263027
 -0.11846698
 -0.192356042
 -0.199832964
 -0.280639291
 -0.635974541
 -0.765708238
 -0.908420278
 -0.634310555
 -0.26049847
 -0.0958727066
 -0.51624825
 -0.347737441
 -0.252637637
 -0.363758375
 -0.299064971
 -0.123155124
 -0.0322739017
  0.0102735347
 -0.0853430576
 -0.06862253
  0.0146971191
  0.00847944617
  0.00541966728
 -0.00853995378
 -0.00528586428
  0.00460866831
 -0.119906317
 -0.155785242
 -0.210874997
 -0.242717588
 -0.24020007
 -0.696608628
 -0.797061311
 -0.499958474
 -0.087639707
 -0.164940698
 -0.0475169559
  0.238242417
  0.299704305
  0.055677917
 -0.251261763
 -0.471140004
 -0.239726851
 -0.107651416
 -0.207528079
 -0.191449814
 -0.145217483
 -0.050062221
 -0.027278414
 -0.0255018705
 -0.00144609408
  0.0254525065
  0.0285362954
 -0.0298494898
 -0.142450434
 -0.223741046
 -0.237205716
 -0.230816773
 -0.248470394
 -0.59985449
 -0.70282744
 -0.00991170661
  0.272331282
 -0.0418486627
  0.336937785
  0.356106574
  0.550612585
  0.756566727
  0.526859791
  0.0561142295
  0.0252729093
 -0.254184439
 -0.422495493
 -0.311315561
 -0.0973949327
 -0.0219988124
 -0.0254473488
  0.00828168671
 -0.0257482883
 -0.00624664871
  0.0438704437
 -0.0053890311
 -0.205717155
 -0.244698479
 -0.154383231
  0.0192304169
  0.0842178737
 -0.21035331
 -0.375036951
 -0.116847922
  0.059386947
 -0.0728140886
 -0.0158264985
  0.175656519
  0.786619366
  0.707455184
  0.305392894
  0.191436898
 -0.0910379978
 -0.371314869
 -0.327464662
 -0.163561426
 -0.134919516
 -0.00861342533
 -0.0210496274
  0.0230073477
  0.0195170163
  0.0195209765
  0.0390170379
 -0.00524254602
 -0.0132080206
 -0.102450161
  0.0135098781
  0.279983276
  0.435422686
  0.503999931
  0.386403598
 -0.0495936478
 -0.169662746
  0.05853052
  0.331189602
  0.540698938
  0.414880811
  0.380235382
 -0.0432475558
 -0.0983346983
 -0.347514733
 -0.382153482
 -0.285860398
 -0.25037682
 -0.116453434
  0.0322035536
 -0.0352286481
 -0.0127093047
  0.0203954235
  0.00233808459
  0.0169173562
  0.0512548762
 -0.0128632423
 -0.00126124587
 -0.0484841068
  0.280030344
  0.196229825
  0.173508904
 -0.047276528
 -0.248631895
 -0.213532371
  0.0682892385
  0.546147885
  0.481683929
  0.26145311
  0.248543917
  0.0272782148
  0.0344030545
 -0.245608166
 -0.158240538
 -0.117837047
  0.00180635609
 -0.0124259042
  0.031129407
 -0.0303958681
 -0.0294596569
  0.0312791404
 -0.019651772
  0.0247759784
  0.0542075602
 -0.146002609
 -0.142025253
 -0.0613400133
  0.0896763396
 -0.0316549104
 -0.10193473
 -0.176443904
 -0.1377589
 -0.126713066
 -0.016604286
  0.146594759
  0.213727776
  0.2285406
  0.268053364
 -0.000157786353
  0.0656683167
 -0.172148628
 -0.183684874
 -0.155783786
 -0.0841725579
 -0.0105459074
  0.0287629003
 -0.0114965698
  0.0318901028
  0.0258241212
  0.00280566141
 -0.0105071347
  0.0505095948
 -0.154620675
  0.0619734563
  0.0367629043
 -0.064697172
 -0.314631119
 -0.736638758
 -0.582503016
 -0.491903317
 -0.185742474
 -0.152230862
 -0.000586466807
  0.0140329685
  0.139827423
 -0.0450048053
 -0.122866083
 -0.184229145
 -0.249654762
 -0.223807654
 -0.159997243
 -0.120748872
 -0.143836439
  0.0197375241
 -0.00595884321
  0.034402677
  0.0275525244
  0.0419375355
  0.0249588681
  0.0279502103
 -0.0357616455
  0.165260567
 -0.0185865483
 -0.287797279
 -0.441202366
 -0.822988029
 -0.812072059
 -0.532889886
 -0.359228843
  0.039734519
 -0.0180159889
  0.178634928
 -0.0466709772
  0.129661463
 -0.107577357
 -0.378860436
 -0.299227666
 -0.274418975
 -0.221640311
 -0.141216238
 -0.0190538196
  0.0197221284
  0.0174551606
  0.0349265848
  0.0253492993
 -0.0200477511
  0.0211045637
 -0.00530542874
  0.0807557696
  0.00129220565
 -0.175431246
 -0.198032856
 -0.166052304
 -0.490289893
 -0.557802033
 -0.453919494
 -0.370917688
  0.194838833
  0.0182506599
  0.365455425
  0.257641158
  0.377297463
  0.0880102454
 -0.133300236
 -0.058687933
 -0.0107719358
 -0.131701661
 -0.122056098
  0.00452172357
 -0.000434018834
  0.0105023597
 -0.0299881723
 -0.0286208257
 -0.00777425828
 -0.0407393787
  0.00801356994
 -0.0600155087
  0.030308828
 -0.113264178
 -0.380670754
 -0.449153314
 -0.581869103
 -0.252225095
 -0.313525273
 -0.283287361
  0.261050384
  0.163807668
  0.299279616
  0.813477349
  0.400252974
  0.000739394766
 -0.136421669
 -0.049344359
  0.0889811595
  0.0575171816
  0.0539354492
 -0.0431999619
  0.0090714801
  0.00481836135
 -0.0108175129
  0.0151602541
 -0.0197359024
 -0.0110187458
  0.00596218297
 -0.12035686
 -0.096651189
 -0.0269768045
 -0.443708821
 -0.494758932
 -0.216857339
 -0.0467672802
 -0.246407791
 -0.0234608898
  0.0775656401
  0.230359644
  0.468786542
  0.430250507
  0.0297585612
 -0.230561279
 -0.311653289
 -0.129325506
 -0.0201262633
 -0.0189842956
  0.0821692663
  0.0454256255
  0.00580892946
  0.0180371071
  0.0145068594
 -0.0317307306
 -0.0126009658
 -0.0492894712
 -0.0154261584
 -0.178412014
 -0.377027892
 -0.180471292
 -0.258824031
 -0.366817972
 -0.382607038
  0.0945314562
  0.16350209
  0.519713348
  0.63186775
  0.0383700313
  0.0818923994
 -0.325492451
 -0.641890028
 -0.584950275
 -0.531862141
 -0.21257478
 -0.1505575
 -0.139377379
 -0.0432679439
 -0.0106874114
  0.0369528613
  0.0143963215
  0.0125653616
  0.00112993377
  0.00330898946
 -0.0425744702
 -0.101124337
 -0.279928337
 -0.553247549
 -0.667449856
 -0.640470856
 -0.945045334
 -0.588172728
 -0.000450025429
  0.227529243
  0.442149203
  0.556617385
 -0.0417104666
 -0.440538002
 -0.719435169
 -0.669666052
 -0.560037379
 -0.430003645
 -0.380112149
 -0.278117698
 -0.233996853
 -0.15637063
 -0.0254643615
 -0.0106338683
  0.0848547577
 -0.0095345974
 -0.0204292312
  0.0189542157
 -0.0714960411
 -0.110972777
 -0.327282954
 -0.651654308
 -0.828527367
 -1.03719113
 -0.951262642
 -0.251896257
 -0.0730732571
 -0.0885912383
  0.241722542
 -0.0235374107
 -0.191248989
 -0.315736452
 -0.882019216
 -0.706576553
 -0.425545102
 -0.302926366
 -0.364723957
 -0.338791707
 -0.178401832
 -0.194509631
 -0.019025269
 -0.0159157443
  0.0146578842
  0.00377834695
  0.00220362203
 -0.0119547415
 -0.0138221974
 -0.0966257186
 -0.301535289
 -0.415711334
 -0.733067017
 -1.11808439
 -0.754026485
 -0.0740090766
 -0.0849726775
  0.0323681236
  0.115798782
 -0.394969539
 -0.410869123
 -0.596296646
 -0.927731977
 -0.502869319
 -0.411440833
 -0.231279443
 -0.346555119
 -0.378152764
 -0.277687023
 -0.157884918
 -0.0270408612
 -0.0173594652
 -0.0155966516
 -0.00800094008
  0.0018123218
  0.0126945852
  0.0144052576
 -0.0816712875
 -0.186326029
  0.033683034
 -0.0654878963
 -0.574013694
 -0.16602685
 -0.07398896
 -0.00193801374
 -0.02400334
  0.0851603369
 -0.634887519
 -0.664513703
 -0.590905872
 -0.979404339
 -0.72259425
 -0.452874914
 -0.237800836
 -0.356319321
 -0.33278214
 -0.175624743
  0.00504144415
  0.0321564607
 -0.0296375801
  0.0329711182
 -0.0309527357
 -0.0150344627
 -0.0182513797
 -0.00144712771
  0.0430099755
  0.0501640312
  0.312039586
  0.196096978
  0.125488925
 -0.0716633494
 -0.244510987
 -0.0625674458
  0.282098951
  0.2742075
 -0.109959918
 -0.451836439
 -0.386620859
 -0.827906547
 -0.81571475
 -0.403318249
 -0.117535408
 -0.162802281
 -0.147125064
 -0.135038359
 -0.0228598496
 -0.0239236825
  0.0183895796
 -0.0319651099
 -0.0279039501
  0.0207231811
 -0.0347064267
 -0.0277129713
 -0.0685518839
  0.0376975114
  0.149185975
  0.265796232
  0.235565649
  0.0630885546
  0.0273246101
  0.25145486
  0.575339511
  0.185495407
 -0.475919496
 -0.680455756
 -0.394264208
 -0.715581707
 -0.619777723
 -0.349028354
  0.0173490365
  0.0118383319
 -0.0376286989
 -0.0700562247
 -0.0136828929
  0.0191666528
 -0.00213970337
  0.0203520656
  0.0307873998
 -0.0194492159
  0.0241012403
 -0.0443040433
 -0.0838189617
  0.0204838524
  0.0859294638
  0.286424995
  0.14398783
  0.141600891
 -0.0662580325
  0.309400367
  0.307961446
 -0.741597089
 -0.696952931
 -0.210204431
 -0.282161303
 -0.360806541
 -0.374980025
 -0.248473789
 -0.0472026749
  0.0416315451
  0.0454806425
 -0.0137730858
  0.00149064352
  0.0228877153
  0.0103437432
 -0.0316216642
  0.00634319867
 -0.0274982921
  0.0244446865
  0.0013455259
 -0.0140007683
  0.0593430293
  0.223974994
  0.423763005
  0.414035986
  0.294668602
  0.249301103
  0.585090066
  0.273931604
 -0.0317224912
  0.0860686406
  0.129204929
 -0.0186788914
 -0.0423990775
 -0.172299158
 -0.102607362
  0.0426816301
  0.0680513309
  0.0598232807
  0.0115353714
 -0.0105890437
  0.0322113718
  0.0219333512
  0.0251451348
  0.0193848014
 -0.00343718912
  0.0292377557
 -0.00945502904
  0.0082364508
  0.0507494728
  0.0690502952
  0.18912569
  0.0580910341
  0.00821482516
  0.0599743701
  0.0183619871
  0.0130910118
  0.0580337783
  0.0916730393
  0.0997506115
 -0.0106228055
  0.00075241968
 -0.000808400925
  0.019884242
  0.0405512097
  0.0932383316
  0.0444270357
  0.0103867415
 -0.0245339179
  0.0195430602
 -0.0241798237
 -0.0012582796
  0.0160401464
  0.0334678122
 -0.0118274327
 -0.000289335847
 -0.00568366051
 -0.0186549219
  0.0253671011
  0.0441500114
  0.0430172364
  0.0198895446
  0.0300754442
  0.00137462093
 -0.0010415942
 -0.00451726823
  0.00259049327
 -0.00119510807
  0.0337106453
  0.0359112237
 -0.0161427036
 -0.0290711156
  0.00121807012
  0.00671907879
 -0.0015438805
 -0.0100839159
  0.00428737913
 -0.0179291453
 -0.0354798591
  0.0154677459
 -0.0341003702
 -0.0239453976
 -0.0215048205
  0.0176540613
 -0.026191869
  0.00238203151
 -0.0183495592
  0.00383875625
  0.0197923524
 -0.0286251796
  0.0029339024
  0.0194565441
  0.0239578017
 -0.0044253724
 -0.021508037
 -0.0348722774
  0.00751596263
  0.00626607026
 -0.00678888389
  4.70450946E-05
  0.00563405667
  0.00989377499
  0.00531483122
 -0.0289394424
 -0.0207658687
 -0.0332726551
 -0.00330907106
  0.019235794
 -0.0154875155
 -0.003074646
 -0.00101074576
 -0.0138735984
  0.00869424428
  0.0131987206
 -0.0319338215
  0.0188145446
 -0.0137756222
 -0.00167260167
 -0.00555253962
  0.0355602542
 -0.00727397365
  0.0250709947
  0.0191279451
 -0.0393301717
 -0.0337531282
  0.0296366745
 -0.0180247156
  0.0280777725
  0.00398089108
  0.0105910819
 -0.00757076328
 -0.0262068329
 -0.0152895727
  0.0334417777
 -0.0194319891
 -0.000341155699
 -0.0355451618
  0.0129732234
 -0.0168196474
 -0.0153183916
 -0.025815679
  0.0178837293
  0.00652152784
  0.0205649121
 -0.00137695569
 -0.0840217951
 -0.0788984413
  0.0163304453
  0.00646820526
 -0.0205868082
 -0.0646156891
 -0.0485465166
 -0.0146478201
 -0.0175973977
  0.000823687386
  0.0377706078
 -0.00559861864
  0.0223378319
  0.0247345882
  0.0319831593
 -0.00277641347
 -0.0179464178
 -0.0307171339
  0.0172926741
 -0.0202189248
 -0.0144348379
 -0.0187627663
 -0.0200498008
  0.0342526762
  0.000129261941
  0.00123908901
 -0.019478377
 -0.123414183
 -0.248005819
 -0.215819052
 -0.220090237
 -0.0689607179
 -0.062917627
 -0.161407249
 -0.115922861
 -0.123021962
 -0.100333159
 -0.100692797
 -0.00409059568
 -0.0758218659
 -0.048131476
  0.0449960166
  0.0231407309
 -0.00968239767
  0.0149031665
  0.0160560395
  0.0248092541
  0.0326710301
  0.0210531907
  0.00638764671
 -0.0232652104
 -0.0292008511
  0.0272562355
  0.00466628239
 -0.033425196
 -0.208474665
 -0.217855598
 -0.214328241
 -0.150392037
 -0.0670451203
 -0.0862640201
 -0.0839779857
 -0.151207674
 -0.1609283
 -0.356062549
 -0.308940132
 -0.14752869
  0.0168431207
  0.0421495703
  0.113023429
  0.0324540094
  0.00210236411
 -0.0239773819
  0.0208043541
 -0.00674604305
 -0.0261092825
  0.00114610791
 -0.0176511068
 -0.0330172757
 -0.0251996155
 -0.037980328
 -0.129366074
 -0.293137234
 -0.283068776
 -0.337018986
 -0.245122777
 -0.106965441
 -0.284543952
 -0.149488847
 -0.21190641
 -0.121563761
 -0.0822347623
  0.0448515022
  0.058480188
  0.212373207
  0.00999885959
  0.0250426782
  0.132239555
  0.0523893191
  0.125567273
 -0.0211587106
 -0.036215773
 -0.0250037471
  0.0268198507
  0.0248674495
  0.00115330586
 -0.0584023273
 -0.0203360557
 -0.0698402453
 -0.144309256
 -0.217594959
 -0.288198551
 -0.0756493591
  0.0461250973
 -0.16565842
 -0.388833578
 -0.459485469
 -0.358297009
 -0.30011485
 -0.198545525
  0.122352974
  0.184721464
  0.387901378
  0.29100783
  0.142679586
 -0.077589042
 -0.117539677
  0.0143385043
 -0.153386407
 -0.0600452552
 -0.0159243182
 -0.00149894384
 -0.0138548259
 -0.0583697266
 -0.0949135192
 -0.103395066
 -0.021592636
 -0.133026748
 -0.226380613
 -0.0566652529
  0.0503105434
  0.142802064
 -0.103485331
 -0.0993045616
 -0.238363478
 -0.201318571
 -0.196075431
 -0.00848930702
  0.067533601
  0.122759747
  0.110513235
  0.234314396
  0.166040441
 -0.296308508
 -0.242348716
 -0.0549780971
 -0.185923645
 -0.0321683609
 -0.0244791688
 -0.0225514654
 -0.0245244766
 -0.0350799187
 -0.0880872281
 -0.111903896
 -0.0777543807
 -0.172450901
 -0.150409485
 -0.171164195
 -0.0145121986
  0.224701929
  0.226610051
 -0.0279825942
 -0.111095709
 -0.29037029
 -0.447449672
 -0.311786699
 -0.178624522
 -0.0723118913
 -0.221547161
  0.272684968
  0.228017999
 -0.216548014
 -0.158256759
 -0.177422542
 -0.146089813
 -0.0485645492
 -0.00584540545
  0.0105041906
 -0.00785381857
  0.00997313909
 -0.0265826315
 -0.0762810114
 -0.0412408826
  0.132798809
 -0.301392566
 -0.184548026
  0.282629824
  0.5030135
  0.113738384
 -0.14648455
 -0.301812897
 -0.655854157
 -0.6352731
 -0.268873488
  0.021514788
  0.371961306
  0.446504021
  0.248265536
  0.214267711
  0.175910881
 -0.0143106764
 -0.18961811
 -0.11144042
 -0.0139853461
 -0.004522888
 -0.0241446591
 -0.0195834738
 -0.033118907
  0.0302677694
 -0.0926316197
  0.230515982
  0.189402985
 -0.0286680346
  0.253056433
  0.706083478
  0.289887081
 -0.261739482
 -0.673230109
 -0.923391449
 -0.885496475
 -0.7934872
 -0.197142057
  0.574465526
  0.772250771
  0.697414498
  0.512516293
  0.385079891
  0.45663843
  0.265713853
 -0.0193446021
 -0.0479036789
  0.00403906197
  0.0103979536
 -0.00730737192
 -0.014665255
 -0.0266652929
  0.0235689682
 -0.043800355
  0.284049126
  0.361450968
  0.430865815
  0.583734495
  0.479337035
  0.0818740369
 -0.500406708
 -0.75240191
 -0.944439258
 -0.999711497
 -0.7034792
 -0.495272066
 -0.133175376
  0.193427885
  0.446687281
  0.390781506
  0.730745304
  0.674101688
  0.4180355
  0.00112487256
 -0.0496710812
 -0.0122226331
 -0.0348781305
 -0.00902395163
  0.0265455492
  0.00639032391
  0.0473915926
  0.00870351022
  0.442087891
  0.489644046
  0.571750205
  0.513914015
 -0.0250123603
 -0.502373482
 -0.857183861
 -0.959097614
 -0.804314266
 -0.630638285
 -0.698929094
 -0.813767232
 -0.757832946
 -0.330277006
  0.086534788
  0.157085292
  0.711453761
  0.691029214
  0.461842236
  0.138431813
 -0.0267458963
  0.0196603631
  0.0304823661
 -0.0355519518
 -0.0291681339
  0.0416596049
 -0.0226149938
  0.0656103891
  0.531625818
  0.549378653
  0.51958764
  0.209929516
 -0.322779817
 -0.580877646
 -1.02547409
 -0.915553641
 -0.682986093
 -0.828984771
 -0.860962123
 -0.828473183
 -0.782637844
 -0.350909428
 -0.0641735619
  0.246969896
  0.651281916
  0.522332252
  0.439648151
  0.183320032
  0.0279678381
 -0.00272060493
  0.0327869058
  0.0305571173
 -0.0196551162
  0.0278514311
  0.0113522168
  0.112094996
  0.567831484
  0.696597229
  0.684564608
  0.149027668
 -0.29690533
 -0.675441975
 -0.79845041
 -0.551207535
 -0.695471366
 -0.934294667
 -0.891203985
 -0.701382916
 -0.489655266
 -0.208619196
 -0.0100330675
  0.414602967
  0.78273711
  0.663687261
  0.349670953
 -0.017347383
  0.0569596721
  0.0302691153
 -0.00122965234
 -0.00291939718
 -0.00494775361
 -0.00393820078
 -0.0344646503
  0.0666048664
  0.440279166
  0.799845289
  1.10265247
  0.503892591
 -0.0916366127
 -0.633962622
 -0.324852615
 -0.284829048
 -0.511700694
 -0.643788924
 -0.503342795
 -0.337228078
 -0.203694551
 -0.107418102
 -0.0212893444
  0.374070184
  0.513668375
  0.686899866
  0.263229003
 -0.1236568
 -0.0601448958
 -0.0406223261
  0.033692854
  0.0201855302
 -0.0315030233
 -0.013729483
 -0.0405032845
 -0.13284744
  0.349607808
  0.897213312
  1.1630232
  0.806833342
  0.518705773
 -0.0319062803
 -0.0873935674
 -0.498857873
 -0.769021635
 -0.70720334
 -0.558230597
 -0.537951843
 -0.43878718
 -0.102858918
 -0.0536003603
  0.138322029
  0.334652871
  0.401036864
  0.235352117
 -0.126448273
 -0.200224534
 -0.0400622802
  0.0168850284
  0.00665997182
 -0.0160073744
 -0.0024342663
 -0.0669948059
 -0.285245205
  0.169273913
  0.548722705
  0.716346126
  0.970353819
  0.805850246
  0.458172662
  0.289874286
 -0.0708499219
 -0.23323759
 -0.303103596
 -0.471416611
 -0.637475475
 -0.394743076
 -0.221286136
  0.140450219
  0.463387665
  0.17272131
  0.183738685
  0.0619953223
 -0.232501651
 -0.217707307
  0.0166275213
  0.0152739021
 -0.0138571731
 -0.0245513001
 -0.0321560444
 -0.168857918
 -0.437182675
  0.0573344888
  0.29890026
  0.633417139
  0.817071838
  0.778528491
  0.415512737
  0.0970999761
 -0.305662413
 -0.381769915
 -0.458913909
 -0.483149532
 -0.558899732
 -0.381214514
 -0.151911728
  0.202074234
  0.354416191
  0.187245675
  0.00366754454
 -0.0343786881
 -0.180546119
 -0.0951218136
 -0.0251686558
 -0.00826931398
  0.0318292507
 -0.0260882484
 -0.15623442
 -0.267671673
 -0.398888272
  0.052756002
 -0.00173662106
  0.154243455
  0.168430783
  0.447107447
  0.250632655
 -0.0429342864
 -0.324537736
 -0.546312694
 -0.631545749
 -0.443639407
 -0.316525669
 -0.123931428
  0.183407288
  0.0294218452
  0.164581832
  0.196523919
  0.166787589
 -0.0792712555
 -0.0920330456
  0.00563353302
 -0.0243058331
  0.030816884
  0.0280300634
 -0.0125027831
 -0.0491679292
 -0.129098597
 -0.131039975
 -0.0900798508
 -0.246639773
 -0.265099339
 -0.280040308
 -0.224758135
 -0.191449798
 -0.211933894
 -0.363145602
 -0.50154726
 -0.478489819
 -0.268241243
 -0.193625933
 -0.128725743
  0.206398071
  0.232441356
  0.178127818
 -0.0836462585
  0.0564117077
 -0.165864935
 -0.0998270618
 -0.00385469857
  0.0194108981
 -0.000989405172
  0.0335661726
  0.0292061354
 -0.0221133664
  0.00190481072
 -0.0526217341
  0.196533286
 -0.102147365
 -0.212226606
 -0.335687373
 -0.111998904
 -0.196583435
 -0.249572819
 -0.298723874
 -0.306099961
 -0.0612650242
 -0.0989771031
 -0.0639000193
 -0.136718508
  0.228787894
  0.341698426
  0.177518203
 -0.0931438376
 -0.0832437217
 -0.0956465054
  0.0106127438
  0.00780222686
 -0.0232088726
 -0.00251506482
 -0.0356849571
  0.0292042579
  0.0171232457
  0.0138150095
 -0.0502539017
  0.102917686
  0.157682842
 -0.0848435404
 -0.081380093
  0.0707537464
  0.191872122
  0.0318264224
 -0.074424191
 -0.0653674176
 -0.220824818
 -0.203427301
 -0.147025049
 -0.235073148
 -0.17600637
  0.267675545
  0.283407577
  0.0369360058
  0.0177443012
 -0.0487510116
  0.0222020048
  0.00440965697
  0.0225940446
 -0.0206057067
 -0.0272037754
  0.0333144069
  0.0125967497
 -0.0287158517
 -0.0501575713
 -0.029711888
 -0.00966819127
  0.0392463122
  0.054643967
  0.0753560784
  0.133309111
 -0.00996072374
 -0.0574942343
 -0.157710375
 -0.367149419
 -0.356766525
 -0.423964753
 -0.307601808
 -0.148566506
  0.147046356
  0.201688718
  0.0332019775
  0.104316818
  0.0106488556
  0.0284920651
  0.0139208086
  0.00429623574
  0.0194205855
 -0.0192217997
 -0.00861775024
  0.0345291666
 -0.00984012417
 -0.0395867249
  0.00402482973
 -0.0630111051
 -0.126343562
 -0.211514388
 -0.160042305
 -0.117460674
 -0.264702117
 -0.179082493
 -0.315959326
 -0.403445107
 -0.382132146
 -0.387337256
 -0.283838076
 -0.137511261
  0.108987376
  0.187040329
  0.198588943
  0.17123193
  0.0598648049
 -0.0321640747
 -0.00768923972
  0.0145479611
  0.0319105898
 -0.0293606339
 -0.0161479839
  0.0156168895
 -0.0129166648
  0.00990016414
  0.00970675016
  0.0135334053
  0.0302593331
 -0.0380403305
 -0.0717378982
 -0.27490223
 -0.243454249
 -0.247506274
 -0.204552025
 -0.285540762
 -0.333536698
 -0.166262954
 -0.0234630682
  0.0226375324
  0.0901223662
  0.199177803
  0.173407993
  0.0995584437
  0.0276154915
  0.0140046551
 -0.00832055083
  0.0172944026
  0.0153921672
  0.0197044952
 -0.00387192198
  0.0115884713
  0.0261461627
  0.0163400625
 -0.0168989969
 -0.0248111992
 -0.00818018359
 -0.0256949054
  0.0206996626
 -0.0465709576
 -0.0334242741
  0.00446263564
 -0.0483778457
 -0.0505354331
  0.00919324702
 -0.0113360209
 -0.00701988666
  0.0959043541
 -0.0159993227
  0.0496238185
  0.0551589802
  0.0233412921
 -0.00513727931
  0.0234319951
 -0.0193825758
  0.0247956174
  0.000856591122
  0.00801115802
  0.0063757343
 -0.0194655252
 -0.0079986304
 -0.033210471
  0.0278047491
 -0.0176833907
  0.01931187
 -0.013238305
 -0.00121061949
 -0.0243504409
 -0.012515862
 -0.0234144433
 -0.0121115525
  0.0126204618
 -0.0172454614
 -0.0325840075
  0.0260235071
  0.039483505
  0.0266492
  0.0283856399
 -0.016008263
 -0.0383658387
 -0.0176308985
  0.0247150064
  0.0211995116
  0.00920655046
  0.0124327157
 -0.0338973509
 -0.00171211788
 -0.0224249757
  0.00982809493
 -0.0310506672
 -0.00617621413
 -0.0338848213
 -0.0285468527
 -0.0140532702
 -0.0158253035
  0.0253656294
  0.00527503661
  0.0154242132
  0.0344924714
  0.030526191
 -0.0351442775
 -0.00123540206
  0.0161117826
 -0.0147102369
  0.00532825078
  0.00836942451
 -0.0162035184
 -0.00766880597
  0.00240339126
 -0.0266915858
  0.0163940787
  0.0204867806
  0.0337377063
  0.00187930465
 -0.00602095681
  0.0104561406
  0.00369623729
  0.0279812089
  0.0237454474
 -0.0221899524
  0.0325088588
 -0.045459829
 -0.0839322439
 -0.0810388317
 -0.0411243872
 -0.00710876027
  0.0102570064
 -0.0414123727
 -0.0409341908
  0.0149749993
 -0.0567523535
 -0.0348665437
 -0.0104274883
  0.0196063164
  0.000741174205
  0.0322901805
 -0.00763017578
  0.0203232467
 -0.0110484532
  0.0304875033
  0.0293459467
 -0.0303686602
  0.0152599982
  0.0273693672
  0.00722493018
 -0.0264763091
  0.00192372185
 -0.0256619267
 -0.0430681939
 -0.0797814016
 -0.0871215252
 -0.103616444
 -0.10019695
 -0.0608893281
 -0.146726086
 -0.165457713
 -0.0871052366
  0.1199689
 -0.0417358108
 -0.0472711524
 -0.0314737304
 -0.104113881
 -0.0486130649
 -0.0643957114
 -0.0344721174
  0.0351254828
 -0.0232762386
 -8.28291689E-06
  0.0195103713
  0.00138959289
 -0.00523506531
  0.0131420323
  0.00673521842
 -0.0256894649
  0.00184996168
 -0.0259757332
 -0.065939219
 -0.088506896
 -0.0814933161
 -0.32698404
 -0.209934948
 -0.0651151766
 -0.269555228
 -0.321532297
 -0.155265312
  0.0854574923
 -0.0333568451
 -0.181782089
 -0.14320433
 -0.0909757487
  0.00203246017
 -0.0451098956
  0.0207217348
 -0.0330299655
 -0.013060557
  0.0315376094
 -0.0339895311
 -0.00062251091
 -0.00418495919
  0.0212351254
 -0.0349471672
  0.0418878874
 -0.0118731271
 -0.0549783353
 -0.0344996523
  0.214746251
  0.159744129
 -0.10792657
 -0.028094969
 -0.0227452097
 -0.330019835
 -0.455257594
 -0.0857372031
  0.0384692587
 -0.0844032592
 -0.236932522
 -0.1094803
  0.0256565734
  0.0253687216
 -0.0113579852
 -0.0288020533
  0.076498921
 -0.00423483549
 -0.0190473071
  0.0342369463
  0.0219578019
 -0.0232239834
 -0.035465201
 -0.0133487019
  0.0767843461
  0.0866535709
  0.0466533949
  0.34428284
  0.369270515
  0.560206041
  0.430677575
 -0.0243837179
 -0.0950017854
 -0.286596835
 -0.527687853
 -0.391707313
  0.0491371571
  0.40623189
  0.329401617
  0.292196102
  0.438533254
  0.301944278
  0.294024013
  0.25233313
  0.171352486
  0.0589532118
 -0.0454235465
 -0.027169211
 -0.0210842756
 -0.0159791112
 -0.0286487659
 -0.00574478611
  0.125974026
  0.194235906
  0.167124335
  0.405869534
  0.547906924
  0.148624822
 -0.0590370356
 -0.385602343
 -0.387082353
 -0.791694999
 -1.39748524
 -1.69924031
 -1.00571593
 -0.305301956
 -0.0298313715
  0.140987963
  0.515969027
  0.799730474
  0.653286885
  0.358168555
 -0.0431623057
 -0.0890882453
 -0.138525822
 -0.0261072659
 -0.00942158489
  0.000588878823
  0.0288187125
  0.0428350837
  0.13962575
  0.115208872
  0.0719658602
  0.124170257
  0.0813019979
 -0.0415136406
 -0.509024684
 -0.569676185
 -0.29952465
 -0.534994867
 -1.43898694
 -2.17841061
 -1.68905164
 -0.453742671
  0.013894288
 -0.0563501423
  0.310215815
  0.579624698
  0.420911191
 -0.0803441712
 -0.221677837
 -0.268097336
 -0.147866223
 -0.00640096548
  0.0255806701
 -0.0316834979
  0.00998495612
  0.0189045038
  0.142839188
 -0.0225907741
  0.0156186181
 -0.0433457477
 -0.0336403286
 -0.140613619
 -0.361156474
 -0.162747272
 -0.301981089
 -0.832754262
 -1.61674938
 -1.69668482
 -1.10732172
 -0.394758667
 -0.0840337911
 -0.338913917
  0.0793424545
  0.495399288
  0.0636775651
 -0.172843782
 -0.319332828
 -0.352945628
 -0.0632803691
  0.00852840652
 -0.00482417527
  0.00646965934
 -0.00168341226
  0.0363901191
  0.178253856
 -0.0681583221
 -0.253042462
 -0.279598007
 -0.143670947
 -0.205868262
 -0.228143163
 -0.23103363
 -0.0893950945
 -0.842930077
 -1.4882172
 -1.21752521
 -0.286891056
  0.0925797968
 -0.0222212556
 -0.0652699141
 -0.135551759
  0.0416234264
 -0.327503889
 -0.538729662
 -0.313527348
 -0.201435778
 -0.100065349
 -0.0134932462
 -0.0356515103
 -0.0239373741
 -0.0950189771
  0.00532571075
  0.118145102
 -0.262017482
 -0.430872063
 -0.493110459
 -0.216358494
 -0.343344719
 -0.449875356
  0.17516915
  0.124544082
 -0.763108714
 -1.45971523
 -0.727828019
  0.173413447
  0.50123412
  0.383787833
  0.0426885871
 -0.213690056
  0.119608665
  0.144484301
 -0.215798547
 -0.231187425
 -0.0618299706
  0.00747397623
 -0.00662687847
 -0.0129974506
 -0.0312895566
 -0.0233435586
  0.00438645852
  0.030257391
 -0.233714653
 -0.499985337
 -0.346139761
 -0.215189012
 -0.504766213
  0.097639762
  0.791186186
  0.352588588
 -0.578039806
 -1.20333552
 -0.846579371
  0.186279384
  0.283678888
  0.338530622
  0.0377333326
 -0.480141139
 -0.212384771
 -0.0252290207
 -0.371349593
 -0.256922335
  0.0163956086
 -0.0359405777
 -0.00660061875
  0.00163827624
 -0.0340664534
  0.0220969671
  0.0594400217
 -0.00717837882
 -0.341874824
 -0.537474363
  0.0263558851
 -0.273758941
  0.201227393
  0.738050157
  1.05986229
  0.332909739
 -0.51358598
 -0.713048393
 -0.441578461
  0.250226232
  0.211664391
 -0.00554254735
 -0.520099902
 -0.813642973
 -0.292330749
 -0.189888726
 -0.312352026
 -0.0791356652
  0.00667564211
  0.00274586091
 -0.00440977708
 -0.0254372273
  0.0015293107
  0.0180352617
  0.00508657355
  0.00589698061
 -0.227263984
  0.0124136578
  0.138340442
 -0.0454741703
  0.698205221
  0.784037419
  0.572526581
  0.227348871
 -0.318530686
 -0.402608314
 -0.425505786
  0.187805922
  0.82595122
  0.11251267
 -0.139597945
  0.169043051
  0.231234442
 -0.114936186
 -0.189568432
 -0.0397527431
  0.0441006537
  0.00809510611
 -0.0344734145
  0.0232904298
  0.0317753592
 -0.00438997694
  0.0286700178
  0.0102496337
 -0.0592975034
  0.467757748
  0.0774152312
  0.498657538
  0.767420656
  0.39397645
  0.385297227
  0.274806687
 -0.0547431973
 -0.59151371
 -0.336228973
  0.491573067
  0.934387127
  0.519539457
  0.460566797
  0.586478459
  0.430633125
 -0.123869891
 -0.0660089241
  0.102975079
 -0.0303105398
  0.0233386358
 -0.0190942745
 -0.0236550676
 -0.00689487962
 -0.0178513639
  0.0278399433
  0.175785877
 -0.0735884881
  0.574880526
  0.742842665
  0.996750073
  0.783797024
  0.313802373
  0.757551066
  0.723978619
  0.259408117
  0.0171995219
  0.664485537
  0.442548683
  0.590975381
  0.275364953
  0.587362703
  0.324127384
  0.164650089
 -0.0341612844
  0.0181841752
  0.0705726119
  0.0597269739
 -0.0275767965
  0.00926388709
 -0.0262229996
  0.0306316699
  0.0218396472
 -0.0544059003
  0.0704956096
  0.116434374
  0.217418448
  0.974324413
  0.871264664
  0.14663844
  0.0782953325
 -0.055672976
  0.227365574
 -0.0903552047
  0.0249714523
  0.575422266
  0.614542421
  0.715761962
  0.461284513
  0.560261426
  0.240349402
 -0.26163601
  0.0330982872
  0.16648951
  0.00916861494
 -0.126152464
  0.0428879726
 -0.0226674061
  0.0148886868
 -0.0348228418
  0.0196052075
 -0.00771374944
  0.0454253067
  0.376681251
  0.213675118
  0.290274688
  0.415037709
  0.168916499
 -0.390841398
 -0.406248029
 -0.104118099
  0.00754490134
  0.180412323
  0.23144748
  0.412363148
  0.467441654
  0.0127369432
 -0.110307941
 -0.455287372
 -0.534828212
 -0.359328083
  0.0959167314
 -0.0426895382
 -0.029033347
  0.00352658743
  0.0284990605
 -0.0300841858
 -0.00621542335
 -0.0536502166
 -0.00409682454
 -0.0189346309
  0.208149359
  0.239657237
 -0.241877921
 -0.0825998489
  0.0194245538
 -0.172173423
 -0.224563157
  0.304914432
  0.377120438
  0.429961735
  0.397293994
 -0.0747270594
  0.0903639507
 -0.424447423
 -0.180941057
 -0.0596192622
 -0.458010992
 -0.407329029
 -0.156079411
 -0.0556575334
 -0.0196157785
  0.00186407533
 -0.0033065038
  0.0163570089
  0.0353503866
 -0.0478627767
  0.00901836969
  0.0856812672
  0.0841173945
 -0.243423949
 -0.262447536
 -0.225081175
 -0.222732906
 -0.404244319
 -0.582914763
 -0.74982272
 -0.193334693
 -0.471445111
  0.0405863263
 -0.241833274
  0.0469147114
 -0.0435443584
 -0.351369204
 -0.186757985
 -0.371323527
 -0.428537405
 -0.201032719
 -0.0131915213
  0.00596155433
  0.0291448495
 -0.0188904345
 -0.00756599435
 -0.00439819694
  0.0110152643
 -0.022847407
  0.0326243708
 -0.126082344
 -0.331200695
 -0.512555852
 -0.432770084
 -0.369022967
 -0.711088151
 -0.797405129
 -0.584538447
 -0.418628973
 -0.435245555
 -0.522237164
 -0.665843798
 -0.193401181
 -0.157966843
 -0.737499786
 -0.366179054
 -0.157357151
 -0.134037238
 -0.066519714
  0.00140790908
  0.0299455994
  0.0136041128
  0.0293184647
  0.00588595441
  0.00753945964
 -0.0250332958
  0.0422640492
 -0.00503311655
 -0.00270995218
 -0.233872493
 -0.392680768
 -0.296625302
 -0.189957652
 -0.389311319
 -0.408343798
 -0.443450508
 -0.41679117
 -0.470291094
 -0.885022806
 -0.354533031
 -0.211886954
 -0.216431002
 -0.283053485
 -0.0598866907
  0.157812966
  0.146750266
  0.10039906
  0.0256843563
 -0.00832805629
 -0.0177482685
  0.0170111188
 -0.0152591105
  0.0317383196
  0.010621136
  0.024887736
  0.0246550972
  0.0302536688
 -0.104085163
  0.00214198362
 -0.0724507914
 -0.151607991
 -0.457240824
 -0.156030624
 -0.171796012
 -0.109449192
 -0.586462669
 -0.326538478
 -0.0722869343
  0.00490715324
  0.444988207
  0.132301767
 -0.0067190985
  0.354736932
  0.226456559
  0.173947783
  0.13946704
  0.00808154786
  0.0165356428
  0.0331284659
  0.0307755428
  0.034652297
  0.0144328759
 -0.0391212225
  0.0216102225
 -0.0212198332
  0.0121975268
  0.158854643
 -0.00906134597
 -0.223068111
 -0.306310947
 -0.219633087
  0.0579471293
 -0.0763999511
  0.170917736
  0.379189548
  0.0248191772
  0.157991954
  0.127856613
  0.201002916
 -0.00391393576
  0.112999861
  0.0580211474
  0.135306971
  0.0172999337
 -0.0354816191
 -0.00546123111
 -0.0356702633
  0.00490131123
 -0.0245759998
  0.0331724882
 -0.0091760732
 -0.0387820101
  0.0027568264
  0.220311381
  0.0795612483
 -0.115470372
  0.0325776597
 -0.295611231
 -0.387316739
 -0.0241536808
  0.0853549484
  0.22570267
  0.0797374286
 -0.218813939
 -0.470990452
 -0.474409738
 -0.31767778
 -0.362815628
 -0.29401558
 -0.143072894
  0.0685637113
  0.00525169407
 -0.0081386183
  0.000824387584
 -0.0232422927
 -0.00804881752
  0.0310938784
 -0.0231982704
  0.0325577715
 -0.0314064331
 -0.0276222914
 -0.0880938149
 -0.179200547
 -0.0938561303
 -0.240715494
 -0.665418091
 -0.729281338
 -0.530420538
 -0.5558848
 -0.326267966
 -0.141078208
 -0.475616849
 -0.475767318
 -0.820352658
 -0.600035519
 -0.548421216
 -0.342007247
 -0.128745363
  0.038358575
  0.0265827484
  0.0188237088
 -0.0277283905
  0.0135514608
 -0.0250291941
  0.00881028175
  0.0260234518
  0.00262837905
  0.0040843519
 -0.0319327634
 -0.199723564
 -0.243571693
 -0.192869022
 -0.0527110616
  0.00534785162
  0.0142221599
 -0.0734093817
 -0.193813287
 -0.29859704
 -0.235374322
 -0.160658583
 -0.220935301
 -0.15547187
 -0.152906973
 -0.179350054
 -0.238822026
 -0.0746962744
 -0.00975639249
  0.0287900993
 -0.01413644
 -0.0298293611
  0.00197521278
 -0.0310270169
 -0.0218434664
 -0.0201876132
 -0.0203419253
  0.0226811043
 -0.0296227224
  0.0183672207
 -0.00646987738
 -0.0259751697
 -0.018467581
 -0.0337934277
 -0.0125669404
 -0.0139298411
  0.0294656939
 -0.0353622998
 -0.0618042024
 -0.0430816998
 -0.0883791656
 -0.0467743423
 -0.0648946235
 -9.57959562E-05
 -0.040166981
 -0.00198297558
  0.00700076563
 -0.0117403695
 -0.00699790886
 -0.00658658785
 -0.0186645559
  0.014579939
 -0.00070166375
  0.0190249426
  0.0192672057
  0.0131691567
  0.0345516162
  0.0346395671
  0.000135975225
 -0.0310411166
  0.016933918
  0.0270069582
 -0.0223800976
  0.0344313213
  0.0288714085
 -0.00091968051
 -0.023196016
  0.0223235147
  0.019483562
 -0.000796884298
  0.0289957907
  0.0261828601
  0.0284022008
 -0.0330582128
  0.0181108585
 -0.0278271958
  0.0130092161
 -0.0106026615
 -0.0038532785
 -0.0297029763
  0.0185250384
  0.0131964513
  0.0205912462
 -0.0178909121
 -0.00349288966
  0.0041441662
  0.0309918862
 -0.00466289302
  0.00305441489
 -0.00511451268
 -0.00342847247
 -0.0164652659
 -0.0180286373
  0.0109753612
 -0.017307196
 -0.0203824586
 -0.0241239608
 -0.00479693043
 -0.0338988006
  0.0308079711
  0.0301696891
  0.0311837713
  0.0223842519
  0.0231296974
  0.0338393918
  0.0047808247
  0.0310167883
  0.0111343222
  0.0298924489
 -0.0085507759
  0.0171456337
  0.012702915
 -0.0313084704
  0.000910652976
  0.0304481506
  0.002263641
 -0.0354898474
 -0.00615334602
 -0.0381601448
 -0.0657328572
 -0.099901085
 -0.106756644
 -0.0470633532
 -0.0436745135
 -0.0673719986
 -0.0514025088
  0.0130205354
 -0.0204846997
  0.00221668537
  0.0237969613
 -0.0171552317
  0.00252718097
  0.0211607899
 -0.0305441767
 -0.0100870218
  0.019285896
  0.00995093158
 -0.0147845192
 -0.00529406752
  0.00412906509
  0.00860710811
 -0.027788958
 -0.018093309
  0.0193784409
 -0.00105375947
 -0.139401162
 -0.224283937
 -0.151887591
 -0.245736073
 -0.287141906
 -0.217456031
 -0.155970897
 -0.189209721
 -0.262525786
 -0.185287755
 -0.132093945
 -0.0310580845
  0.0742512325
  0.067769475
  0.0602449559
  0.00864750147
 -0.00957353413
  0.00960145678
 -0.00590599435
 -0.00440342511
  0.0352287207
 -0.0223318763
 -0.0267117444
 -0.00942075436
  0.00975554021
 -0.00572505882
 -0.0306195321
 -0.130265293
 -0.114469884
 -0.0535591932
 -0.138806411
 -0.160154782
 -0.207333415
 -0.268046207
 -0.0641571908
 -0.109296815
 -0.212588305
 -0.32265305
 -0.116595303
  0.112157616
  0.0881017166
  0.0511510094
  0.155793289
 -0.00169079593
  0.0154434017
  0.00522687605
  0.0138975169
 -0.0298444182
 -0.0208856801
 -0.0983171215
 -0.27003073
 -0.275895661
 -0.276577277
 -0.241575193
 -0.238926098
 -0.179555408
 -0.194796037
 -0.1401183
 -0.283328478
 -0.142890199
  0.302125872
  0.199320874
  0.133466036
 -0.085104632
 -0.280838484
 -0.13507398
  0.12279673
  0.352273676
  0.438375
  0.235267018
  0.140760725
  0.0711267036
  0.0201239785
  0.00286354026
  0.0330571703
 -0.0075381164
 -0.0276737861
 -0.122468629
 -0.264848615
 -0.113906264
 -0.100266647
 -0.0417290633
  0.133088908
  0.558665966
  0.587270767
  0.426962389
  0.275934757
 -0.165072017
 -0.57674697
 -0.376364115
 -0.0798585567
 -0.40156176
 -0.388483296
 -0.0299292312
  0.243204295
  0.376935366
  0.460321394
  0.486637216
  0.348437247
  0.266430703
  0.0460785362
 -0.00898574719
  0.0169024122
  0.0141115842
  0.0316821777
 -0.0484149482
 -0.169146876
 -0.0238326262
  0.0552662807
  0.130017689
  0.356476152
  0.506844891
  0.578944935
  0.219654839
  0.11485402
 -0.285339672
 -0.792956302
 -0.97963079
 -0.419092017
 -0.252150269
  0.00456483491
  0.201738283
  0.699144535
  0.649674283
  0.44570089
  0.725641628
  0.776568964
  0.376581439
  0.131971012
 -0.0185733096
 -0.0275468116
  0.00888254661
  0.0131621748
 -0.00441972828
 -0.120845403
 -0.0758515933
 -0.0805726273
  0.0515476633
  0.323441935
  0.231715185
  0.214336438
  0.336588401
  0.149544276
 -0.378133904
 -1.01392314
 -0.892132731
 -0.458657087
 -0.136964284
 -0.0614858313
  0.0870026429
  0.444980987
  0.580331573
  0.397604379
  0.616608005
  0.639507326
  0.33068399
  0.0660818646
  0.0247179325
  0.027705635
 -0.00494796007
 -0.0244797959
 -0.040473824
 -0.090350801
 -0.104063908
 -0.0300877272
  0.123846568
  0.138759907
 -0.0224597122
  0.0744173024
  0.417875401
  0.426222818
 -0.264388299
 -0.925319269
 -0.849296893
 -0.638765125
 -0.630674393
 -0.383557617
 -0.389287795
 -0.23745385
 -0.113621485
 -0.244139008
 -0.104613496
  0.19487824
  0.152951265
  0.0504537918
 -0.0100359445
  0.0349032709
 -0.0141562201
 -0.0325114034
  0.0179074204
 -0.0306887856
 -0.185139426
 -0.1203221
  0.180873722
 -0.0399459075
  0.0992682047
  0.300767638
  0.683810075
  0.498518216
 -0.0314445503
 -0.760183251
 -0.879296384
 -0.913426368
 -1.18014722
 -0.853721085
 -0.849673836
 -0.644780333
 -0.704542401
 -0.725123473
 -0.433423765
 -0.0442076491
  0.0664454926
 -0.00998583368
  0.00449978454
 -0.0171587552
  0.0205950932
  0.0160633174
 -0.048462085
 -0.129151664
 -0.181664246
 -0.0222545933
  0.329034578
  0.451314431
 -0.108901212
  0.497852682
  0.634817217
 -0.144551568
 -0.669950927
 -0.784333837
 -0.563710496
 -0.440070919
 -0.725417347
 -0.722752911
 -1.04244332
 -0.815933881
 -0.775764
 -0.713331682
 -0.398428146
 -0.0620615065
  0.00661754807
 -0.0245678429
  0.0219652846
  0.0118395814
 -0.000265347576
 -0.0117459892
 -0.00120305446
 -0.108464593
 -0.21367272
  0.0921655718
  0.578896225
  0.346454326
 -0.141891418
  0.476525548
  0.445854723
  0.107955479
  0.0967378426
 -0.189757289
 -0.352351938
 -0.555993426
 -0.586429537
  0.0288411901
 -0.239740717
 -0.157190351
 -0.5595351
 -0.499024767
 -0.296572506
 -0.0873741573
 -0.0287992737
 -0.00180069849
  0.0217909995
 -0.023861223
  0.0156409017
  0.00113382313
  0.0221667845
 -0.0697666943
 -0.0959556917
  0.14098687
  0.551182189
  0.292941085
  0.20493323
  0.599058474
  0.676129933
  0.521748805
  0.341197826
  0.14179028
 -0.205546946
 -0.601777442
 -0.329865995
 -0.162067114
  0.0342296561
  0.161669205
 -0.245101844
 -0.574241949
 -0.29133432
 -0.0341501307
 -0.0490577753
  0.0175898954
 -0.0326720231
  0.00839894584
 -0.00767785399
  0.0236595466
  0.0302307198
 -0.00106741606
  0.0154684174
  0.411997757
  0.360980376
  0.0699446883
  0.410975252
  0.815198924
  0.641445568
  0.700260641
  0.262747705
 -0.0776168568
 -0.196250505
 -0.209119746
 -0.174458865
 -0.291759715
 -0.198136913
  0.0947675675
 -0.0223081699
 -0.310061262
 -0.231054632
 -0.0394833485
 -0.0528035176
  0.0285784072
  0.0232269296
 -0.0159110469
  0.0222094266
  0.0262696969
  0.0645018526
 -0.0112459773
  0.239801028
  0.459138442
  0.115307862
  0.0862901322
  0.0654109973
  0.335301188
  0.311659047
  0.0109648245
  0.0705322575
 -0.00958911735
 -0.0744022233
 -0.220338357
 -0.357153871
 -0.0373777237
 -0.0879400951
 -0.0282526048
 -0.200027614
 -0.188585759
 -0.0900627041
 -0.0540787057
  0.0170340588
 -0.0290650363
 -0.0124377021
  0.0229955443
 -0.0192024633
 -0.0275069787
 -0.0168884325
 -0.151250168
 -0.0473295127
 -0.0276206536
 -0.285470616
 -0.249268769
 -0.117826051
  0.175832211
  0.168552273
  0.0484042094
 -0.107093958
  0.0893726739
  0.256289195
 -0.0998621514
 -0.131968292
  0.0631662569
 -0.256466445
 -0.123369556
 -0.114569186
  0.0298974206
 -0.0679293296
  0.0138158235
  0.0378977558
 -0.000631654569
  0.0274177564
  0.00331493786
  0.032665589
 -0.0259731386
 -0.0159991153
 -0.154098172
 -0.243648164
 -0.249506093
 -0.284503392
 -0.549532963
 -0.936827672
 -0.443677164
 -0.404302165
 -0.694672472
 -0.544603518
 -0.404972704
  0.110241281
  0.144283245
 -0.0462202407
  0.085162703
 -0.25070346
 -0.104718757
 -0.0593395413
  0.0514307533
  0.00217258156
  0.0381586269
  0.0192726698
 -0.00948017629
 -0.0278675518
 -0.0298055405
 -0.0114244372
  0.0326396618
  0.00686884757
 -0.141859757
 -0.342507715
 -0.098008798
 -0.251323185
 -0.605121768
 -0.892104525
 -0.636181522
 -0.573105119
 -0.841908542
 -0.576778032
 -0.359100815
  0.180322508
 -0.0387168032
 -0.190080368
  0.0247967492
 -0.130779662
  0.0946349588
 -0.0266629318
  0.0814730425
 -0.00454570154
  0.0157026305
  0.00304668428
 -0.0163329948
  0.0116273642
 -0.00817671205
  0.0356008325
  0.021510771
 -0.00616053025
 -0.0644489873
 -0.279190793
 -0.166457542
 -0.287205893
 -0.399740444
 -0.584983304
 -0.333779818
 -0.22638554
 -0.823127908
 -0.510770062
 -0.10372606
  0.306290424
 -0.129377846
  0.0345158869
  0.0232479057
  0.115511344
  0.236301737
  0.0683135634
  0.201946005
  0.10276546
  0.132244717
 -0.0136074498
 -0.0338007839
  0.023226316
 -0.0229804633
 -0.00686769187
  0.00458057646
  0.00527109783
 -0.0750853343
 -0.304561239
 -0.19523642
 -0.175154056
 -0.33552164
 -0.280723159
  0.00986075805
 -0.173890977
 -0.390746589
 -0.282140111
  0.127951465
 -0.0579401897
  0.102613208
  0.296937641
 -0.233205209
 -0.0858948043
  0.0710779544
 -0.139225171
  0.235967387
  0.291512607
  0.112727752
 -0.00289254275
 -0.0153024294
 -0.0268497414
 -0.00334647085
 -0.0121333046
  0.0440847773
  0.0204740504
 -0.0142043311
 -0.207211456
 -0.205352218
 -0.16936289
 -0.253714698
 -0.555866107
 -0.0545656754
 -0.22032662
 -0.346481935
 -0.0904834281
  0.0904961886
 -0.0348582071
  0.150705242
 -0.112692766
 -0.237391053
 -0.00822571436
  0.0416068321
  0.0468411939
  0.334615233
  0.291145381
  0.0919703741
 -0.0286194627
  0.0335867963
  0.0341315269
 -0.00454790252
 -0.0166714617
 -0.0169553816
  0.0394372547
  0.00907968412
 -0.120300619
 -0.0967779153
 -0.0339562473
 -0.165342377
 -0.265726818
 -0.456570883
 -0.357410735
 -0.239106258
 -0.0459848787
  0.388964124
  0.558369369
  0.501582912
  0.17507798
  0.135915507
  0.23455495
  0.0486113486
  0.210234303
  0.241231071
  0.133867202
  0.0389846772
  0.0285149249
 -0.0199737182
 -0.0117794807
  0.0339560594
 -0.0218910543
 -0.013338886
 -0.00310995889
  0.0245230291
  0.0310690113
  0.0594725076
  0.0835285093
  0.155413159
  0.0901626208
  0.0559674166
  0.276376975
  0.219527285
  0.270443686
  0.547118544
  0.629813852
  0.564947652
  0.175466669
 -0.0334961214
  0.079553911
  0.202470021
  0.0910358375
  0.0178577756
  0.0227150852
  0.0335090898
  0.00590410928
 -0.023408704
  0.0207802611
 -0.00170895883
 -0.00743692688
 -0.0267135043
  0.00849280325
  0.0635286515
  0.0822563305
  0.11900136
  0.0354662995
  0.144988815
  0.12521434
  0.187885546
  0.3004028
  0.291474847
 -0.122642677
 -0.167103027
 -0.308945438
 -0.286885841
 -0.245838468
 -0.285380136
  0.166832231
  0.109726106
 -0.0208221199
 -0.0309102204
 -0.0205404274
 -7.6842965E-05
 -0.000827976636
 -0.025461248
 -0.0100154281
 -0.0306122761
 -0.0129787475
 -0.0249494527
  0.00342979477
  0.0150257514
 -0.0144362281
  0.0282390273
 -0.0328270651
  0.0855502667
  0.181613634
 -0.0827293938
 -0.105258946
 -0.236460787
 -0.20538846
 -0.178773544
 -0.00226995365
  0.100083587
 -0.229494337
 -0.281311668
 -0.0741877727
 -0.0801398665
 -0.14631886
 -0.0356758655
 -0.0209591019
 -0.0109697241
 -0.0219970047
 -0.00432504926
  0.0201943346
  0.0128893043
  0.00592798846
 -0.0255353813
  0.0176709983
  0.0262728512
 -0.0163444944
 -0.0059189078
  0.00331017469
 -0.0191070454
 -0.0183949045
  0.0309591337
 -0.0747116025
 -0.13178112
 -0.167821682
 -0.163621069
 -0.0834052862
 -0.0729547551
 -0.222447536
 -0.248203988
 -0.097769527
 -0.0638248351
 -0.0798571728
 -0.00277894354
 -0.00726502127
 -0.0156054007
  0.0240131233
  0.00852199537
  0.00810434989
 -0.033698167
 -0.0315173404
 -0.00741560119
  0.0149054229
  0.0101249346
  0.00344574488
 -0.0020637483
  0.00208717821
  0.0228340995
  0.0182283781
 -0.0246211902
 -0.00720588433
 -0.0339775665
 -0.0504980925
 -0.00753153959
 -0.0403283759
 -0.01714109
 -0.0170339317
 -0.0721756109
 -0.059334386
 -0.0180043434
 -0.0407471543
 -0.0122798746
 -0.0216672186
 -0.0111949529
  0.0181277692
  0.0142694925
  0.00891393423
  0.00642661112
 -0.0129227979
 -0.0186960005
  0.00844272971
 -0.0087258539
  0.00960268293
 -0.0123661352
 -0.034315204
 -0.0233482963
  0.0205306028
  0.00447326047
 -0.0353555391
  0.00338313409
  0.0157952905
 -0.00665343021
  0.00754589268
  0.0213358104
 -0.028980667
  0.0231714291
 -0.025110762
  0.00976786017
 -0.0192758175
 -0.019293502
  0.0302613335
  0.0239872507
  0.0354648445
 -0.0271201708
 -0.0229219879
  0.0178783281
  0.0228636095
  0.021706232
 -0.0114093487
 -0.0257734752
 -0.032704055
  0.0327476646
  0.00121830703
  0.0126212081
 -0.015324571
  0.00262405612
  0.0250333224
 -0.030498543
 -0.0286029019
  0.0253395806
  0.0085932443
  0.0227275851
 -0.0169958527
 -0.0195848384
  0.00850482202
 -0.010292534
 -0.0321052437
  0.0191248604
  0.035185699
 -0.015691804
  0.0355284214
  0.0297327467
 -0.0274188391
  0.0352789802
 -0.0331017104
 -0.0146265413
  0.0174430226
  0.0254816512
 -0.0286340622
 -0.0296807608
  0.0354189261
 -0.0256160529
 -0.0326365696
  0.00104831718
  0.0205680133
 -0.0472953866
 -0.0648508193
 -0.0204491789
 -0.0493923654
 -0.0380595825
 -0.0146746597
 -0.0583258259
  0.0265409313
  0.0521104133
  0.0249562322
  0.0102851345
 -0.0257138556
 -0.0144801311
 -0.0103152224
 -0.0262642726
  0.0055322051
 -0.0105010846
 -0.0322458127
  0.0138276517
 -0.0109363901
 -0.0296326717
  0.0349150767
 -0.0335538397
  0.0147346391
 -0.0396278312
 -0.0830123991
 -0.082589576
 -0.0897808827
 -0.0721753244
  0.0143625502
  0.023070676
  0.130120025
 -0.0768953314
 -0.0926482192
 -0.0480157363
 -0.0965667527
 -0.0360530499
  0.0746411008
  0.0137951126
 -0.0387972731
 -0.0202641286
 -0.0210215226
 -0.0242573747
  0.00093665719
  0.00437753967
 -0.0148073626
 -0.0292454208
  0.0295909728
 -0.0108258051
  0.0171777807
 -0.0368878982
 -0.0562417521
 -0.0599983862
 -0.237840378
 -0.168185801
  0.0390802708
  0.0978749203
  0.0417209458
 -0.218216169
  0.236387363
 -0.223880619
 -0.564877681
 -0.0951967189
  0.0451537793
  0.0458140011
  0.00668842981
  0.0491684062
 -0.0165852613
 -0.000756674532
  0.0220742234
 -0.0279118344
 -0.00529057426
  0.0162972467
 -0.0164549244
  0.0313838075
 -0.0149974248
  0.00427473015
 -0.0666276491
 -0.0685954543
 -0.120537529
 -0.436354619
 -0.48769129
 -0.57234677
 -0.308631215
 -0.16746577
  0.0522243831
  0.0949076004
  0.153650983
 -0.190538984
 -0.722913665
 -0.303508618
  0.0547242037
  0.0252429895
 -0.0709341118
 -0.151998689
  0.00407230957
  0.0241836613
  0.00765685195
 -0.010319921
  0.0239477498
 -0.00400946821
  0.0160211495
 -0.0170548028
 -0.0228803373
  0.0352971335
 -0.0618186208
 -0.106250303
 -0.535508238
 -0.873010245
 -0.864018455
 -0.841119684
 -0.585710598
 -0.0768224491
  0.331024
 -0.106036291
 -0.238200559
 -0.744805044
 -0.859076241
 -0.231211238
  0.0840109318
  0.0346770391
 -0.120843572
 -0.198210035
 -0.062871006
 -0.0141677795
 -0.0498308701
 -0.00449925286
 -0.0266717718
 -0.0221248411
 -0.00487128714
 -0.0194670099
  0.00983379068
 -0.0254996671
 -0.0592953833
 -0.257840516
 -0.627271075
 -0.766098908
 -0.810947197
 -0.809254415
 -0.340780754
 -0.0368345184
  0.109200876
  0.131520232
 -0.0278607173
 -0.766602744
 -0.715546117
 -0.00820506849
  0.0127045658
  0.00567043521
  0.00857245712
 -0.0418991243
 -0.173046682
 -0.12627784
 -0.0359327442
 -0.0278356819
 -0.0158577687
 -0.00304896219
 -0.00751114447
  0.0247493702
  0.0141107338
 -0.00482464287
 -0.239085226
 -0.307248741
 -0.440522433
 -0.463726433
 -0.811597111
 -0.706532084
 -0.191847691
 -0.113016927
  0.330188594
  0.54205936
  0.0838702234
 -0.758563883
 -0.346233592
  0.0762741135
 -0.13384066
 -0.192477893
 -0.26000447
 -0.402649096
 -0.329351279
 -0.135300796
 -0.0664693397
  0.0030715513
 -0.0154379351
  0.00226675944
 -0.0173745146
  0.0202480142
  0.0336308296
 -0.0565502725
 -0.166602457
 -0.196410062
 -0.212390188
 -0.331478318
 -0.612263435
 -0.463652223
  0.0322410105
  0.0462069769
  0.753491684
  0.906791141
  0.195818789
 -0.326600735
 -0.231104351
  0.0752922119
 -0.477179793
 -0.696735102
 -0.686899597
 -0.497829254
 -0.249198052
 -0.251327947
 -0.0781628392
  0.0351807246
 -0.0345778311
 -0.0238132658
  0.0171498893
 -0.00996341592
  0.0120099119
 -0.00655464762
 -0.0779957499
 -0.0738746712
 -0.112836247
 -0.166835266
 -0.281335088
 -0.419135254
 -0.395806144
  0.259894319
  0.904100745
  0.888812934
  0.332774783
  0.0349428444
 -0.121923799
 -0.0812690891
 -0.616124079
 -0.578919376
 -0.383141904
 -0.27144539
 -0.142885971
 -0.0933137838
  0.0447900476
  0.00439452062
  0.00880500249
 -0.0130789067
  0.00204275399
  0.00994389883
 -0.0113090411
 -0.0483606932
 -0.0514760021
 -0.0587279309
 -0.0526845239
 -0.193921078
  0.035752366
 -0.196991966
 -0.444728677
  0.00847925669
  0.858381197
  0.734422584
  0.330931915
  0.0161273655
 -0.14316627
 -0.374818914
 -0.611725389
 -0.430885565
 -0.231604357
 -0.214771676
 -0.128566665
 -0.0696674025
  0.00549964692
  0.0258752448
  0.0224992251
  0.0215230073
 -0.00729832651
 -0.0125172753
 -0.046658074
  0.0308588814
 -0.0322606819
  0.0529781722
  0.00974059073
 -0.0987446104
  0.0302589033
 -0.306152784
 -0.506750007
 -0.176711783
  0.847885789
  0.751357766
  0.596176719
  0.0284569184
 -0.320110938
 -0.515298424
 -0.693467492
 -0.43537269
 -0.260454526
 -0.142639251
 -0.127061342
 -0.123526634
 -0.105067348
 -0.0912405363
  0.0224184142
 -0.00148172251
  0.0288301234
 -0.0128802937
 -0.0225698999
 -0.0187563824
 -0.0300780753
  0.0721304698
 -0.0231073743
 -0.0969217651
 -0.1634023
 -0.419410086
 -0.571578098
 -0.345279929
  0.589586353
  0.544874648
  0.319506188
 -0.0052278096
 -0.282184029
 -0.481274762
 -0.437713127
 -0.320332671
 -0.227573829
 -0.199097627
 -0.259663744
 -0.200570382
 -0.0696969388
 -0.0450370534
  0.0207388401
 -0.0325215145
 -0.00911207719
  0.00354671777
  0.00187077508
 -0.0275339654
 -0.0169848282
  0.0223627083
 -0.0636576842
 -0.22107733
 -0.277080536
 -0.431792858
 -0.593732871
 -0.37954408
  0.165481304
  0.383146494
  0.0547490838
 -0.0531251682
 -0.64873787
 -0.710325189
 -0.513607143
 -0.291935657
 -0.273035132
 -0.259063482
 -0.200414418
 -0.0846799433
 -0.0286538141
 -0.0178521793
  0.0216601704
  0.0291899102
  0.0050916012
  0.00668544328
  0.0348325025
  0.0258728143
 -0.110810649
 -0.0819698239
 -0.200946814
 -0.338824396
 -0.458603848
 -0.739346923
 -0.513464587
 -0.44278005
  0.353970762
  0.617116037
  0.196656133
 -0.177899525
 -0.711532806
 -0.667340954
 -0.362506917
 -0.228219713
 -0.189093174
 -0.137904527
 -0.0790301957
 -0.00443245051
 -0.01847863
  0.000280831592
 -0.0297730691
 -0.0195983659
  0.0166104777
  0.0306482249
 -0.017854891
 -0.0320753071
 -0.0970586233
 -0.18608449
 -0.359914857
 -0.500392471
 -0.783695503
 -0.815128628
 -0.679233051
 -0.357742529
  0.299252185
  0.60972329
  0.0542136842
 -0.296262447
 -0.577465648
 -0.562236567
 -0.268486445
 -0.163477942
 -0.131470259
 -0.123836871
 -0.129024699
 -0.0105048966
 -0.0221683686
  0.00574763992
  0.00791353523
 -0.000383751733
 -0.0322019051
  0.0160542469
  0.0165218766
 -0.0239281103
 -0.172680189
 -0.31234955
 -0.441061553
 -0.563644735
 -0.681523162
 -0.797592196
 -0.631762574
 -0.282078514
  0.417437671
  0.718512352
  0.00894072502
 -0.555192209
 -0.658714595
 -0.369294758
 -0.210597634
 -0.241936909
 -0.211406934
 -0.171626925
 -0.136540591
 -0.0882385043
 -0.0230901349
  0.00766999941
 -0.0236731862
 -0.0292932428
 -0.0117924064
  0.0213814309
 -0.0187505135
 -0.113546005
 -0.216650501
 -0.341451368
 -0.446516289
 -0.475268616
 -0.738569541
 -0.85322757
 -0.6352412
 -0.373574831
  0.251455133
  0.491834036
  0.205897203
 -0.389776454
 -0.653352475
 -0.418232629
 -0.336152327
 -0.254296716
 -0.204453275
 -0.19392745
 -0.121296929
 -0.0872509226
 -0.00052978737
  0.00690494955
  0.077227494
  0.0167909179
  0.00136655995
  0.0327141587
 -0.0245825523
 -0.117251489
 -0.203976933
 -0.434614278
 -0.520740936
 -0.622927388
 -0.5442035
 -0.338313405
 -0.27175788
 -0.39128287
 -0.0394766448
  0.155582056
  0.28193828
  0.00443213848
 -0.435611898
 -0.224027339
 -0.234988332
 -0.16022624
 -0.318369
 -0.265001459
 -0.0926792022
 -0.0838970665
  0.00229838666
  0.00757213834
  0.0294666415
 -0.00675275496
 -0.00945115515
 -0.0130531763
 -0.0878773364
 -0.112871229
 -0.268693505
 -0.391126069
 -0.46667328
 -0.746433279
 -0.673399822
 -0.27683106
 -0.101594566
  0.0387380334
  0.0191254121
 -0.0643092679
