  0.00286564827
 -0.00088968933
  0.00238475043
  0.00251397717
  0.00346760481
 -0.00254774445
 -0.00138803843
  0.00225949274
 -0.0018719649
  0.000454628328
 -0.000190401024
  0.00108557321
 -0.00113901852
  0.000112885616
  0.00380945949
  0.00350591351
  0.00114319845
  0.00183045007
 -0.00301904189
  0.000901076553
 -0.00407455153
 -0.00216585147
 -0.00305586189
  0.00256230163
 -0.00289204131
 -0.000834417403
 -0.00311854396
 -0.00329528755
  0.00420280332
 -0.00237332668
  0.000108939163
  0.0028565885
  0.000948847206
 -0.00171817375
  0.00115870259
  0.000204588421
 -5.40551036E-05
  0.0039825275
 -0.00174778168
  0.00228584309
  0.000225292234
  0.00227368038
 -0.000840446789
  0.0032981368
 -0.00182529734
 -0.00124285039
  0.00259218723
  0.00352976445
 -0.00362426372
  0.00378500805
  0.00021897791
 -0.00348695222
 -0.00259270626
  0.00137497873
  0.00328721276
 -0.00127288461
 -0.00367130145
 -0.00404319442
 -0.000356308938
 -0.00368036103
 -0.00220465801
  0.00396449281
  0.00338809082
  0.00295605216
 -0.00196554377
  0.000334930311
 -0.00105122225
  0.00219226396
  0.00010559472
  0.00141285915
  0.000344268409
 -2.08679053E-05
  0.0116029245
  0.0121369853
  0.00703672756
  0.00343883037
 -0.00145632855
  0.00200934789
  0.0011791433
 -0.00122945405
  0.00158249285
 -0.00281374213
 -0.000504543171
  0.00320164955
  0.00277309994
 -0.0014291935
 -0.00228309789
  0.00331366152
 -0.00126052483
  0.00157245601
  0.00384516333
  0.000746680381
  0.00132508623
  0.00302139106
 -0.000532475977
  0.00334379004
 -0.00131077274
 -0.000200285495
 -0.00136787243
  0.00378104186
  0.00503374501
  0.010239112
  0.0124022865
  0.0060494025
 -0.00272753242
  0.00320996321
  0.00118842449
 -0.000573205672
  0.00100744801
 -0.00184429555
  0.00240920337
 -0.00162192223
 -0.000446174584
 -0.00230720276
 -0.00263213552
 -0.00188493773
  0.000475466702
 -0.000703370323
 -0.00278313942
  0.00342680471
 -0.00334277728
 -0.00348834405
 -0.000267771193
  0.00336020823
  0.00031535333
 -0.00809257929
  0.00374264678
  0.0085667876
  0.0165636771
  0.009294066
  0.0100483175
 -0.00384460554
 -0.00761514338
 -0.0045465261
  0.00246786265
  0.00738014193
 -0.00315489689
  0.00247211415
 -0.00282951338
  0.00206441446
 -0.00358404449
  0.00379155334
 -0.00376937098
  0.000272431699
 -0.00224964091
 -0.00130254969
  0.00423489735
  0.00413670674
  0.0043248485
  0.012150112
  0.0133606513
  0.0171584035
 -0.00460332538
 -0.00812222054
  0.0094157118
  0.0167296861
  0.0230770569
 -0.00438864445
  0.00800243036
  0.00479583836
 -0.0170192551
 -0.0124623632
 -0.0081383416
 -0.00259995474
  0.00421180886
 -0.00249065482
  0.00328487953
 -0.00315495099
  0.00419332229
 -0.00375649687
  0.00312132619
 -0.0025299438
 -0.00144094802
  0.00779378283
  0.0118554173
  0.0102912173
  0.0138520653
  0.024502585
  0.0286342572
  0.0253586166
  0.00646213449
 -0.00450287683
  0.00700242534
  0.0117949505
  0.0142039077
 -0.00663194043
 -0.0043084141
  0.000603759368
 -0.00779178526
 -0.000570531676
 -0.0107051484
 -0.00531960082
 -0.00606866253
 -0.000570929024
 -0.00391348708
  0.00208742339
  0.00280711023
  0.00358325545
  0.00314433561
  0.00770767675
  0.00890724501
  0.00878135994
  0.021836666
  0.028095464
  0.0315898805
  0.033158231
  0.0191490423
  0.0152813605
  0.00771068206
 -0.000173896069
 -0.00655783694
 -0.00506655614
  0.00546804245
  0.000663991399
  0.00780975806
 -0.00878534619
 -0.000850041238
 -0.000205528441
 -0.00906913017
 -0.0142245569
 -0.016484409
 -0.00928651171
  9.00157722E-05
  0.00397149802
 -0.00185286577
  0.00038839169
  0.00184705831
  0.00468416992
  0.00953531118
  0.0138733678
  0.0189331125
  0.0244363183
  0.0216684146
  0.0168093046
  0.00163440974
 -0.011359236
  0.00764424087
  0.00531942117
 -0.0133699994
 -0.0105013724
 -0.0011095561
  0.00903902219
 -0.00859064778
 -0.0225004126
 -0.00158347775
 -0.00375665496
 -0.0103635088
 -0.0123627447
 -0.0142174296
 -0.0110727455
  0.00146519333
  0.00115944317
 -0.00128785401
 -0.00236882056
  0.0009190781
  0.00839526623
  0.0115884813
  0.00936867668
  0.015488471
  0.0126946919
  0.00832617059
 -0.00481273226
 -0.0286300711
 -0.0189097399
  0.0194980207
  0.0169981417
 -0.016628332
 -0.0175346536
  0.00875019174
  0.0066932124
 -0.0253832
 -0.0246599418
 -0.00220734381
  0.00280197738
  0.00186175921
 -0.00536472791
 -0.00289693099
 -0.0055411356
 -0.00143504841
 -0.00261345276
  0.00408014295
 -0.00414850661
  0.00275785338
  0.00477800114
  0.00478786547
  0.00512773409
  0.00829788255
  0.00708486732
  0.000759566441
  0.00716000798
 -0.00879424257
  0.00486917731
  0.0260429792
  0.0161037692
 -0.00916215827
 -0.0187926631
  0.00839213642
 -0.0100249004
 -0.0180278346
 -0.00630823645
  0.0101602807
  0.0173603737
  0.00851121855
  0.00685950621
 -0.00105522074
  0.000641883989
 -0.00284084487
 -0.00190451033
  0.00307111335
 -6.40301893E-05
 -0.000306100119
  0.00354646949
  0.00154290334
  0.00458557981
  9.44238336E-05
 -0.000613514152
 -0.00663505827
 -0.000968424836
 -0.00359755686
  0.0156309167
  0.0252142942
 -0.0105447274
 -0.0304827102
 -0.0399142499
 -0.0126507387
 -0.0203391121
 -0.00798409354
  0.0183487546
  0.0283515425
  0.0270492575
  0.0162093481
  0.00903843195
  0.0039908728
  0.00267982006
 -3.30681096E-05
 -0.00139015324
 -0.000890159038
  0.00133795036
  0.000917199267
 -0.00122653271
 -0.00109220003
  0.00227947482
 -0.000651685587
 -0.00740754145
 -0.0112317164
  0.00121982266
  0.0294187734
  0.0471403563
  0.0321255697
 -0.0278590881
 -0.0364102625
 -0.0397183779
 -0.0207904239
 -0.00249742657
  0.0189762732
  0.0259077039
  0.0461785794
  0.0304797407
  0.0132182458
  0.00367758775
  0.00392522165
 -0.000621676244
  0.00277931636
 -0.000889643388
 -0.0021537194
 -0.00146561484
  0.00193206621
  0.00197236085
  0.0064574408
  0.00406162133
  0.0109471375
  0.00772488691
  0.0126968991
  0.0269755823
  0.074977431
  0.0713235614
  0.0299354032
 -0.042239093
 -0.0362878414
 -0.0435789447
 -0.00671637667
  0.0332889609
  0.0578104184
  0.0394709815
  0.0381236575
  0.034836097
  0.0194891413
  0.00121907516
  0.000633789255
 -0.000986452481
 -0.00166989347
  0.00132353527
  0.00260373437
 -0.00310244033
 -0.0037779714
 -0.00295747224
  0.00213585639
  0.00950304902
  0.0180613807
  0.0176016714
  0.0266233256
  0.0412184929
  0.0695948733
  0.0606610964
  0.022298423
 -0.0356620302
 -0.0411308058
 -0.0242289512
  0.00698114791
  0.0445708637
  0.0690967685
  0.0561984676
  0.05194444
  0.0444919145
  0.0139669305
  0.00767830632
  0.00176899637
 -0.00330684308
  0.00356936705
 -0.00278278218
 -0.000153873241
 -0.00231238938
  0.00275261605
 -0.00100315662
  0.001284023
  0.0146011774
  0.0240148992
  0.0338771763
  0.0483304216
  0.0464625064
  0.0517583832
  0.0351009316
  0.00131387093
 -0.036637923
 -0.0394877286
 -0.0182546498
  0.0177948421
  0.0513309524
  0.0653062029
  0.0660530356
  0.0564223036
  0.0415550248
  0.0112269024
  0.00496369361
  0.00405477769
 -0.000258701351
 -0.00226601643
 -0.000962425564
  0.000276685491
 -0.00290851247
  0.000466655468
 -0.00408905069
  0.000415116965
  0.0111110931
  0.0262715644
  0.0424884187
  0.0471657725
  0.0515455492
  0.0436616853
  0.00585520604
 -0.0181906555
 -0.0497807791
 -0.0466779997
 -0.0321447292
 -0.00288347447
  0.0349961654
  0.0708836566
  0.0583655794
  0.0488930937
  0.0358130258
  0.0108632348
  0.00630359616
  0.00406064188
  0.00184367772
  0.00254309506
  0.00149784245
 -0.00292407925
 -0.0039347844
 -0.00367644602
  0.00156446971
 -0.00210167449
  0.00877558289
  0.0261103264
  0.0360413882
  0.0311670727
  0.0296500813
  0.0178060625
 -0.01999887
 -0.0255529794
 -0.0454384504
 -0.0539149176
 -0.0579519687
 -0.0300972773
  0.028007323
  0.0625986044
  0.0545372149
  0.0409948327
  0.028995716
  0.0115503261
  0.00644383412
  0.00839577754
  0.00147966165
  0.00340461772
 -0.00260199097
 -0.00088852372
  0.00173584969
  0.00310771494
  0.000399259999
  0.00299158987
  0.00821874464
  0.0105523911
  0.0307306591
  0.0331763575
  0.021779438
 -0.00588565255
 -0.0217693315
 -0.0241246356
 -0.0374849432
 -0.0433752975
 -0.0397138328
 -0.0341918874
  0.0271036995
  0.0688697866
  0.043031956
  0.0133368733
  0.0213582927
  0.0169730035
  0.0120723777
  0.00885968238
  0.00248424221
 -0.00199823782
  0.000879258092
 -0.000247958981
 -0.0028054832
  0.00248913008
  0.00307538014
  0.00375607797
  0.00311647039
  0.00317353734
  0.0209045506
  0.0200971799
 -0.00205771634
 -0.0246823194
 -0.0285419893
 -0.0352037566
 -0.0493214147
 -0.0501390203
 -0.0371129546
 -0.0117872206
  0.029390696
  0.0383873613
  0.0113483522
 -0.00201261899
  0.00911963776
  0.0173600136
  0.00778069105
  0.00381716251
 -0.000403307875
 -0.0029989982
 -0.000732208548
 -0.00213092863
 -0.000785372939
 -0.00406481345
  0.0018329756
  0.00169715504
  0.00605745592
  0.0105617998
  0.00847179898
  0.000537957735
 -0.0168794243
 -0.0230034078
 -0.0256086173
 -0.0189692057
 -0.0140207214
 -0.0276180687
 -0.00951673092
  0.0296654298
  0.0446124977
  0.0372082028
  0.0115619091
  0.0132478633
  0.0210990491
  0.0188289203
  0.0116659881
  0.00566423488
  0.00224925003
 -0.00140196725
  0.00030950883
 -0.00236592093
 -0.00018910236
  0.00378916337
 -0.000284986598
  0.00441159975
  0.0119757415
  0.000354785066
 -0.00296445535
 -0.00845523175
 -0.00956295647
 -0.00298319109
  0.0115917543
  0.0127378906
  0.0082278562
 -0.0040937637
  0.0168510785
  0.0482886088
  0.042762439
  0.0351180847
  0.0244067512
  0.025754944
  0.0212910967
  0.0135931091
  0.00885037174
  0.00226707351
  0.000897482067
  0.00307831186
 -0.0032871259
 -0.00106513099
 -0.0025355186
  0.00123424602
  0.000780811171
  0.0025689563
  0.00659095831
 -0.00270475387
 -0.0122807964
 -0.0205544265
 -0.0107341218
  0.00865951035
  0.00759768241
 -0.00174018767
 -0.000994654245
  0.00965751101
  0.0354236597
  0.0440475484
  0.0281537887
  0.0206357928
  0.022778597
  0.0174141321
  0.0142348017
  0.00490882099
  0.00432753896
 -0.00290335196
 -0.00174464536
  0.00321958382
 -0.00112854385
  0.0033646998
  0.00208603259
 -0.000203806662
 -0.00191229428
  0.00234350682
 -0.00688084918
 -0.00401713413
 -0.0130159328
 -0.0212944848
 -0.010645359
 -0.0137858744
 -0.00661572934
 -0.000190279622
 -1.30945789E-05
  0.0146052086
  0.00686462323
  0.00367005539
  0.00302872499
  0.019393863
  0.00744707797
  0.00324066144
  0.0017592028
  0.00100918943
  0.0026925126
  0.00349770429
 -0.00336227155
  0.000962214434
 -0.00361751051
 -0.000895053945
 -3.00645881E-05
 -0.000534191272
 -0.00174221723
 -0.00651307054
 -0.00463176318
 -0.00658382196
 -0.00862990057
 -0.0178709486
 -0.0163369899
 -0.0176820903
 -0.0153484441
 -0.00375045906
  0.00504426815
  0.000642775011
 -0.00356693256
 -0.000469859777
  0.0116344923
  0.0120549019
  0.00372479698
  0.00599599717
  0.00254669094
 -0.00118806355
 -0.00318211496
  0.00224661756
  0.0025551704
  0.00167390394
  0.00153245876
  0.00340476182
 -0.00157574472
  0.00212681159
 -0.00170215522
  0.00260605404
 -0.00261924302
  0.000875389778
 -0.00392279278
 -0.00882324308
  0.00548340566
 -0.003812711
 -0.0116788773
  0.00221187299
  0.000433397905
  0.00843037838
 -0.0018417745
 -0.00747528412
  0.00337142614
  0.00128070067
 -0.00183772048
  0.000769930247
 -0.00278962509
  0.000712522478
 -0.000199181881
  0.00265809851
  0.00358907622
  0.000223418925
  0.000692852475
  0.00193238353
 -0.00231454035
 -0.00198655161
  0.00112528226
  0.000321578147
 -0.00410342016
  0.00292998789
 -0.00175187096
  0.000748033389
 -0.00275676269
 -0.00777164391
 -0.00477208154
 -0.00181088029
 -0.00195015887
 -0.00507632991
 -0.00529613564
  0.000925571564
 -0.00251561793
 -0.00258942951
  0.00218350093
 -0.00203760093
  0.00154637729
 -0.00407558847
  0.00290722059
  0.00296861504
  0.000848797102
 -0.00150382438
  0.00141485046
  0.000226010228
  0.00293145763
 -0.00210415991
 -0.00205346958
 -0.00359494594
 -0.00106416592
  0.00153788885
  0.000216508683
  0.000150219129
  0.00270680255
  0.00386612723
  0.00199429162
 -0.00131444286
 -0.00117980832
 -0.00384193258
 -0.00401084603
 -0.00416910255
 -0.00010736736
 -0.00174467523
  0.0017543458
  0.00269682395
  6.24162107E-05
 -0.000274016363
 -0.00355264013
 -0.00260306997
 -0.00013774174
  0.00356644336
 -0.00384631793
 -0.00350080798
 -0.00214924374
  0.0017803954
  0.000937065087
 -0.00342964932
  0.00388809883
  0.00309545885
 -0.00281273217
 -0.000202612935
  0.00216727127
  0.00233762597
 -0.00415306451
  0.00066221073
  0.00199189011
  0.00205309025
  0.00355963096
 -0.00339978118
  0.00242302048
  0.00376064799
 -0.00335702066
 -0.00189620997
 -0.00219589033
  0.0026091881
 -0.00341124899
  0.00207838872
 -0.00187669135
 -0.00275202609
  0.00368718171
  0.00219743
 -0.00339744557
  0.00405272716
  0.00290848536
 -0.00133482634
  0.00162125947
 -0.000366312643
 -0.00055261257
  0.00129749521
 -0.00148271689
  0.000846518603
 -0.00311698095
 -0.00352730871
 -0.00102771852
 -0.00305818244
  0.00134676511
 -0.00324769156
  0.0032067709
  0.000694532981
 -0.00243560959
  0.00141792829
  0.000243317883
 -0.00158076716
  0.00373358165
  0.00225929089
 -0.00318344196
 -0.00388953058
  0.000125816524
 -0.000848270155
 -0.00242969355
 -0.000398864852
 -0.00286270312
 -0.00161527602
 -0.000558001034
 -0.00416608106
  0.00126176073
 -0.00314860453
 -0.000320530529
 -0.00350271468
  0.00236075339
  0.00240861542
  0.00155566701
  0.00350636323
  0.00726200147
  0.00903172448
  0.00840797072
  0.0109953533
  0.00312030549
  0.00514404423
 -0.00328925797
 -0.000943489872
  0.000810289565
  0.00116592319
  0.00168760606
  0.000332007627
 -0.00078664926
  0.00271602701
  0.000654340419
  0.0035510301
 -0.00234410599
  0.00243650971
 -0.00105969759
 -0.000994946141
 -0.00339062921
  0.00259416447
 -0.000949164027
  0.00198626803
  0.00271433594
  0.00105599385
  0.00176444551
  0.00884248766
  0.0219845648
  0.0291317349
  0.0278698767
  0.0185465617
  0.00872801386
  0.00247408631
 -0.00396356345
  0.00215601484
  0.000839900512
 -0.00304095839
 -0.00299933825
 -0.00256167301
  0.00233682814
  0.00290013103
  0.0019821977
 -0.00266168446
  0.00140429495
 -0.00157532497
 -0.00332251726
  0.00327205206
 -0.00335067803
 -0.000170351941
 -0.00333729714
 -0.0047015329
 -0.00718410668
 -0.0041142143
  0.00989043006
  0.0101577309
  0.0238486165
  0.0395797151
  0.0415290235
  0.0149142867
  0.0102021367
  0.0101588235
  0.00296034871
  0.00143306409
 -0.00397194648
  0.00146569543
  0.00108968736
  0.00280134921
  0.00263659988
  0.00230221233
 -0.0039721867
  0.000761564934
  0.000807269525
  0.00148528234
  0.00164316062
 -0.00280463257
 -0.00471111587
  0.000766641822
 -0.0149206885
 -0.0195564619
 -0.0325463553
 -0.0168603956
  0.00380343183
  0.0304136147
  0.0382403442
  0.0374497665
  0.0485238507
  0.0263744609
  0.0212938447
  0.0285813045
  0.0150130743
  0.00116715915
 -0.00156333929
 -0.000890903893
 -0.00191901505
  0.000839377331
 -0.00363707168
  0.00338253566
 -0.000571136044
  0.00321139116
 -0.000572614369
 -0.00481855217
 -0.00486834338
 -0.0103830799
 -0.0135738787
 -0.0200635518
 -0.0279122727
 -0.0416611961
 -0.0498962955
 -0.0165496512
  0.0290961417
  0.0523539579
  0.0462053097
  0.0352954018
  0.0164048334
  0.0267399378
  0.0224419619
  0.0112475801
  0.00790795652
  0.00154858886
  0.00710760347
  0.00510975394
  0.00213130944
 -0.00273423115
 -0.00383507427
  0.0038725249
  0.00231700952
 -0.00326028287
 -0.00371028671
 -0.013045811
 -0.00837243722
 -0.018491538
 -0.0220179149
 -0.0312926259
 -0.0396907947
 -0.0465188956
 -0.0399468552
  0.00132939078
  0.0349855988
  0.0422485522
  0.00292922768
 -0.0149404082
 -0.0307878417
 -0.0111680872
  0.00207858379
  0.00907237488
  0.000828715771
 -0.0017182467
  0.00688124707
  0.00679492701
 -0.000170419295
 -0.00194854064
 -0.00259762188
  0.00162889831
 -0.0004709087
 -0.00222083307
 -0.00779388852
 -0.0161877574
 -0.0216437347
 -0.0227876372
 -0.0278858833
 -0.0315081886
 -0.0408314043
 -0.0391496383
 -0.00956574755
  0.0123198775
  0.0257106283
  0.00119874769
 -0.0211165178
 -0.0330034022
 -0.038819705
 -0.0288564452
 -0.0255906316
 -0.01118035
 -0.00872850698
 -0.00457830555
 -0.00379906038
  0.00433497451
  0.00122923494
  0.000845788057
  0.00393972707
 -0.00329171064
  0.000290403587
 -0.00286975778
 -0.00359829053
 -0.0114798044
 -0.0174727064
 -0.01862932
 -0.0191403799
 -0.011892865
 -0.0173948057
 -0.00673515141
 -0.00417522595
 -0.00433068936
 -0.0153806814
  0.00492507651
 -0.00459228097
 -0.0268503264
 -0.0384149888
 -0.0423037672
 -0.0453679502
 -0.0272767112
 -0.0139275119
 -0.00995693928
 -0.000986961235
  0.000611136164
  0.00062640247
  0.000857761976
  0.00282643429
  0.000533446919
 -0.00283354869
  0.00255429877
 -0.00346490705
 -0.0114941805
 -0.00421742575
 -0.00872146451
 -0.0122941869
 -0.0173050759
 -0.0142194433
 -0.0217551609
 -0.0106753838
 -0.012389739
  0.00566606959
  0.00876184772
  0.0199004144
 -0.00783077396
 -0.0316678801
 -0.0405827582
 -0.0442005387
 -0.0406805413
 -0.0267106388
 -0.0062255013
 -0.00362062835
  0.00134078208
 -0.00200580788
  0.00209479863
 -0.00390443183
  0.0018685715
 -0.00125930273
  0.00313386596
 -0.00299076755
 -0.00274329961
 -0.00531445695
 -0.00483996381
 -0.0123424791
 -0.012583841
 -0.0320356798
 -0.0243109074
 -0.00658743987
 -0.0184323348
  0.00723911014
  0.00896600984
  0.0306611176
 -0.000529612248
 -0.0236025341
 -0.0395865128
 -0.0440869307
 -0.0382769956
 -0.0163423387
 -0.00116171028
  0.00078653105
 -0.0040990754
  0.00325445871
 -0.00272338782
  0.0011725704
 -0.00296321201
  0.00358327353
  0.00148000157
  0.00155249943
 -0.0056522124
 -0.00628504871
 -0.0125497674
 -0.0106270599
 -0.0163107613
 -0.0264999998
 -0.012378558
 -0.0239507894
 -0.0356180244
  0.0106424551
  0.0376694257
  0.0298328936
 -0.0154478206
 -0.0263843988
 -0.0465582199
 -0.0373255784
 -0.0117044622
 -0.00424731984
  0.00423751569
  0.00148452106
 -0.00107643189
  0.000972864835
  0.000146494731
 -0.0010209626
  1.5460454E-05
  0.00163497013
 -0.00406025558
 -0.000300611615
 -0.00394761495
 -0.00399685874
 -0.00947771341
 -0.0160015256
 -0.0231784575
 -0.0151308789
 -0.0114872307
 -0.0202853099
 -0.0203993226
  0.0307130183
  0.0486825654
  0.0357583502
 -0.0181910009
 -0.0469205478
 -0.0494652297
 -0.0266762335
 -0.00115336425
  0.00564087204
 -0.00194707537
 -0.00040391283
  0.00239034058
 -0.00311961417
 -0.00410099452
 -0.00299087609
  0.00206511338
  0.000257363438
  0.000200024394
 -0.00369601228
 -0.00754147015
 -0.00382234234
 -0.00190208472
 -0.0120455405
 -0.0204131346
 -0.00540963715
  0.00294573703
 -0.0267310552
 -0.023845287
  0.0430916781
  0.0695332527
  0.0267642432
 -0.0450199949
 -0.0585010117
 -0.0455568659
 -0.0266913437
 -0.00259918228
  0.00636074395
 -0.00343704134
 -0.00260272322
  0.000897734788
 -0.000122770205
  0.0039744669
  0.00129522976
  0.001217331
  0.0040853356
  0.00251621651
 -0.00240557212
 -0.0050812634
 -0.00722327471
 -0.0079869519
 -0.0128106851
 -0.0154326451
 -0.00746946041
 -0.00230979731
 -0.0187880595
  0.00792164598
  0.06814502
  0.0645624249
 -0.000848908824
 -0.0746049293
 -0.0696981674
 -0.0589307757
 -0.0337432252
 -0.000853412476
 -0.00302203983
 -0.00504748493
 -0.00896299858
 -0.0027158392
 -0.00516231488
  0.00268802477
 -0.000227057343
  0.000191461696
  0.00245062857
 -0.0031436908
 -0.00280306989
 -0.00070115943
 -0.00153217244
 -0.0110993093
 -0.0167631408
 -0.0100388632
 -0.00366417645
 -0.00281462851
  0.00146780101
  0.0314760661
  0.0740971004
  0.0454658672
 -0.00944499062
 -0.0449480271
 -0.0662069774
 -0.0519631187
 -0.00993001579
  0.00839703328
 -1.20875208E-05
 -0.00641251769
 -0.00563614799
  0.00225112474
  0.00302783593
 -0.00149357089
 -0.000997347653
  0.00309421566
 -0.00301740921
  0.00298745809
 -0.000926185481
  0.00375369004
  0.0025580596
 -0.00923672253
 -0.0141241815
  0.00312065388
  0.00895823282
  0.0212460468
  0.0300741092
  0.0392453509
  0.0555647909
  0.0207022847
 -0.017247537
 -0.023164203
 -0.0384706076
 -0.0211745801
  0.014322528
  0.0134868866
 -0.00852898452
 -0.00795563085
 -0.000202013987
 -0.00402146697
 -0.000268004048
  0.0013751866
  0.00307359118
 -0.00145203121
  0.00409347855
 -0.00213561969
 -0.00256967864
 -0.00291304826
 -0.00166478254
 -0.0056508348
 -0.0174555248
 -0.00432484184
  0.0166825012
  0.051499261
  0.0561608607
  0.0518960343
  0.0478271328
  0.0225488458
  0.0126394583
  0.0135099598
 -0.00120115567
  0.00130521086
  0.0203219794
  0.00674998156
 -0.0154440237
 -0.0183548309
 -0.00690155407
 -0.00100544586
 -0.00126724459
  0.00194315594
  0.00275973573
  0.0026766142
 -0.000893520552
  0.00162146382
 -0.00298727985
 -0.000886058247
  0.00543246154
 -0.0062489044
 -0.0114428411
  0.00555364394
  0.043497075
  0.0654170752
  0.0584051282
  0.0513827314
  0.0410689572
  0.0356793741
  0.0337672939
  0.0349870129
  0.00872645996
  0.00807763446
  0.0125481643
 -0.00144097565
 -0.0123189962
 -0.0161294252
 -0.00181177874
  0.00214083745
 -0.000919129314
  0.00182120503
  0.000398947195
  0.00202548918
 -0.000447501868
 -0.00105318017
  0.000490240292
  0.00259288905
 -0.00492793003
 -0.00634599126
 -0.00935312133
  0.0110297917
  0.0367363923
  0.0640347708
  0.061390811
  0.0492241783
  0.022630241
  0.0292830546
  0.037494985
  0.0142632411
 -0.0142900821
 -0.0194828484
 -0.00902759256
 -0.00860175272
 -0.0193829588
 -0.00959976902
 -0.00603584588
 -0.000368214061
 -0.00419325323
  0.00223165267
  0.000311932434
 -0.00090051948
 -0.000159005136
 -0.0035009834
 -0.00308689339
  0.00324175061
 -0.00550234873
 -0.00376796264
  0.000745957784
  0.013615904
  0.0271250754
  0.0374357847
  0.0256148138
  0.0120615023
  0.0131522921
  0.0306478988
  0.0144059133
 -0.0288403334
 -0.0316020319
 -0.0301477323
 -0.0148972418
 -0.0220248512
 -0.0145255049
 -0.00949847304
 -0.0043221769
 -0.00857459019
 -0.00392287183
  0.00231365453
  0.00246235145
 -0.00390426196
  0.000333444115
 -0.00143757921
 -0.000592918353
 -0.00441999275
 -0.00364514196
 -0.00152051557
  0.0125292989
  0.0234344291
  0.0114166752
 -0.00198352054
 -0.0190129717
 -0.0184143602
 -0.00703913738
  0.00486199239
 -0.0144300775
 -0.0320478745
 -0.0262064257
 -0.0157975112
 -0.0136426059
 -0.0122216771
 -0.00618883536
 -0.00627462127
 -0.00184427215
  0.00209944551
 -0.000218489876
  0.00303748465
  0.00256620993
  7.05014176E-05
  0.0011392761
  0.000816698283
  0.000378102294
 -0.00241661556
  0.00446272105
  0.00647924383
  0.00748684693
  0.0198102493
  0.0250094588
  0.00766953839
 -0.00764480605
 -0.0137821092
 -0.00730007406
 -0.0110680879
 -0.0175776733
 -0.0195257805
 -0.010198853
 -0.00672583514
 -0.00293318871
 -0.00956099538
 -0.00925883789
 -0.0010324542
 -0.0018417387
  0.00398565705
  0.000160453424
  0.000954021779
  0.00187323996
  0.00415382664
 -0.000220356909
  0.000227586298
  1.2464966E-05
 -0.00175412426
 -0.000304920785
 -0.00130534363
  0.000101646923
 -0.00163964447
  0.00248456386
 -0.00435916552
 -0.00140127198
 -0.00756620372
 -0.0142371845
 -0.0111663337
 -0.0109577151
 -0.0226638468
 -0.0166513776
 -0.00497676368
 -0.00887274403
 -0.000813158299
 -0.00269869295
 -0.00385577258
  0.00257028298
 -0.00121165233
 -0.000166845573
 -0.0030082071
 -0.00143785812
  0.00420547094
  0.00215767777
 -0.00377648153
  0.00414743449
 -0.00227454248
  0.000662967887
 -0.00111938678
 -0.0106287318
 -0.0136953294
 -0.0336695352
 -0.0321055119
 -0.00893462237
 -0.0163359286
 -0.0281661025
 -0.0229357238
 -0.0102282426
 -0.00357015204
 -0.000889128258
 -0.00229346477
 -0.00268059569
  0.0038566264
 -0.00198334499
 -0.00197268228
  0.00190183216
  0.000763605441
 -0.00157051868
  0.000401078581
  0.0037638167
  0.00247449859
  0.00160473458
 -0.00188590476
  0.00246810644
 -0.000449450993
 -0.00153645876
 -0.00172313299
 -0.0124627914
 -0.0202931742
 -0.0159242515
 -0.00971746791
 -0.00104947311
 -0.00901629283
 -0.0166280979
 -0.0101816488
 -0.00404432496
  1.99118272E-06
 -0.00316333474
 -0.000534561218
 -0.000275673522
 -0.00208930272
  0.00396498587
  0.00150682289
 -0.00240020486
 -0.00223022208
  0.00374600394
  0.00371349039
  0.00274524683
 -0.00203637783
 -9.72943664E-05
  0.00229719994
 -0.0037737424
 -0.00270442288
 -0.00481815713
 -0.000393006003
 -0.00228624928
 -0.00164403342
  0.00109804219
 -0.00166600426
 -0.00182678304
  0.0034497574
 -0.00153375818
  0.00330477799
  0.00192821365
  0.00384636685
 -0.00206859364
 -0.00329083687
  0.00166571631
  0.0021882422
  0.000921182875
 -0.00282182043
 -0.00411292393
  0.000674305654
  0.00289686592
 -0.00230126564
  0.00265594654
  0.00243100677
 -0.00279963846
  0.00118933027
 -0.00381723437
  0.00131493039
 -0.000725332633
 -0.00337911364
  0.00282237035
 -0.00031403746
  0.00373897665
 -0.000331503274
  0.00285859788
  0.00062515575
  0.00221435556
 -0.0031800485
 -0.000136949939
 -0.0035312659
 -0.00408713387
 -0.00242059926
 -0.00389676235
 -0.00194386439
 -0.00149957316
  0.00198081695
 -0.00396748549
  0.0036334728
  0.00337085948
 -0.00386854632
  9.59153674E-05
  0.00205586231
 -0.00195794886
 -0.00146000094
  0.000275005989
 -0.000545724353
  0.00394119268
  0.000669634681
 -0.00344265705
 -0.000996003298
  0.00150238388
  0.00359157664
  0.00290182258
  0.00102949743
 -0.000951789724
  0.00154855687
 -0.00255720953
 -0.00294929738
  0.00258037147
  0.00151770375
 -0.00226870012
  0.00270510096
  0.00330896745
 -0.00195359948
 -0.00345062665
 -0.00240246867
 -0.00418464564
 -0.0032062491
 -0.00298085883
  0.00339807695
 -0.00286293233
  0.00132691988
  0.00124207617
 -0.000609018223
  0.00407878228
 -0.00269478119
  0.00305712051
  0.00380811137
  0.00218671633
  0.00382632681
 -0.00139975477
 -0.000522762627
  0.00320604036
 -0.00288523189
 -0.0124022591
 -0.0272979597
 -0.0182003196
 -0.0142362473
 -0.00582884023
 -0.000161704571
  0.00367909199
  0.00124811635
 -8.76290721E-05
  0.00277619635
  0.00350637996
  0.000673607242
 -0.00383813535
  0.00353359743
  0.00167922111
 -0.00260713103
  0.00271981129
  0.00302815225
  0.00293165194
 -0.00024997589
 -0.00179272907
  0.00279857063
  0.00126710601
 -0.0028488002
  0.00335686477
  0.00116605024
  0.00074889921
 -0.00466791308
 -0.0152955942
 -0.0260607198
 -0.0329479628
 -0.0171199299
 -0.00928734383
 -0.00392986122
 -0.00282454278
  0.00143223644
  0.0027550271
 -0.0033573137
 -0.00153151081
 -0.00154446531
  0.00363074594
 -0.00223699406
  0.00334100502
  0.00400447349
 -0.00291525985
  0.000808363536
 -0.0028145205
  0.00401641427
 -0.000375347559
 -0.00409473182
  0.000985309679
  0.00371366324
  0.00354512017
 -0.000447394058
  0.00961750436
 -0.0148873017
 -0.031695254
 -0.0370974279
 -0.0273730616
 -0.00984362512
  0.0026261357
 -0.00121857676
 -0.00205401036
  0.00181170944
  0.00157252821
 -0.000603909425
  0.00340772166
 -0.0039538135
  0.000250639908
 -0.00233565212
 -0.00128641577
 -0.000330477247
 -3.75934544E-05
 -0.00212481921
 -0.00113355998
 -0.000661751019
  0.000993992803
 -0.00224522032
 -0.000358872856
 -0.00915224232
 -0.0174572843
 -0.00935798356
 -0.00807473405
 -0.0310126188
 -0.0601435797
 -0.0517224069
 -0.0114673314
  0.00852330327
  0.0102068729
  0.00828351583
  0.0202617559
  0.0179324997
  0.00951695044
 -0.00202812166
 -0.0029971618
 -0.00345702137
  0.00157983176
 -0.00380130317
 -0.00319897176
 -0.00238139118
  0.00104074687
  0.00702386205
  0.00250670452
 -0.0110993668
 -0.0141830009
 -0.0133747713
 -0.014934336
 -0.0238150838
 -0.0277566031
 -0.0134948418
 -0.0161978042
 -0.0418427969
 -0.0577784382
 -0.0384823195
 -0.013198641
  0.0166597601
  0.022306224
  0.018989904
  0.0338686598
  0.0378785589
  0.0217077679
  0.00832156257
  0.00190420484
  0.000958681204
  0.00412901169
  0.00250006216
  0.00171352261
  0.00149698085
 -0.00138078762
  0.0119149696
  0.0140934447
 -0.0145708492
 -0.0155020356
 -0.00716169242
 -0.0112322422
 -0.0255993276
 -0.02293094
 -0.0310547846
 -0.0505784916
 -0.0666701868
 -0.0604094146
 -0.0399979866
 -0.00602684962
  0.0200219816
  0.0128546283
  0.0145483463
  0.0228678624
  0.0199497573
  0.0162688333
  0.0105134991
  0.00667920202
 -0.00299478363
  0.00115450509
 -3.56561491E-05
  0.00217576066
  0.00107165368
 -0.0078376101
  0.00699371905
  0.0129054305
  0.00913033789
  0.0106275327
  0.00385905746
  0.00726970207
 -0.000906985234
 -0.0057130513
 -0.0452610936
 -0.0543577379
 -0.0460319029
 -0.0308240006
  0.00298003837
  0.0285354698
  0.0354334644
  0.021537493
  0.0103312139
  0.0203462363
  0.0214300832
  0.00917737491
  0.00712277059
  0.00922681116
  0.000389584161
  0.000434941253
  0.00220845998
  0.00259535022
 -0.00262241663
 -0.00828694926
  0.00370038488
  0.0170643095
  0.0152206155
  0.0191419703
  0.00905889458
  0.0299476461
  0.0133361506
 -0.00973088475
 -0.0245306239
 -0.0156754854
  0.00837376388
  0.00826807158
  0.0286796104
  0.0468136664
  0.0357351948
  0.0360533983
  0.024620784
  0.0242123051
  0.00594353944
  0.00293108237
  0.000879784917
  0.0053152512
 -0.00297305166
  0.00294571105
  0.00215869903
  0.00174247494
 -0.000831210785
 -0.00657713203
  0.0015874402
  0.018939832
  0.0155417129
  0.0231609358
  0.0284849487
  0.0187965727
  0.00655261469
 -0.0330657275
 -0.0326623561
  0.0171925328
  0.0283300086
  0.0270077342
  0.04264855
  0.0532851376
  0.0258179859
  0.0230484708
  0.0339517071
  0.0140802488
  0.00809763345
  0.00323849232
 -0.00299351567
  0.000571270605
  0.00362957204
 -0.00195785522
 -0.000799507114
 -0.00355534271
 -0.00322400745
  0.000241626029
  0.0104840074
  0.0147881796
  0.0144888913
  0.0256692744
  0.0255383073
  0.0325013025
 -9.11712003E-05
 -0.0432293643
 -0.0278354466
  0.0146828427
  0.0111625914
  0.0239550017
  0.0359506221
  0.0172453281
 -0.000386662483
  0.0178773246
  0.0188484738
  0.0126433505
  0.000771403094
 -0.005621247
 -0.00467868596
  0.00419621084
 -0.00219965967
 -0.00287825433
  0.000555618351
 -0.00278195072
 -0.000624246459
  0.00806791812
  0.00712927306
  0.013786884
  0.011870431
  0.0225810991
  0.0218221123
  0.0356869811
 -0.014920617
 -0.0680551189
 -0.0504814507
 -0.00841302998
  0.00784511622
  0.00243147824
  0.00918347701
 -0.0122403834
 -0.00178292296
  0.0227811122
 -0.00440704372
 -0.00226972255
 -0.000598480923
 -0.00696196577
 -0.00488516319
 -0.000841127628
  0.00227943337
 -0.000308492342
 -0.000856780133
 -0.00413208928
  0.00102511667
  0.00801064535
  0.00909716167
  0.00642034497
  0.0217239352
  0.011481636
  0.00593689153
  0.000300652775
 -0.0325068114
 -0.0671341849
 -0.041831463
 -0.00236271905
 -0.00339933331
 -0.005388466
 -0.0212600146
 -0.0261853878
 -0.00628859898
  0.0132869611
 -0.0107454241
 -0.0266946736
 -0.0111516546
 -0.00123385773
 -0.00307749025
 -0.0025664021
 -0.00173536542
 -0.00399828009
  0.000804333233
 -0.00366779508
 -9.49091726E-05
  0.00825936024
  0.00878443333
  0.00247063602
  0.0134971647
  0.00708368556
 -0.00319445731
 -0.0147823902
 -0.050471697
 -0.0374643663
 -0.00516064988
  0.0238203279
  0.0210433202
  0.0212416326
 -0.0105263468
 -0.0117741209
 -0.00593712086
 -0.00275422185
 -0.02118171
 -0.0336210113
 -0.00714082143
  0.00611515204
 -0.00629933798
 -0.000519858238
  0.00265174251
  0.00332842106
  0.00122525655
 -0.00329548606
  0.00354200397
  0.00168559857
  0.00959525073
  0.00825585984
  0.0110978033
  0.0173583007
  0.00574067398
 -0.0251081736
 -0.0381637116
  0.00528098991
  0.0313559068
  0.0605742419
  0.0599620497
  0.0415664512
  0.0164410038
  0.0180544191
  0.0279560437
 -0.0110388209
 -0.0415100082
 -0.0278804931
  0.00174146198
  0.00693256464
 -0.00741334032
  0.00201491489
  0.00210331715
 -0.00165041501
 -0.0022083145
  0.000543196565
 -0.00253385705
  0.00322880526
  0.00849404821
  0.00486806561
  0.0122705624
  0.0256738598
  0.00356547352
 -0.0164763969
 -0.0243680784
  0.0140932768
  0.0376585818
  0.0675575524
  0.0722056717
  0.05524208
  0.0401179755
  0.023034455
  0.0123790867
 -0.0269970904
 -0.0489464874
 -0.0354247933
 -0.00729526635
 -0.00617368443
 -0.00617227076
  0.00182985861
  0.00266182404
  0.000132357794
  4.1748046E-05
  0.000553278095
  0.00269380587
  0.00204529676
 -0.00331844167
 -0.00316851072
  0.0112033397
  0.0177983798
 -0.0100506359
 -0.0164572157
 -0.00722217145
  0.0215727437
  0.030692218
  0.0745999592
  0.0649288854
  0.063989307
  0.0577291419
  0.0186237064
 -0.0180647384
 -0.0533445336
 -0.0454559063
 -0.0275302374
 -0.0153460843
 -0.00421939974
 -0.00527778344
 -0.00140923705
  0.000904595724
 -0.00416029345
 -0.00379124176
 -0.000645443077
  0.000183927286
  0.000462369601
  0.00334210912
 -0.00483049772
  0.00329768342
  0.00176151318
 -0.0119915187
 -0.00979003868
  0.0025506953
  0.0193294976
  0.0370203776
  0.0636231886
  0.0335793371
  0.0291819312
  0.0325302297
 -0.00393986811
 -0.0446810367
 -0.0504141359
 -0.013201299
 -0.0148305459
 -0.00913257597
 -0.00216169746
 -0.00231416075
  0.00393866765
 -3.9620677E-05
 -0.0018293417
 -0.00168243249
 -0.00334688773
 -0.00177777221
 -0.00126181119
 -1.5751977E-05
  0.00216753219
  0.00986119678
 -0.00232675261
 -0.0204650296
 -0.022868834
 -0.000756246537
  0.0189772069
  0.0376554447
  0.0356194247
  0.00643003251
  0.0112337814
  0.00393911297
 -0.0230057239
 -0.036566251
 -0.0154783484
 -0.000929313343
 -0.0150511045
 -0.0128994938
 -0.00768780299
 -0.000310173967
  0.0031407115
 -0.00162269219
 -1.55618768E-05
  0.00286751606
  0.00254955048
  0.00236695926
 -0.0030267794
  0.00228423559
 -0.00830921229
 -0.0111442727
 -0.016628814
 -0.0208934918
 -0.0132849747
 -0.00653542522
  0.0060198966
  0.0148116021
 -0.0087691569
 -0.0166108977
 -0.0163625008
 -0.0296152616
 -0.0267629828
 -0.0261771199
 -0.00572561394
 -0.00533398049
 -0.010838984
 -0.00707857396
 -0.000977374481
 -0.00254558619
  0.00266751978
 -0.00263704185
  0.00345593114
  0.0015963682
 -4.78708216E-05
 -0.000771494078
  0.000252021166
 -0.00303032332
 -0.0134081146
 -0.0112303177
 -0.0126523354
 -0.0159058909
 -0.0157342794
 -0.012478725
 -0.0183748287
 -0.0307979495
 -0.0401874839
 -0.0254867828
 -0.018939525
 -0.0328772186
 -0.0219228088
 -0.00659090937
 -0.00918269547
 -0.0116660024
 -0.00721581526
 -0.00558277612
 -0.00363960933
  0.00116797019
 -0.00184605061
  0.00265484143
  0.00131864588
 -0.00339039398
 -0.00419406335
  0.000562713932
  0.00241783737
 -0.00131475696
 -0.00557311404
 -0.0128624903
 -0.00471921457
 -0.00570750008
  0.00709317568
  0.0118024984
 -0.0145648661
 -0.0346655764
 -0.0208663848
 -0.0110966821
 -0.00775147883
 -0.0247762864
 -0.00622498386
 -0.0013546021
 -0.0015084165
 -0.00765364059
  0.000604068415
  0.000312793201
  0.00180257398
 -0.00293093156
 -0.00221974013
  0.0021061595
  0.00143134522
  0.00014607247
  0.000549137834
 -0.00146187199
  0.000967541643
  0.000769794192
  0.00276940807
 -0.00454567475
 -0.00966808952
  0.00234440441
  0.0153864054
  0.01011385
 -0.0217382654
 -0.0361464
 -0.0156200797
 -0.015595651
  0.00622058664
  0.00413672385
  0.0126703127
  0.00477863878
 -0.00102686395
  0.000413801145
 -0.00392584184
 -0.00399271842
 -0.00301699658
 -0.00278733378
  0.00196119715
  0.00378710579
 -0.00150640238
  0.00395332024
  0.0016814022
  0.00413680618
 -0.000112470385
  0.000163348728
  0.00245279188
 -0.0014358295
  0.00081767277
 -0.000517411289
  0.0178679668
  0.00326400924
 -0.0290748368
 -0.0152940329
  0.00802114281
  0.00484971159
  0.000936330408
  0.0146245973
  0.0102764819
  0.00576557377
 -0.00747358875
 -0.00480834227
 -0.0035692193
  0.00227610304
 -0.00153270585
  0.00228015337
  0.0028912731
  0.000538400571
  0.00370468268
  0.000640607166
  0.000113643274
 -0.0020135828
  0.000382064311
 -0.00241681762
 -0.00208863996
 -0.00385368679
  0.00378653291
  0.0107682728
  0.00586218131
 -0.0104622351
 -0.00990845942
  0.00438871265
  0.0153430533
  0.0244877367
  0.0131122921
  0.0105751968
 -2.47881825E-05
 -0.0012764992
  8.19158753E-05
  0.000267814544
  0.00060444089
  0.00128740665
 -0.00309993325
  0.00351873547
 -0.00056343067
 -0.00016105217
  0.00158702575
 -0.00188402091
 -0.00383451444
  0.00107984533
  0.00296844935
  0.000490991926
  0.00335003211
  0.00124955944
  0.01022599
 -0.00145963973
 -0.00482338191
 -0.0111919491
 -0.00363589379
  0.0124610411
  0.0236518484
  0.017378371
  0.0093301685
  0.000351336402
 -0.00562319268
 -0.00444022586
  0.00188554978
 -0.00149133908
  0.00292329008
 -0.00178188536
  0.00306995854
 -0.000684132371
  0.00371738413
  0.00418188813
 -0.00137725999
 -0.00105790963
 -0.000191027135
 -0.00400209727
  0.0012699323
  0.000186321768
  0.00510034108
  0.00707043483
  0.000952392831
  0.00111826003
  0.00337703221
  0.00296335109
  0.00154535904
 -0.00142658688
 -0.00336061527
 -0.000890723893
  0.00331818488
  0.00135034403
  0.00324712614
 -0.00341938152
 -0.000628742201
 -0.00222070491
 -0.00291987359
 -0.00295505551
  0.000499819227
 -0.0042084465
 -0.00052507803
 -0.00064208583
 -0.000680715627
 -0.00101955699
 -0.000672060544
  0.00215388747
  0.00213439672
  0.00334877541
  0.00236365348
 -0.000807534078
 -0.000676766161
 -0.000558598776
  0.00343084757
  5.47783689E-07
  0.00400913794
  0.00259601669
 -0.00124796421
  0.00134263389
 -0.00304243316
 -0.000396716395
 -0.0037599531
 -0.00393611143
 -0.00325823545
  0.00369903614
 -0.00314362992
  0.000324885435
 -0.00273353174
 -0.00185164042
  0.00158169302
  0.00197815033
 -0.00184822367
 -0.0031552481
 -0.00287579847
  0.00168292354
  3.70579933E-05
  0.000664004207
 -0.000375051826
 -0.00204040838
 -0.000199083722
 -0.00222326156
  0.00136392063
  0.00333601321
  0.00143000262
  0.000582905108
 -0.000875302351
  0.00122727747
 -0.00103294104
  0.00208859678
 -0.00164195173
  0.000136489017
 -0.00251998296
 -0.00119004174
  0.000412240615
 -0.00156635532
 -0.00170286844
  0.00148047354
  0.00297039295
 -0.000224537086
  0.00384069671
  0.000340222876
 -0.00245824985
 -0.0022193903
  0.00139683786
 -0.00112218535
  0.00367539658
 -0.00277796711
  0.00375368195
 -0.000911518585
 -0.000606512527
 -0.000657264861
  0.00107708282
 -0.00345445505
 -0.00153311474
 -0.0017447945
 -0.00159531361
 -0.00665971415
 -0.00394262217
 -0.00889592
 -0.00266494402
 -0.00277830091
  0.000443860939
  0.00137205956
  0.000902369945
 -0.00335576179
  0.00401756758
  0.00341136485
  0.00233657509
  0.00277609744
 -0.00102503558
  0.00196540821
 -0.00109554277
  0.000728577913
  0.00395788125
 -0.00391056788
  0.00381825566
  0.00342141474
 -0.0024766719
  0.00331483956
 -0.00214300309
  0.00024660711
 -0.00262120084
  0.000135456704
 -0.00742605778
 -0.0119034543
 -0.0146393774
 -0.00949719223
 -0.00455063217
 -0.0032463942
 -0.000678090934
  0.00265332009
 -0.000714749512
  0.0039776331
 -0.000186483442
 -0.00402424245
 -0.00358999191
 -0.000380778952
  0.00359898553
  0.00295844615
 -0.0018165446
 -0.0016379134
  0.000711991263
  0.00129977571
  0.00330252761
  0.000458009423
  0.000945171251
  0.00204431151
 -0.00167068095
  0.00166720214
 -0.00263069046
 -0.00990569716
 -0.0186404885
 -0.0259393076
 -0.0147227271
 -0.00605067027
 -0.0028801859
 -0.00184596283
 -0.00110744733
  0.00116809656
  0.0013425916
 -0.00373625288
  0.00313236922
 -8.71360166E-05
 -0.00397048304
 -0.00126597731
  0.000100484416
 -0.00334861186
  0.00293347679
  0.000650958877
  0.00354854534
 -0.0050847454
 -0.000332264941
 -0.00136671174
  0.000182052417
 -0.00296550624
 -0.0108687382
 -0.00863226525
 -0.0151792338
 -0.0291432341
 -0.0471298796
 -0.0462766276
 -0.026790833
  0.00027299341
 -0.00387494998
 -0.00487240122
 -0.00411662263
  0.0120134722
  0.00872137268
  0.0021078882
 -0.00377241913
  0.00402795087
  0.0025834985
  0.00357181325
 -0.000271048239
  0.00282487831
  0.00192542098
  0.0115827717
  0.00628936194
 -0.00512338207
 -0.00219818479
  0.00643743356
 -0.00137423609
 -0.0065041702
 -0.00497367669
 -0.00612673847
 -0.0235345561
 -0.0474563962
 -0.0642960623
 -0.0554350368
 -0.0478884233
 -0.014148023
 -0.00187749497
  0.00305706412
  0.0160512812
  0.021391269
  0.0113598234
  0.00653252827
  0.00289859722
 -0.00179781477
 -0.000879294996
  0.00292896976
 -0.00198172699
 -0.00250765971
  0.00684727629
  0.0138326426
  0.00694005979
 -0.000772573288
  0.0058753101
  0.015436585
  0.0050881544
  0.0017566464
 -0.000787161214
 -0.0235334579
 -0.048036999
 -0.0590586205
 -0.0514262709
 -0.0417621479
 -0.0165296332
 -0.00596808357
 -0.0143810861
  0.00177132248
  0.0128594172
  0.0221368365
  0.00777576475
  0.00783224261
  0.00438693269
  0.00138415499
 -0.000885825471
 -0.000147200925
  0.00379820306
  0.00244674237
  0.00288913356
  0.00839033328
  0.0150535961
  0.00717175477
  0.0180248003
  0.00870932709
  0.00789245187
 -0.000311464524
 -0.0234392632
 -0.0337289518
 -0.0381880018
 -0.0357739963
 -0.0211317824
 -0.000403756451
  0.0138338193
  0.0040850303
 -0.0109613557
 -0.00231352673
  0.0105685688
  0.0153516522
  0.0145745034
  0.00459969904
  0.00373529426
 -0.00282696212
 -0.00190093693
 -0.00308613949
  0.00357975347
  0.00142510069
  0.00301364871
  0.0110292752
  0.0105438865
  0.0150496628
  0.0188065126
  0.00711576657
  0.00421973185
 -0.0120803857
 -0.0275537459
 -0.0224479785
 -0.00519005283
 -0.00719633673
 -0.00188362848
  0.023193922
  0.0274465915
 -0.00637964713
  0.00122092822
  0.00198786356
  0.010499979
  0.00953077421
  0.00526521762
 -0.00112819681
 -0.000684121452
 -0.000818244981
  0.00104568693
  0.00144035026
  0.000660197872
  0.00335661309
  0.00342804064
  0.00702641281
  0.0152215196
  0.0109096569
  0.0121065533
  0.00966475255
  0.00648245273
 -0.00927121897
 -0.0260674191
 -0.0067564285
  0.00686612129
  0.0142711643
  0.0105723374
  0.0311884316
  0.014736874
 -0.0112015098
 -0.00599759859
  0.0134933838
  0.00783338405
  0.00380976179
 -0.000793119633
  0.0038108986
 -0.00201395786
  0.00306637008
  0.00419395895
 -0.000124194763
 -0.001963738
  0.00102778329
 -0.000331509769
  0.00976586497
  0.0127086958
  0.014652256
  0.0164432143
  0.00878401814
  0.018946389
 -0.00253103631
 -0.0192694001
  0.00088498947
  0.0115562778
  0.00695935337
  0.00116707273
  0.0185576297
 -0.00604981966
 -0.0159258967
  0.00377220558
  0.00754493403
  0.0103575604
  0.000337665339
  0.00195249908
  0.00318930644
 -0.00320310832
 -0.00281407816
  0.00302651643
 -0.00100520315
 -0.00395957123
  0.00300861229
  0.00648002696
  0.00644967774
  0.0111066202
  0.00845740755
  0.0146654568
  0.0180979866
  0.0243317316
  0.00656629963
 -0.00890900323
 -0.00040916536
 -0.00502406349
 -0.00785745343
 -0.00633290801
 -0.000749359928
 -0.00774055916
 -0.00225091284
  0.0118391345
  0.00561895373
 -0.000652111977
 -0.000366203715
 -0.00467083017
  0.00136949423
  0.00393277157
 -0.00264023014
  0.00309973969
 -0.0034821999
 -0.0012424452
  0.00191439303
  0.00312202182
  0.00974238188
  0.0095608326
  0.0137904431
  0.0171328376
  0.00990843285
  0.0206211406
  0.0257946932
 -0.000135493888
 -0.00696403555
 -0.0212666971
 -0.0206755919
 -0.0140388819
  0.00339749876
  0.00850460026
  0.0240406053
  0.0132454626
 -0.00128245791
 -0.0105583156
 -0.00243278689
 -0.00166794113
 -0.00536562613
  0.00218754378
  0.00314396758
 -0.00374530189
  0.00190845226
 -0.00370812584
  0.00356630127
  0.00603567748
  0.0105729738
  0.00805773883
  0.00994207776
  0.0172042954
  0.0131170107
  0.0178879626
  0.0135350722
  0.019405709
  0.0111080229
 -0.00759574055
 -0.0109644367
  0.00306726552
  0.0165261404
  0.0298599613
  0.0258591091
  0.0212533353
  0.00401884235
 -0.00357107328
  0.00432714941
 -0.00131708633
 -0.000643513487
  0.00347564647
  0.000236527574
 -0.00362314111
  0.00211805408
 -0.000831368191
 -0.00315657991
  0.00301989022
  0.0109626825
  0.00725219218
  0.0155657999
  0.0282336541
  0.0262299864
  0.0160180581
  0.00587753157
  0.0187650995
  0.0135551167
  0.00884886534
  0.0121824544
  0.0237331864
  0.0406926367
  0.0450568266
  0.0499494925
  0.0269523175
 -0.00688068318
 -0.00559605831
 -0.000469711757
  0.00523562155
 -0.00754099158
  0.00107096972
  0.00416561328
 -0.00234527687
  0.00373676995
  0.00019027776
 -0.00175655501
  0.00164296094
  0.0101212968
  0.00938104184
  0.0167002118
  0.0256403027
  0.0170386041
  0.00470506773
 -0.0104072904
 -0.0110150168
 -0.00692953971
  0.013036403
  0.0140581548
  0.0108338843
  0.0234201563
  0.043043154
  0.0420952741
  0.00749209311
 -0.0116786741
 -0.00680727358
 -0.000223345125
 -0.00378951086
 -0.00525734598
  0.00129546022
 -0.00413308095
  0.000924387234
  0.000889856778
 -0.00417933077
  0.00279097296
  0.000414763633
  4.33508589E-05
 -0.000543033306
  0.0121733089
  0.0120712843
 -0.00664292152
 -0.0190003859
 -0.0270105073
 -0.0307724207
 -0.00777738553
  0.0110204798
  0.00826286412
  0.00974729623
  0.0102868383
  0.024535378
  0.0225747036
 -0.0071283795
 -0.0134471395
 -0.00552876771
  0.00126131638
 -0.00198484691
 -0.00494673692
  0.00389270654
  0.000519843708
  0.00136058422
  0.000976303671
  0.000598625647
 -0.00192689189
 -0.00234570239
  0.000169273046
 -0.00502354157
  0.00373842552
 -0.00970049973
 -0.0173340617
 -0.0301577975
 -0.0342179182
 -0.0202931997
  0.00292309255
  0.0190585376
  0.00814048592
 -0.00754989008
 -0.00478457188
  0.00873787591
  0.0066803229
 -0.0102923133
 -0.00690981078
 -0.0037496239
 -0.00303201422
 -0.0045123513
 -0.00202944833
 -0.00273897455
 -0.00138391474
 -0.00222847015
 -0.00305813123
  0.00334779181
  0.00334397741
  0.00213003553
 -0.000473389968
 -0.00396932531
 -0.000669971167
 -0.0145200903
 -0.0247559715
 -0.0329876784
 -0.0369551567
 -0.0166034277
  0.0109302538
  0.0095855424
 -0.0177667081
 -0.0182297111
 -0.0123399718
 -0.00499161908
  0.00275783667
  0.000439037276
  0.0087581892
  0.00246490734
 -0.0069322281
 -0.00890263749
 -0.00514466837
  0.00131337491
  0.00410166016
  0.00413953004
  0.00278626332
 -0.00149411767
 -0.00230080296
  0.00393999518
 -0.00231939003
 -0.00526513563
 -0.00762578601
 -0.0127328662
 -0.029645871
 -0.0331235026
 -0.035519325
 -0.0154327006
 -0.00387615325
 -0.0150433986
 -0.0325537477
 -0.027363564
 -0.00728194867
  0.00511197365
  0.00686910865
  0.0070756856
  0.00479765227
  0.00951613435
 -0.00528877677
 -0.00521248222
  0.000498439894
 -0.00179572455
 -3.73055253E-07
  0.00206110316
  0.00372951319
 -0.000110575987
  0.0019887701
  0.00230391342
  0.00269830748
  0.00172580235
 -0.00599793209
 -0.0206456587
 -0.0346142786
 -0.0319030311
 -0.0251941684
 -0.0106585419
 -0.0236941183
 -0.0338486511
 -0.0295365422
 -0.0129591942
 -0.00385692669
  0.000815693331
  0.0101906314
  0.00698385655
  0.0025733581
  0.0018080893
 -0.00320590714
 -0.000258583016
 -0.00479817715
  0.00234307218
  0.00415750799
  0.00191134583
 -0.00366451528
 -5.47281595E-05
 -0.000239414108
 -0.00414686507
  0.00416903136
 -0.00367145784
 -0.000418228876
 -0.0139689075
 -0.0356244185
 -0.0205719799
 -0.00417293225
 -0.013999781
 -0.0243537505
 -0.029741355
 -0.0195554332
 -0.0068802877
  0.0020427614
  0.00184004274
  0.00421784817
  0.00238754304
 -0.00121103738
  0.000513515145
 -0.0042066474
  0.00250349471
  0.00190092337
  0.00228592192
  0.000604050262
  0.00265686185
  0.000417131003
  0.000549695157
  0.000356344586
  0.000964478874
 -0.00323433485
 -0.00323321787
 -0.000152226752
 -0.0126532929
 -0.019532327
 -0.00802057451
 -0.00730336314
 -0.0248646315
 -0.0287230874
 -0.0206828629
 -0.00851694689
  0.00819677758
  0.00104259598
  0.00765519654
  0.00186155092
 -0.00186702554
  0.0041966364
  0.00220838874
 -0.00248383655
 -0.00355704989
 -0.00147759428
  0.00170527774
 -0.00132798682
 -0.00378853384
 -0.000220663437
  0.00348792653
  0.0030801912
 -0.00401539546
  0.000566026247
  0.000601788034
  0.00209694488
 -0.00303676439
 -0.0083593886
 -0.00167048166
 -0.00901935878
 -0.0273158716
 -0.0141429199
 -0.000738646497
  0.000673436483
 -0.00105083167
  0.00833288147
  0.0135458901
  0.00652167022
 -0.0010289658
  0.0032936161
 -0.000382386497
 -0.00101101547
  0.0015264817
 -0.00134846921
  0.00338816161
 -0.0018733213
  0.00138579934
  0.000881576257
  0.00101055496
  0.00180912869
 -0.00355095027
  0.000286618903
  0.000677456791
 -0.00303123107
 -0.000145839429
  0.00849167007
  0.0148910534
  0.000665005007
 -0.00840082129
  0.010299811
  0.0131979969
  0.0138216989
  0.00650501517
  0.00404009431
 -0.00422019876
 -0.00224614785
  0.000740216398
  0.00230865796
  0.00212203618
  0.00278137846
  0.00206730953
 -0.0016628358
 -0.00215289734
  0.000676964237
  0.00120055808
 -0.0029765987
  0.00301550603
 -0.00162550567
  0.00211684052
 -0.000185801851
 -0.00398471902
  0.00450753286
  0.00297838434
  0.00793268969
  0.0031229995
 -0.00952542734
 -0.00114864121
  0.00892090091
  0.0136100254
  0.0045293461
  0.00681642736
  0.00131070811
 -0.00501912627
 -0.00161051348
 -0.00218852638
 -0.00300203599
  0.00072686226
  0.00277744757
  0.00352093665
 -0.00136296465
  0.00134696294
  0.00137638359
  0.00118606265
  0.00340592868
 -0.00215851564
 -0.00182524236
 -0.00378253317
 -0.00335487271
  0.00250819148
  0.00635491597
  0.00360496874
  0.0014581657
  0.00111206114
  0.00077200546
 -0.00240604483
  0.000535331777
  0.000985199759
  0.00256902767
 -0.00223493335
 -0.00258036519
  0.00257597062
  0.00341541473
  0.00336128858
  0.00303453737
 -0.00219599
 -0.00303910114
 -0.00417936194
  0.00274273536
  0.00395020977
  0.00355343814
 -0.00283209251
  0.00108530911
  0.000717958139
  0.00256583336
  0.000279374702
  0.00277130546
 -0.00347127235
  0.000708704561
  0.00362829622
  0.00150170555
 -0.000956987644
  8.76212897E-05
 -0.00176541921
 -0.00405678982
 -0.00335223609
  4.03989215E-05
  0.000690405272
  0.00184482701
 -0.00160243599
  0.00266733501
  0.00347632466
 -0.00323832834
  0.00187088665
  0.00262575015
  0.00400807199
  0.00388675975
  0.00379851235
  0.00404057299
  0.00241763201
  0.00353685852
  0.00338214804
  0.00379740272
  0.000410305046
 -0.00011175691
  0.00215137299
 -0.00352218334
 -0.00155231454
  0.00289196348
  0.00139838431
 -0.00213588141
  0.000181806444
 -0.00377046624
  0.00216360298
  0.00262825057
 -0.00361539299
  0.00302323023
 -0.0015432136
  0.00128687543
  0.000656194147
  0.0010662135
 -0.000257652895
 -7.93440321E-05
  0.00203974813
 -0.00259862921
 -0.00166545697
  0.00183595703
 -0.00292373255
 -0.00207880797
  0.00166466693
  0.00370576268
 -0.00275381241
  0.000834951881
  0.00329130231
  0.0018683556
 -0.00348866831
  0.00123081221
  0.00255803535
 -0.000829119567
 -8.90874019E-05
 -0.000255443183
  0.00124686212
 -0.00410772525
  0.00111486685
  0.00261267585
  0.00638263828
  0.006434091
  0.00170661315
 -0.00206381798
 -0.00214256414
  0.00287802638
  0.00224396902
  0.00181164618
 -0.001413181
  7.18540567E-05
  0.00342487969
  0.00113322537
 -0.00230405213
 -0.00371071573
  0.00326627999
  0.00357247802
  0.00420690994
 -0.00369939532
  0.00019556681
  0.00328634916
  0.00238082306
  0.00106546047
  0.00173561543
  0.00358762961
  0.00042260834
  0.00204507877
  0.00748437094
  0.017620807
  0.00872092812
  0.00889165598
  0.00104344623
  0.00367675867
 -0.00277193358
 -0.00145492502
  0.00420765455
 -0.000702634505
 -0.00278876174
  0.00223976047
 -0.00310285154
  9.92035758E-06
 -0.00190024856
 -0.00388983475
 -0.00306871749
  7.56252788E-06
 -0.00338868737
 -0.0040143003
 -0.000631822543
 -0.00339364045
 -0.00137469424
  0.00681700345
  0.00932529527
  0.0114422012
  0.0112378888
  0.00809223234
  0.0157242333
  0.0237389281
  0.0162388514
  0.00240687581
  0.00116658342
  0.00547441585
 -0.00277425785
 -0.00374457555
 -0.00244574343
 -0.00203688921
  0.000988831901
 -0.000463025334
  0.00147233912
  0.00241193325
 -0.00243512783
  0.00258135105
 -0.00163286259
  0.00188924509
  0.00616643264
  0.00562343104
  0.0117152699
  0.014347576
  0.0165814973
  0.0181594535
  0.0126972413
  0.0216845898
  0.0338532022
  0.0446384953
  0.0343534992
  0.0257158994
  0.0209863789
  0.0103859923
  0.0148390428
  0.0141951415
 -0.00244555176
 -0.00310180841
 -0.00146452992
 -0.000441710474
 -0.00420069553
 -0.00310968478
  0.00173326341
  0.000999999458
  0.000639153104
 -0.00100626056
  0.00145082726
  0.00651864947
  0.00790903209
  0.021900302
  0.0264284277
  0.0261569826
  0.0256205882
  0.0252443001
  0.0426591333
  0.0419974573
  0.0604767655
  0.0461098976
  0.0346984746
  0.0268825455
  0.0140454399
  0.00477851812
  0.0135546815
  0.0132027705
 -0.00213933379
 -0.00237011961
  0.00181835194
  0.00216519535
 -0.00290000233
 -0.00104955455
 -0.00294654993
 -0.00300770199
  5.26238869E-05
  0.00299857645
  0.0166043826
  0.00435816529
  0.00626092434
  0.0228842305
  0.0302064616
  0.015301695
  0.0260040366
  0.0245190069
  0.0314810261
  0.055401621
  0.0495498502
  0.0358862938
  0.0142413108
  0.00159394627
 -0.0179641948
 -0.0287244739
 -0.031185762
 -0.00720986817
  0.00782059462
  0.00279471348
 -0.00174200696
  0.000128348668
  8.0622331E-05
  0.00222227558
 -0.00280511793
  0.000975819151
 -0.00303914181
 -0.00153980463
  0.0148329147
  0.0095696049
 -0.00633109523
 -0.000666320253
 -0.00812592276
 -0.0140112389
 -0.000414921231
  0.00516371184
  0.00863610427
  0.0113676018
  0.00236565915
 -0.00633871319
 -0.00466972717
 -0.0204370168
 -0.0332725504
 -0.0382643009
 -0.0473213732
 -0.036766582
 -0.00254699691
  0.00531949481
 -0.00229065301
  0.00197004112
 -0.00192202659
  0.00182834731
 -0.00188748134
  0.00271316709
 -0.00359000889
 -0.00048073617
  0.00576238926
  0.00425146361
 -0.0011224249
 -0.017092215
 -0.0239236093
 -0.0247355387
 -0.0391276196
 -0.0331015233
 -0.0421807739
 -0.0576113659
 -0.0503625568
 -0.028028638
  0.014763026
 -0.00468146353
 -0.042270065
 -0.0336197237
 -0.0552626207
 -0.048575979
 -0.0219863978
 -0.00442110412
 -0.00406535974
 -0.00315613634
  0.00340128189
  0.00409050616
 -0.00394198234
 -0.00149883584
  0.00131136319
 -0.00161760071
  0.00230461641
 -0.00188474732
 -0.00482037708
 -0.0140658038
 -0.0219325924
 -0.0328491758
 -0.048356991
 -0.0634592382
 -0.0611021314
 -0.0694572704
 -0.0447532386
  0.0116814782
  0.0478365066
  0.0184212333
 -0.017200293
 -0.0330969671
 -0.0541126568
 -0.056756633
 -0.0315533722
 -0.0129377444
 -0.0108122368
  0.00281789675
 -0.00325692675
  0.00381011472
 -0.00358465058
 -0.00347424116
  0.00368875779
 -0.00331476983
 -0.00272831223
 -0.00357807434
 -0.0170946226
 -0.0188707795
 -0.021600563
 -0.0329878635
 -0.0639662008
 -0.0514230904
 -0.0542956375
 -0.0461739795
  0.0039375088
  0.0454110586
  0.0891897944
  0.0310564584
 -0.00737377695
 -0.0382173881
 -0.0573334084
 -0.0490278137
 -0.0325080611
 -0.0172033728
 -0.0144220664
 -0.00233444235
  0.00280593282
  0.0034512692
 -0.001355734
  0.00376086891
  0.00304952083
 -0.000728521678
 -0.00653164068
 -0.00271925669
 -0.0174146608
 -0.0210513758
 -0.0233825287
 -0.0228754756
 -0.0552937506
 -0.0544628171
 -0.0340311764
 -0.0221981435
  0.0433974412
  0.0996587587
  0.0937379401
  0.0251421241
 -0.00508554736
 -0.0413767982
 -0.0433177021
 -0.0336066553
 -0.0215675956
 -0.0110042882
 -0.00991718097
 -0.00295172537
 -0.00296061356
  0.00401312757
 -0.000702460279
  0.00405718223
  0.00325253368
  0.00215366856
  0.000999782529
 -0.00417327587
 -0.0190047453
 -0.0173617305
 -0.030997159
 -0.0360966958
 -0.0509324147
 -0.0358459883
 -0.0105532521
  0.00452956517
  0.0714829629
  0.100694359
  0.0731072237
  0.0142086882
  0.00191642938
 -0.0212779096
 -0.0229202119
 -0.0361214502
 -0.0351715103
 -0.0211696571
 -0.0099744655
 -0.00503678512
  0.0028677184
  0.00318958977
  0.00205852491
  0.00411896781
  0.00299085425
 -0.00285579846
  0.00135788143
 -0.00446117558
 -0.0115010976
 -0.0187897182
 -0.0287168391
 -0.0441845901
 -0.0313164245
 -0.04026262
 -0.0152260955
  0.0132673717
  0.0697641239
  0.0809008333
  0.0488046865
 -0.00116438209
 -0.0114095599
 -0.00908134546
 -0.0104988156
 -0.0274015376
 -0.0300789649
 -0.0225470237
 -0.013961314
 -0.00947453747
 -0.001995468
 -0.00235297546
  0.00123856603
 -0.00353657013
 -0.00337524872
 -0.0009147724
 -0.00608833836
 -0.00264883938
 -0.0154621942
 -0.0343374269
 -0.0361729251
 -0.0529310207
 -0.0374553808
 -0.0371222249
 -0.0158952019
  0.0187770136
  0.0640352147
  0.0506873709
  0.00986328243
 -0.029290164
 -0.0180491126
 -0.0138748087
 -0.00757874677
 -0.0112322443
 -0.0119241682
 -0.0208259346
 -0.0144330756
 -0.0107587987
 -0.00248713903
 -7.10060213E-05
  0.000567667082
 -0.00127573273
  0.00178788161
 -0.0024056301
 -0.00060043996
 -0.000912503349
 -0.0137408816
 -0.0321168615
 -0.0395438833
 -0.0493295215
 -0.0386604501
 -0.0309445241
 -0.0137571384
  0.0123270689
  0.043900485
  0.0217759061
 -0.00755387716
 -0.00995294476
 -0.00620388088
 -0.00109619402
  0.00173595049
  0.00779461796
 -0.00169180547
 -0.00986296905
 -0.0124917148
 -0.013763812
  0.000794132206
  0.000540795053
  0.00212610515
  0.00171082536
 -0.00374207381
 -0.00151809086
 -0.00377677074
  0.00103159805
 -0.00992853827
 -0.0292779794
 -0.0449126716
 -0.0398449936
 -0.0248743848
 -0.0151951591
  0.00268211131
  0.0131905157
  0.0345640191
  0.0184657161
 -0.00810276813
 -0.0115403679
 -0.00220034587
  0.0136047057
  0.0207838173
  0.0177318944
  0.011299481
  0.000281644391
 -0.00441722781
 -0.00762450818
 -0.00352413542
  0.00380432357
  0.00172481318
  0.00148186032
  0.000133255537
 -0.000360944764
 -0.00101917766
 -0.00113787889
 -0.00597409343
 -0.019857471
 -0.0472839775
 -0.0416635074
 -0.0106319374
  0.0150480898
  0.0223977779
  0.027278388
  0.0275084437
  0.0149751949
 -0.0161785909
 -0.0137814698
  0.000764773781
  0.0123083896
  0.0189326249
  0.0196345474
  0.0238535982
  0.0197383514
 -0.0061612813
 -0.00623023615
 -0.00181216359
 -0.00200172411
  0.00386053341
 -0.00112443573
 -0.0024092635
  0.0013734835
 -0.00385443878
  0.00051516764
 -0.00890986105
 -0.00898275903
 -0.0271146738
 -0.0235331248
 -0.00121400156
  0.0253450082
  0.0278041037
  0.0360930107
  0.0282989946
  0.0185139406
  0.0047955237
  0.0216271973
  0.0127210111
  0.0193813518
  0.02296966
  0.0132495349
  0.0256929679
  0.0174592752
 -0.00456513531
 -0.0071055138
 -0.00195411061
 -0.00195026106
 -0.000914074239
  0.000445588641
  0.000259877921
 -0.00126540367
  0.003533016
  0.00284895382
  0.00236614683
  0.0175196053
  0.0203208854
  0.00281216378
  0.00432809248
  0.0234883779
  0.0178574443
  0.0231468679
  0.0134758059
  0.0129006643
  0.0196576921
  0.0218429419
  0.0231940049
  0.0259175228
  0.0148385013
  0.0139236927
  0.0182874506
  0.00306678298
 -0.00975461229
 -0.00327337985
 -0.00320132062
 -0.00204787099
 -0.00183934691
 -0.000943568199
  0.000213731036
  0.00145844169
  0.00371388404
 -0.00248359112
  0.010735971
  0.0286555773
  0.028190412
  0.0208796628
  0.024384086
  0.0123515258
 -0.00229275894
 -0.00566162001
 -0.00121805213
  0.0108970206
  0.0189949725
  0.0160112509
  0.0174919405
  0.00581872121
  0.000997278749
  0.00372006631
 -0.00284402141
 -0.00563089836
 -0.000789025006
  0.00162963432
  0.00376286072
 -0.00393703889
  0.0038883554
 -0.00365032318
 -0.00177304676
 -0.00216285473
 -0.00038202816
  0.00412128641
  0.0149743532
  0.0163668392
  0.0310725541
  0.0299429185
  0.0180682605
  0.0109155595
  0.00376042827
 -0.0100326931
 -0.00721698408
 -0.00815585501
  0.0071219197
  0.00439713595
 -0.006601401
 -0.0136747329
 -0.00955491253
  0.00342609103
  0.00327852077
  0.00815140126
 -0.00216700487
 -0.00207387792
 -0.00284177073
  0.00216910541
 -0.00376971467
 -0.00329077329
  0.00244392965
 -0.00409322233
 -0.00272923332
 -0.00245639065
  0.00161304103
  0.0093222684
  0.0219327485
  0.0187774329
  0.0146577912
  0.00948141275
  0.00315938645
  0.00675606319
  0.000109989105
 -0.0152581578
 -0.00493171541
 -0.0156938876
 -0.0225624756
 -0.011742915
  0.00339393445
  0.0124659889
  0.0120045248
  0.00635896477
  0.00259509937
  0.00026217801
  0.0022607324
 -0.000250930369
  0.00240016319
  0.00363082476
 -0.00229368817
  0.00284231148
 -0.00387181143
 -0.00543166722
  0.000412265219
 -0.00185335858
  0.000273401858
  0.00701487533
  0.0203952882
  0.0136296755
  0.00203956748
 -0.0111531136
 -0.0130361312
 -0.00819253053
  0.006691979
 -0.00548799457
  0.00133823261
  0.00608716434
  0.0103954409
  0.010809028
  0.00129468996
  0.00432935306
 -0.000160003968
  0.000220473646
  0.00269919785
  0.00121986005
 -0.00372921137
  0.000748067162
 -0.00324293316
  0.00288281484
  0.000167029339
 -0.00132475837
  0.00151326323
 -0.000423506001
 -0.00978186031
 -0.0153508037
 -0.0301116289
 -0.0256709804
 -0.00392702476
 -0.00843063095
 -0.0281581323
 -0.0229120149
 -0.00940539486
 -0.00917176865
 -0.000199153882
  0.00659898148
 -0.000108376012
  0.00266540371
 -0.00280285311
  0.00408033576
  0.00014341941
 -0.00146691677
  0.00379875687
  0.00258664763
  0.00296542022
  0.00228609163
 -0.00040535516
  0.00344807188
 -0.00117770405
  0.000563575022
  0.00202835934
 -0.000835376779
 -0.00989105734
 -0.022238779
 -0.0114718167
 -0.00409422019
  0.00319584442
 -0.0160929107
 -0.0235443583
 -0.0140830096
 -0.00423018233
 -0.00389690929
 -0.000882504066
 -0.0015532465
 -0.000960084052
  0.00288810941
  0.00412137836
  0.00243628277
  0.00121686456
 -0.00289333809
  0.00230475543
 -0.002851579
 -0.000148391639
  0.00189164921
  0.0039469316
 -0.00139483476
 -3.41220033E-05
 -0.000670286397
 -0.00366941454
 -0.000981327303
  0.000527495286
  0.00353371397
  0.00198936157
  0.00334396787
 -0.000619178832
 -0.00272609561
 -0.00280359545
 -0.000936402324
 -0.000899927763
  0.00333103696
  0.00413732836
 -0.00224444086
 -0.00359062172
  0.000134535373
  0.000596104637
 -0.000338842621
 -0.00118921805
  0.000505619909
 -0.00211442295
 -0.00418421665
  0.00182414479
 -0.00402153054
 -0.00282393261
 -0.00253611007
  0.0020819817
 -0.00308886385
  0.000280918137
 -0.00216400327
  0.000452712842
  0.002334155
 -0.00337582945
  0.000346001466
  0.0022945524
  0.00282539546
 -0.000521893754
 -0.0025364894
 -0.00411256322
  0.000886373757
  0.000738971242
 -0.000800627786
  5.54812993E-06
  0.00066443651
  0.00116679432
  0.000626789561
 -0.00341289115
 -0.00244896388
 -0.00392391631
 -0.00039024592
  0.00226851887
 -0.00182647626
 -0.000362599664
 -0.000119199438
 -0.00163614352
  0.00102533106
  0.00155655371
 -0.00376602475
  0.0021483303
 -0.00237439137
 -0.00171816496
 -0.0016108202
  0.00417162685
 -0.000882131321
  0.00294704411
  0.00225431615
 -0.00226859895
 -0.00178671273
  0.00392968972
 -0.0021692991
  0.00331152411
  0.000456798374
  0.00124193608
 -0.000894790848
 -0.00309062858
 -0.00180313244
  0.0039438613
 -0.00229165658
 -4.02332307E-05
 -0.00419191794
  0.00152996034
 -0.00198357746
 -0.00180653111
 -0.00304450216
  0.0021090862
  0.000769188717
  0.00219269175
 -0.000546223434
  0.0012150269
  0.000129158959
  0.00129124816
  0.00370872503
  0.0027302016
  0.00120580638
 -0.00449318147
 -0.00731546542
 -0.00808784682
 -0.00346451499
  0.00219537878
 -0.00133900553
  0.00260055863
  0.002990194
  0.00367995358
 -0.000369368131
 -0.00211645994
 -0.00362253816
  0.00203936252
 -0.0023844616
 -0.0017023317
 -0.00221273367
 -0.00236451645
  0.00403949198
  1.5551835E-05
  4.08156589E-05
 -0.00321687339
 -0.00208722506
 -0.0034018589
  0.003165092
  0.00135816897
  0.00158453901
 -0.000271620865
 -0.0013139698
 -0.00428323374
 -0.011918959
 -0.00793411612
 -0.0130305698
  0.000487182924
 -0.00103125436
  0.000694618336
  0.0029792313
  0.00242543303
 -0.000916685877
  0.00175756271
  0.00189352352
  0.00292580908
  0.00385296536
  0.0024828484
  0.000753309016
 -0.00274335908
 -0.00343134646
  0.00275243831
 -0.00089601244
 -0.00360371763
 -0.0014438727
  0.00302912115
 -0.00295778971
  0.000564082169
  0.00847649247
  0.00591993437
 -0.00310227538
 -0.00638190671
 -0.0124957741
 -0.0092844249
 -0.00630862054
  0.00124014046
  0.000186117198
 -0.00226942048
  0.00123401527
 -0.00355427275
 -0.00409075284
 -0.000624823615
  0.00245350256
 -0.000795575473
 -0.00307912425
  0.000135162989
 -0.00208162948
 -0.00324869365
 -0.000405303871
  0.00346703006
 -0.00149086179
 -0.00055920816
  0.00305740633
  0.00157249486
  0.00129943321
  0.00552145061
  0.0113586419
  0.0110914696
  0.00180179342
 -0.017201772
 -0.0189987787
  0.00167961523
  0.00683134333
  0.00701479031
  0.00280637656
 -0.00299578927
  0.00317315337
 -0.00306214572
 -0.0030697213
 -0.000424116123
 -0.00373269364
 -0.00294861102
  0.0031629231
  0.00293267219
  0.000467676726
 -0.00197157738
  0.0026090417
  0.00546934929
 -0.000754362662
  0.00520909101
  0.00594385849
 -0.000447788279
 -0.00400562831
  0.00512817078
  0.00350529051
  0.00249948368
 -0.0176352574
 -0.0292099498
 -0.0228019222
 -0.00812628331
  0.00145440572
  0.0117552346
  0.0051444638
 -0.00154010211
 -0.000178286015
  0.0012381228
 -6.47829703E-05
 -0.00357385502
 -0.00209216566
 -0.00196861784
 -0.000176772206
 -0.00161299627
 -0.000705365893
  0.00402087375
  0.00243466426
  0.00766160284
  0.000998834991
  0.0011917683
  0.00177592001
 -0.00134060837
  0.00146996808
  0.0022763799
 -0.000437111391
 -0.0136528021
 -0.0120130354
 -0.0139532414
 -0.00636402078
 -0.00843923934
 -0.00610232403
 -0.0125971093
 -0.00466400114
  0.00107478596
  0.0018830107
  0.00633479642
  0.000239551686
 -0.000175644003
  0.00340873086
 -0.00298987542
 -0.00265953713
 -0.00289529776
 -0.000746630423
  0.00537481314
  0.00332133089
  0.000136050656
 -0.00713639694
 -0.00511569344
 -0.00456673036
 -0.00440937376
 -0.00897058734
 -0.0152622028
 -0.0223301812
 -0.0226264208
 -0.0105213981
  0.000102485561
  0.00918312273
  0.00879568388
 -0.00530408939
 -0.0149017609
 -0.0177916254
 -0.0017995021
  0.00558670196
  0.0070867997
  0.0046384798
  0.00367425629
 -1.00569269E-06
  0.000797884348
  0.00123878294
 -0.00163371161
  0.00201987227
  0.00458448246
  0.00317081047
 -0.00404753937
 -0.0049472019
 -0.00901204645
 -0.00462850668
 -0.0112500102
 -0.0188278962
 -0.0314345798
 -0.0370095141
 -0.0138809926
  0.00474359745
  0.0209499117
  0.0200957208
  0.00317664206
 -0.00995604562
 -0.0158862932
 -0.025314592
 -0.00810278806
 -0.00376728583
  0.00477403963
  0.00566182741
  0.00270025978
  0.0021234561
  0.00037183617
 -0.00284743196
 -0.002185133
 -0.00304214257
  0.00394020006
  0.00394974573
  0.00498926885
 -0.000429618681
 -0.005780205
 -0.014495596
 -0.019246692
 -0.0289101114
 -0.0492249882
 -0.0355603336
  0.000875470483
  0.0329385886
  0.0450687355
  0.0312363268
 -0.00230828903
 -0.0213272918
 -0.0247752441
 -0.0223373618
 -0.00792773712
 -0.00474836048
 -0.00159903379
  0.00188259155
  0.00191945815
  0.000851758949
  0.0012262532
 -0.000861774203
 -0.00123664829
 -0.00261377384
  0.000971481727
  0.00188394496
 -0.00333474307
 -0.00410397853
 -0.00573008654
 -0.0121794378
 -0.0201250613
 -0.0254834438
 -0.041625596
 -0.0312003372
  0.019232148
  0.0418693162
  0.0575421652
  0.0229283092
 -0.014474816
 -0.0333945524
 -0.0335227121
 -0.0241745452
 -0.0115039563
 -0.0103254893
 -0.00180058981
 -0.00216659424
  0.00122819078
 -0.00141428334
 -0.00411336792
 -0.00106421417
  0.00364933895
  0.00132474832
  0.00290706741
 -0.000950975183
 -0.000513584378
 -0.00524675301
  0.000267448468
 -0.00784118337
 -0.0114358269
 -0.0285533757
 -0.029575684
 -0.0118748307
  0.0237508362
  0.0537201113
  0.0493804135
  0.0063819004
 -0.0135819003
 -0.0274643415
 -0.0193596683
 -0.0156630823
 -0.00774442282
 -0.00747115298
 -0.00723136464
 -0.00137262602
 -0.00120904622
  0.00222713333
  0.00359445916
 -0.0041927187
 -0.00339901304
  0.00369295428
 -0.000423876916
 -0.00324893727
 -0.0030964227
 -0.0073002195
 -0.0070816184
 -0.00640695609
 -0.0110120017
 -0.0199296209
 -0.0150749521
 -0.0101744574
  0.0263472649
  0.0346738316
  0.0268357673
 -0.00201098425
 -0.0157731141
 -0.0147108958
 -0.0153541702
 -0.0190886224
 -0.0170375661
 -0.00791710097
 -0.00322766113
 -0.00370929526
  0.000600850422
 -0.000350211769
  0.00386663083
  0.00360366705
 -0.00233494153
  0.0032492269
  0.00424400404
 -0.000840031324
 -0.000610694656
 -0.00512680004
 -0.00355423629
 -0.0052455269
 -0.00836828021
 -0.0149294727
 -0.00324323518
  0.00203307877
  0.0319318851
  0.028780322
  0.0141623556
 -0.00890979001
 -0.00723125905
 -0.00434884272
 -0.00920854542
 -0.0220479881
 -0.0166688259
 -0.00572074948
 -0.00252245752
 -0.00853008946
  0.0027552764
  0.00397773402
 -0.000145015564
 -0.000344290835
 -0.000584340844
 -0.000490247824
 -0.000366456043
  0.00197073406
 -0.0033358009
 -0.0049052398
  0.00238024431
 -0.00885399053
 -0.0112541766
 -0.0227551961
 -0.0118445353
  0.00178141053
  0.0344982232
  0.026931948
  0.00437809369
 -0.00320293239
  0.000154407338
 -0.00617108085
 -0.0140719255
 -0.0191922577
 -0.0192123044
 -0.0103424429
 -0.00653558169
 -0.00405812449
  0.00122742688
 -0.00348109084
  0.00396948764
  0.00238052331
 -0.00371521979
 -0.000387391018
 -0.00217563037
  0.000165884114
  0.00145395917
 -0.00250958889
 -0.0076787093
 -0.0154629524
 -0.0183467127
 -0.0345484912
 -0.0194808315
 -0.0015407129
  0.0254177747
  0.0266573427
 -0.00439097337
 -0.00980384035
 -8.25051426E-05
  0.00218658535
 -0.014749239
 -0.0192585955
 -0.00790128635
 -0.00483295899
 -0.00114833525
 -0.000472882933
  0.00167162343
 -0.00261855666
  0.00198398465
  0.000785424905
 -0.00188778435
  0.0017416092
 -0.00104591438
 -0.00164524407
 -0.00518349393
 -0.00350252376
 -0.0106716834
 -0.0278399584
 -0.0337090103
 -0.0374405741
 -0.022022501
 -0.00598075019
  0.0235616816
  0.0171531344
 -0.00471976411
 -0.00935911716
 -0.00330579315
  0.0021809794
 -0.00419918372
 -0.00777022058
 -0.00782084723
 -0.0024101414
 -0.00450159582
 -0.000800382568
  0.000906033217
  0.00393503149
  0.001802248
 -0.00163420644
 -0.00289538801
 -0.000425630436
  0.00336308155
 -0.000987029327
 -0.00463416858
 -0.00763408388
 -0.01760963
 -0.0294030634
 -0.0322899898
 -0.0314674162
 -0.0109362824
  0.0125358638
  0.030646369
  0.0158250199
 -0.0130112856
 -0.015636243
 -0.011313694
 -0.00544009205
 -0.0101604035
  0.00227509813
 -0.000849371629
 -0.00432513325
 -0.00249779967
 -0.00372348241
 -0.00136420356
 -0.00279981218
 -0.000974491115
  0.0037536925
 -0.00307664366
 -0.00338410633
 -0.00209237679
 -0.00205460534
 -0.000905391731
 -0.00965481249
 -0.0126821606
 -0.0213825331
 -0.0304442354
 -0.0187113464
 -0.00537476026
  0.0180417877
  0.0169055426
  0.0016892124
 -0.0112930413
 -0.0099534043
 -0.0113630788
  0.0018323167
  0.0035398285
  0.00497774162
  0.00561670013
 -0.00148060428
 -0.00709630382
 -0.00272937395
  0.000457986327
 -0.00288653121
  0.00363430578
  0.00330564611
 -0.0014744803
 -0.00155204843
  0.00284747551
 -0.000135303407
 -0.000763820617
 -0.00780676928
 -0.0013268364
 -0.0086742383
 -0.0185151442
 -0.0154726871
  0.000175733496
  0.0078467987
 -0.00308513523
 -0.00954966195
 -0.0114761682
 -0.0140418546
  0.000119505588
  0.00696190963
  0.006687601
  0.000200914899
 -0.000654358414
 -0.000817255994
 -0.00559964671
 -0.00515494448
 -0.000711318207
  0.00211901057
 -0.000116682696
  0.00395853146
  0.00344434283
 -0.000694239758
  0.00305231448
 -0.00193232337
  0.00308844835
  0.00158026907
 -0.000536827843
 -0.0115393562
 -0.00292037881
 -0.00528416563
 -0.00444249993
 -0.0119334184
 -0.0146962716
 -0.0150887656
 -0.0041525424
  0.000778415409
  0.00251027598
  0.000500204492
  0.000648624434
 -0.00242350097
 -0.00724297264
 -0.0052290917
 -0.00278383494
 -0.00504203448
  0.000714776877
 -0.00288675238
 -0.000296607043
 -0.0042084043
  0.00344412141
  0.0037985736
  0.00396199038
  0.00303064577
 -0.000208733674
  0.00440540587
 -0.00656122782
 -0.0141554761
  0.00116414665
  0.00767812859
  0.00488715815
 -0.00839612111
 -0.0139848598
 -0.00854413358
  0.000436594546
 -0.00597180267
 -0.00613955067
 -0.00923202766
 -6.69234821E-05
 -0.0034678537
 -0.000608479046
  0.00236266904
 -0.00342667173
  0.00300462466
  0.000288885854
  0.00260372934
 -0.00243007564
 -0.00320820017
  0.00392884018
  0.00148518066
 -0.00320474138
  0.00356711529
  0.00187664938
 -0.00325498704
 -0.000269178791
 -0.0015599808
  0.0101400908
  0.0106598437
 -0.000764182466
 -0.00769290184
 -0.00477705259
  0.00081970453
  0.0103923091
  0.00125641277
  0.00326178363
 -0.00407831545
  0.0018060377
  0.0042980024
 -0.00125101865
  0.00129916227
 -0.00188682664
  0.00349755015
  0.00165610875
  0.00059182379
  0.00229031172
 -0.00226686849
 -0.00101630996
  0.00407209942
 -0.0012632055
 -0.00121032249
  0.00151100247
  7.17338473E-05
 -0.0055612805
 -0.0093618301
  0.00235548483
  0.00831439169
 -0.00318611841
 -0.00751461064
 -0.000775586423
  0.00322852655
  0.00928290376
 -0.000629906513
  0.00515046964
  0.00419629883
  0.00467626061
  0.000895419037
  0.00327065799
  0.00085149026
 -0.00248848443
 -0.00394612835
 -0.0009068087
  0.00171567257
  0.00376328499
 -0.00346256316
 -0.00190436673
  0.00184173361
 -0.00151756843
  0.00129118641
  0.00170196995
  0.00116104199
  0.00140388814
 -0.00831447833
 -0.0104675492
 -0.00746963203
 -0.000958654638
 -0.000705011965
 -0.00717782203
  0.000256679322
 -0.00338121485
  0.00208362722
 -0.00110982633
 -0.00212756294
  0.0038579472
 -0.00385792367
  0.00282367429
  0.00226371785
 -0.000240797375
  0.00154949679
 -0.000981260587
  0.00203956637
  0.00181523163
  0.0023237938
 -0.000456624148
  0.00136665352
  0.00307309361
  0.00185087221
 -0.00103620328
 -0.00397471833
 -0.00521297619
 -0.00814638687
  8.92958331E-05
 -0.00159016454
 -4.56222295E-05
  0.00221221118
 -0.00333636872
 -0.00537449177
  0.00101157901
  0.00187978798
 -0.00393915687
  0.0031616249
  0.000158696098
 -0.00137566334
  0.00415157475
 -0.000337684041
 -0.00104686484
  0.00276338595
 -0.00228582916
  0.00292420088
  0.000101019647
  0.000944773222
  0.000751904159
 -0.00229561156
 -0.000943295813
 -0.0039165828
  0.00252568763
 -0.00352864661
  0.00118358699
 -0.00209719551
 -0.000526539874
 -0.00313551484
 -0.00123394
 -0.00175178864
 -1.60243047E-06
  0.00251194068
 -0.00180203235
 -0.00343779729
  0.00329879003
  0.00403575691
  0.00267909203
  0.00350827637
  0.00297498258
 -0.00137407496
 -0.00207925006
  0.00291469425
  0.00250010434
  0.00108574844
  0.0014662171
 -0.00399758804
 -0.000201913771
 -0.00264462597
  0.00115904853
 -0.00366187245
 -0.000728374314
 -0.00399611039
 -0.00336659219
 -0.0016573326
 -0.00186631233
  0.00299142363
  0.000622096496
  0.00181901088
  0.00406777188
  0.00360001984
 -0.00414464079
 -0.000145693641
  0.00190009743
 -0.0017348101
  0.000628372159
  0.000987024366
 -0.00191091603
 -0.000904398903
  0.000283437138
 -0.00314779654
  0.00193338922
  0.00241605042
  0.0039787608
  0.000221630469
 -0.000710064481
  0.00123311531
  0.000435905272
  0.00329988459
  0.00280035206
 -0.00261690917
  0.00384987548
 -0.00213988522
 -0.00240115645
 -0.00372857986
  0.000414645139
 -5.56058185E-05
  0.00347470692
 -0.0031751212
 -0.0024484579
  0.00333061571
 -0.00378696464
 -0.00238123553
 -0.00102694128
  0.00232499582
  9.58174592E-05
  0.00381329397
 -0.000899843161
  0.00239676452
 -0.00130296802
  0.00359545732
  0.00346083107
 -0.00358144189
  0.00179964465
  0.00322772877
  0.00085205167
 -0.00312228318
  0.000248980992
 -0.00292390602
 -0.00403426154
 -0.00116252979
 -0.0013289521
  0.00402747689
  0.000909447953
  0.000481754415
 -0.003912966
 -0.00293857844
 -0.00658178526
 -0.00455946687
 -0.00900431247
 -0.00618615908
  0.000933404624
 -0.00213877914
 -0.000191681613
 -0.002346448
 -0.00331299675
  0.00411599894
 -0.00274501724
 -9.76822334E-07
  0.00230090036
  0.0001638777
 -0.000617382594
  0.00154986834
  0.000794298901
 -0.00302960129
  0.000565734525
 -0.00256551252
 -0.00194002137
 -0.00339714782
 -0.00127755558
 -0.00179235389
 -0.000639670321
  0.00102164407
 -0.00291422294
 -0.00724792256
 -0.0120389552
 -0.0156664298
 -0.012966605
 -0.00825346357
 -0.00466976403
 -0.000440401121
  0.00049094975
 -0.00340567494
  0.00282043227
 -0.00391259492
 -0.00154025978
  0.00371929861
 -0.00400845904
 -7.34140603E-05
 -0.000493541304
  0.00250430435
 -0.00412139928
  0.00310093919
 -0.000157690154
  0.000884763042
 -0.00414052523
 -0.00380381878
  0.00209707166
 -0.00259206706
 -0.00476129639
 -0.0061548381
 -0.00889003195
 -0.0133995625
 -0.0188919557
 -0.0220166619
 -0.0163968851
 -0.00769144735
 -0.00840763989
 -0.000847504494
 -0.00220760645
  0.00410643032
  0.00416625826
  0.00373836911
 -8.20721556E-05
 -0.0022462902
  0.00403763725
  0.00258953115
 -0.00273885468
 -0.00418268493
 -0.00140335223
  0.00147341142
  0.00156383034
 -0.0043813791
 -0.00383003356
 -0.0058368637
 -0.00132120777
 -0.00985773563
 -0.0136237784
 -0.0140993418
 -0.0203934385
 -0.0428781043
 -0.0539790245
 -0.0559979381
 -0.0369754661
 -0.0132964639
 -0.015907031
 -0.0115348141
  0.00606475239
  0.00820861129
  0.00638384135
 -0.00273094432
  0.00180742107
 -0.00385002404
 -0.00320443836
 -0.0024865143
 -0.0018844512
 -0.00337866421
 -0.00131527015
  0.00553018503
 -0.00404512285
 -0.0114793142
 -0.0160550473
 -0.00412576845
 -0.00994333973
 -0.0158857286
 -0.023378771
 -0.0221036141
 -0.0404401574
 -0.0555889855
 -0.0729832405
 -0.061900868
 -0.0438738093
 -0.0218492563
 -0.0126999567
 -0.0057813534
  0.0188603475
  0.0182784282
  0.0105212985
  0.000386472352
  0.000955753734
 -0.000292732892
  0.00238183478
 -0.00111138331
  6.91061006E-05
  0.00338925969
 -0.00202131381
  0.00816447268
  0.00064054114
 -0.00821175839
 -0.0115863852
 -0.00820994258
 -0.00691853919
 -0.011709821
 -0.0179129719
 -0.0300687851
 -0.0493242639
 -0.0624226296
 -0.0500944361
 -0.0394135091
 -0.0188241952
 -0.000953663605
 -0.00625653813
 -0.00367875807
  0.0145431645
  0.019312433
  0.00538739288
 -0.00543046943
 -0.00526724404
  0.000761761755
  0.00284804639
  0.00301566469
 -0.00374283398
  0.00101801808
 -0.00548023996
  0.00451339698
  0.00699214887
  0.00737807627
  0.00781186251
  0.00622043304
  0.00612890518
 -0.000216941295
 -0.0079548549
 -0.0223107739
 -0.0307240426
 -0.0351997837
 -0.0294145915
 -0.0151260447
  0.00498724475
  0.0124485448
  0.00975614688
  0.000596380848
  0.00859479015
  0.0106411228
  0.00408862434
 -0.00278168201
 -0.00527918683
 -0.00418814554
  0.00247936437
 -0.000569107085
  0.00167079024
  0.00111554717
 -0.00409425781
  0.00645930205
  0.00634267074
  0.00992574636
  0.0134975139
  0.0146339294
  0.0183151376
  0.00766989411
 -0.00111732762
  0.00288718064
 -0.00528991964
 -0.0148641038
 -0.0280801357
 -0.0179448431
  0.0147761128
  0.0138211543
  0.0256341515
  0.0146216485
  0.0127483804
  0.00755107351
  0.00704317323
  0.00176086144
  0.00195292277
 -0.00287919676
 -0.00138415524
 -0.00420445985
 -0.00275332803
 -0.00311665396
 -0.00327018594
  0.00746035369
  0.016674571
  0.017001645
  0.0210423146
  0.0175218945
  0.0176132685
  0.0199374894
  0.00641808005
  0.010831139
 -0.00455129998
 -0.0271889328
 -0.040176052
 -0.00351157411
  0.0148446352
  0.0130512429
  0.0224838612
  0.0259077669
  0.00910505894
 -0.000469601211
  0.00392250701
  0.00103911166
  0.000379929411
  0.00338379139
 -0.000781522135
 -0.00153281751
 -0.00370726855
  0.00204618597
  0.00152238627
  0.00602471485
  0.0167547859
  0.0173160569
  0.027763673
  0.0204428782
  0.0360532842
  0.0171406046
  0.00805246761
  0.00981880643
 -0.00322322949
 -0.0345787325
 -0.0408633401
  0.0111624453
  0.0239853995
  0.0178643171
  0.0275951449
  0.0212015096
  0.0113056629
  0.00273296456
 -0.00462823357
  0.00122809794
  0.00402513864
 -0.00318990722
 -0.000778427986
  0.000193205466
 -0.004017979
  0.00265191322
  0.00691058668
  0.00658093638
  0.0118904766
  0.0119179985
  0.0187378779
  0.0196153763
  0.0362632358
  0.0157683528
  0.000363900078
 -0.000470364938
 -0.0248333471
 -0.0369760663
 -0.0218552371
  0.0253119049
  0.0188828634
  0.0234977002
  0.0302654105
  0.00504471029
  0.0032563075
 -0.00292025313
 -0.00769907967
 -0.0017993971
 -0.00281314313
 -0.000841971647
 -0.000520063876
 -0.00299986733
  0.000179984348
  0.00291337123
  0.00544353711
  0.013895213
  0.0100821479
  0.0143115158
  0.0187379666
  0.017777901
  0.0322522719
  0.0339133016
  0.00521226374
 -0.00557091941
 -0.032364309
 -0.0250421736
 -0.00502833917
  0.0250018957
  0.0227404206
  0.0202298657
  0.0150917735
  0.00246913979
 -0.0114401212
 -0.00478321884
 -0.00506517719
 -0.00496536669
  0.00134797114
  0.000377287898
 -0.00406552446
  0.00274669085
  0.00374717884
 -0.000373725296
  0.00799702249
  0.0140084972
  0.00574374811
  0.0104800699
  0.0127973831
  0.0260192149
  0.0239461201
  0.0156552315
  0.0129755265
  0.0143263627
 -0.00642414221
 -0.00302470617
  0.0130181516
  0.0384290376
  0.0309494479
  0.0204339348
  0.0180966228
  0.00579658279
 -0.00894469194
 -0.000943249346
  0.00307691869
 -0.00319680884
 -0.000761103674
  0.00302143926
 -0.00225182916
 -0.00278969337
 -0.000813135932
 -0.00210549046
  0.00797861165
  0.0129899789
  0.0130960584
  0.0198023419
  0.029822325
  0.0288325786
  0.0284944584
  0.0165714501
  0.0259399883
  0.0237839741
  0.00852129326
  0.0152820653
  0.04113352
  0.0584978013
  0.0505274679
  0.043105101
  0.016695152
 -0.00893609424
 -0.0132759341
 -0.00114049763
  0.000270132569
 -0.00651617717
 -0.00238175297
 -0.00362084334
  0.00103733561
 -0.00309253516
  0.0036124592
  0.00299736941
 -0.00167036544
  0.00695108021
  0.00663662761
  0.0162967616
  0.0269387144
  0.0236500509
  0.0158179985
  0.0101833552
  0.0142959113
  0.012108878
  0.00292758455
  0.0202982966
  0.0332337577
  0.0511064177
  0.0486241806
  0.0223128254
 -0.00511183478
 -0.0220431626
 -0.0252201195
 -0.00163680353
 -0.00120636509
 -0.00610051612
 -0.00350113704
  0.00372597344
 -0.00277436986
  0.00175585509
 -0.00410673318
  0.00247482846
  0.00287518302
  0.00338407958
  0.00314662523
  0.00987578343
  0.00394608762
 -0.00896584188
 -0.0157842653
 -0.0102228711
 -0.00947961459
  0.00107193266
  0.00997800954
  0.014672797
  0.0336570062
  0.0366143307
  0.0249779158
  0.00409100912
 -0.0219119979
 -0.0278430736
 -0.0222890093
 -0.00784041885
 -0.00820112459
 -0.00623110057
  0.00416510717
 -0.000247108435
  0.00325978843
 -0.00354789321
 -0.000732998341
 -0.00372644443
  0.00241982516
 -0.00147874982
 -0.00182942224
 -0.00602067743
 -0.016717581
 -0.0162850067
 -0.00902099157
 -0.0153614444
 -0.0147414126
 -0.00405768632
  0.0109035281
  0.0149888739
  0.0157891463
  0.00892249324
  0.002116214
 -0.0115697303
 -0.0220274789
 -0.0128032494
 -0.0153789184
 -0.0151798701
 -0.0117131382
 -0.00457504236
  0.00197577392
  0.000204193274
 -0.000426735795
  0.0019290175
  0.00416894768
 -0.00137881021
  0.00259298756
 -0.0011623609
 -0.00769396481
 -0.0145771496
 -0.0208881853
 -0.0272192401
 -0.027843175
 -0.0278555967
 -0.0183461733
 -0.00164505553
  0.00015112299
 -0.0144320539
 -0.012701946
 -0.00809497302
 -0.0040846881
 -0.0145814492
 -0.0119307932
 -0.00553865514
 -0.0118335907
 -0.0141722266
 -0.0109021216
 -0.00511602343
  0.00134381531
  0.00348898092
 -0.00222779183
 -0.000892274105
 -0.000518688893
  0.00155733547
 -0.00317511957
 -0.00115515457
 -0.0141897319
 -0.0198159116
 -0.0343593246
 -0.0463369569
 -0.0428008231
 -0.0454998913
 -0.0276370259
 -0.0102758497
 -0.0135576753
 -0.024982407
 -0.0253205095
 -0.0181983515
 -0.00802162043
 -0.00280164457
 -0.00337250743
 -0.00645054347
 -0.00830791902
 -0.00796783893
 -0.00667342133
  0.00104194697
  0.00356219113
  0.00161202647
  0.00345759006
  0.000694143356
  0.00088914481
 -0.00298206486
  0.00401373259
 -0.00447888867
 -0.00775997789
 -0.0260473467
 -0.0383737412
 -0.0477149462
 -0.0586049919
 -0.0480170882
 -0.0251008215
 -0.0187434969
 -0.0230004033
 -0.0298945936
 -0.0225549768
 -0.0139200377
 -0.00442333448
 -0.000101199444
 -0.00138203992
 -0.00366999
 -0.0087090433
 -0.00547831671
  0.00278480755
 -0.00431922739
 -0.00114986826
 -0.00208092103
  0.00200615809
 -0.00179953996
  0.00374296879
  0.00125188456
  0.00310646674
 -0.000158999372
 -0.00285486937
 -0.00859998136
 -0.0254582769
 -0.0413455114
 -0.0373484722
 -0.0310682161
 -0.0216150979
 -0.0243371293
 -0.0295588984
 -0.0204950426
 -0.0145058407
 -0.0140702567
  0.00362752928
  0.00432578279
 -0.00315184287
 -0.0137029139
 -0.00260301841
 -0.000968138142
  0.00119312258
  0.00329483303
  0.0005674316
  0.00195567865
  0.00390691176
  0.00362942644
  0.00408662046
  0.00170120626
 -0.00238197662
  0.00354080027
 -0.00245233521
 -0.00900251276
 -0.0129724874
 -0.0220066832
 -0.0145193085
 -0.0196734399
 -0.0212407674
 -0.0277896268
 -0.027157356
 -0.0170904323
  0.00405773552
  0.00467897665
  0.0158313201
  0.00108811457
 -0.00160404584
 -0.00353318997
 -0.00833161038
 -0.0054753278
 -0.00184097155
 -0.00328964132
 -0.00420127267
 -0.000642116458
 -0.00420667143
  0.000578022252
 -0.0028983009
  0.0039121034
 -4.41440347E-06
 -0.00283355808
  0.00175487516
  0.00113548679
 -0.00809865493
 -0.0076265279
  0.00889983267
  0.00445412619
 -0.0189268479
 -0.00763613702
  0.00186657226
  0.00192426274
 -0.00313646675
  0.0188102582
  0.00841529429
  0.00145215307
 -0.00592961332
 -0.00791115344
  0.000310457999
 -0.0027022831
  0.00147006665
 -0.00366323576
 -0.000959804889
  9.72218139E-05
 -0.00274101393
 -0.000949214488
  0.00366696845
 -0.00273582228
  0.00384067111
 -0.00344319536
 -0.0030355821
  0.000380169606
  0.00470462559
  0.0143226976
  0.0264460399
  0.0197702995
  0.00657626448
  0.0130062018
  0.0255167629
  0.0278245259
  0.0123303528
  0.0071262802
  0.00325719405
 -0.00444230218
 -0.00255217237
 -0.00344886509
  0.00236045414
  0.000379105978
 -0.00191545521
  0.00104952543
  0.00221992076
 -0.00327006916
  0.00159815314
 -0.00295174709
  0.00103901562
  0.00306900205
  0.000310901637
  0.000494121473
 -0.00379814903
  0.0034088901
  0.0112174694
  0.0136859063
  0.010576007
  0.0039884866
  0.00525165202
  0.00865447518
  0.0154238936
  0.0158320825
  0.0040836412
 -0.00287497924
  0.0035477415
  0.00274047169
  0.000115405621
  0.00177756409
 -0.00317703876
  0.00216561587
  0.00260947731
  0.00339527878
 -0.00166714099
 -0.00351784118
  0.000232941122
 -0.00365908332
 -0.00257604731
 -0.00238076896
 -0.00239896732
  0.00267483177
 -0.00229012349
  0.00523643998
  0.00166930104
 -0.00270813971
 -0.00214835641
 -0.00399198406
 -0.00168098973
 -0.00258425353
  0.00343965529
 -0.00180566449
 -0.00157028496
 -0.00342498701
 -0.00342180041
 -0.000768351728
 -0.00310630004
  0.00325991445
 -0.00241939147
  0.00122096867
  0.000825615458
 -0.00138456721
 -0.000825278554
 -0.000776770576
 -0.00220115151
  0.00171944379
 -8.27487262E-05
  0.0022436527
  0.00227222331
  0.00155306718
  0.00407474696
  0.0040851192
  1.60358528E-05
 -0.00366074613
  0.00199705364
  0.00318498909
 -0.0026393334
  0.00406056032
  0.00340486776
 -0.000108459915
 -0.00273555643
  0.00263266046
  0.00229773868
 -9.39782918E-05
  0.00341953641
  0.00308780142
  0.00334953307
 -0.00389862666
  0.00213585279
 -0.00328172149
  0.00153420504
 -0.00125039485
 -0.000454425482
 -0.00350293635
  0.00218469792
  0.0015562861
  0.00242837028
 -0.00210991402
 -0.000411924045
  0.000488730498
  0.00365501612
 -0.000549040177
  0.000361986608
 -0.000540810869
  2.0766575E-06
 -0.00185282285
 -0.00156768512
  0.00157460647
 -0.00200412587
 -0.00237468045
 -0.00274571653
 -0.000527819207
 -0.00395388321
  0.00376388499
  0.00359006534
  0.00367751642
  0.00263982332
  0.00272773532
  0.00399075279
  0.000563813014
  0.00365787704
  0.00131309474
  0.00352528126
 -0.00100841153
  0.00202202173
  0.00149811609
 -0.00366398852
  0.000238528918
  0.00360006503
  0.000135950271
 -0.00348460361
  0.00304321806
  0.00379877344
  0.00108924602
 -0.0017094559
 -0.000503314781
 -0.00226841143
 -0.017152665
 -0.0206540818
 -0.0183435468
 -0.00486465501
 -0.0035289187
  0.00091634119
  0.00302988447
 -0.00203010116
  0.00029454344
  0.0024955378
 -0.00360214093
 -0.00118958433
  0.0022744275
  0.00117353492
 -0.00174357038
 -0.000624340852
  0.000486953088
  0.00145988119
 -0.00281418234
 -0.00222679392
  0.00200775575
  0.00163620979
 -0.00292546808
 -0.00291519762
  0.000669387599
 -0.00680808817
 -0.0112964786
 -0.0251947916
 -0.0380655242
 -0.0353018991
 -0.0287211866
 -0.00734852681
  0.00118533309
 -7.85640303E-05
  0.00220179721
 -0.00331078949
 -0.00337408606
  0.00101981858
 -0.00112902762
  0.0011323206
 -0.000696506709
 -0.000519305464
  0.00415459936
 -0.0026339423
 -0.00355763326
 -0.00180083411
  0.000953579937
  0.00114118305
  0.00387091017
  0.0010915591
  0.00150299019
 -0.000108101977
 -0.00276793918
 -0.0115556978
 -0.0133790603
 -0.034390252
 -0.0488031189
 -0.0379219898
 -0.0134960315
 -0.00680705304
 -0.00159629355
  0.00374506687
  0.000923682321
  0.00343979463
 -0.000221360091
 -0.00359271721
  0.00182127382
  0.000616416817
  0.00163896428
 -0.00351961689
 -0.00246312567
 -0.00316711746
  0.000178887472
 -0.00408203734
 -0.00543817442
 -0.00411802338
 -0.0053207146
 -0.00377771192
 -0.00924842358
 -0.0029865758
 -0.00829061887
 -0.0265240262
 -0.0447927476
 -0.0515608283
 -0.0341109903
 -0.0180085028
  0.00184944466
 -0.00803647628
 -0.00997255652
  0.000682683264
  0.00585400166
 -0.000921345604
 -0.00365855418
  0.00327935801
  0.00150160312
  0.000331948882
  0.00389850371
 -0.000888986399
 -0.00326349733
  0.00225017012
  0.000832917951
 -0.00535483851
 -0.00480520918
 -0.00562141693
 -0.00852167389
 -0.0104977918
 -0.00480108593
 -0.0103278066
 -0.0124047374
 -0.0434002422
 -0.0544499351
 -0.0452142892
 -0.0181028015
  0.000469831729
  0.014973029
  0.000198009665
  0.00480471069
  0.0112658364
  0.00619964667
  0.00583739006
 -0.0029202899
  0.00261310568
 -0.00404925603
 -0.000805279679
  0.00199333815
  0.00166421003
  0.00373853229
  0.000103311359
 -0.00117463881
 -0.00317222785
 -0.00705663405
 -0.00524153914
  0.00235300785
 -0.00365367389
  0.00293899305
  0.00878852737
 -0.0204904676
 -0.0387180211
 -0.0244986909
  0.00293364225
  0.0219712045
  0.0350761994
  0.0388400937
  0.0402200562
  0.0280295668
  0.0141919478
  0.00963586803
  0.00164638421
  0.00172677644
 -0.00328771058
  0.000884785134
 -0.00185508703
 -0.00324865495
  0.00104739254
  0.00155149613
  0.00274527317
 -2.63975296E-05
  0.00791028904
  0.00854723541
  0.0138931515
  0.0176785485
  0.0158613729
  0.0177016809
  0.0124615081
 -0.00578795506
 -0.00479424036
  0.0190875097
  0.0287702097
  0.0451567901
  0.0491094475
  0.040790703
  0.0600829547
  0.0493756576
  0.0217746519
  0.00650199996
  0.00256806228
  0.00409584947
  0.00151550266
  0.00284654714
  0.00317446171
  0.0032673856
  0.00180672493
 -0.00289248829
 -0.0026217478
 -0.000527196603
  0.00996984372
  0.0172584923
  0.0187664187
  0.0225739631
  0.0289673918
  0.0300722492
  0.0242793586
  0.0211088708
  0.0300512868
  0.0180052472
  0.0157383592
  0.028055987
  0.0449603842
  0.0460154484
  0.0662243041
  0.0622982673
  0.0371535712
  0.0143171552
  0.00269440463
 -0.000792729376
  2.51723729E-05
 -0.000471726359
 -0.00285114745
  0.00411621835
 -0.00157312843
 -0.00388854864
  0.00413302684
  0.00603744868
  0.00617219477
  0.0161298424
  0.0212812422
  0.0216305832
  0.0370710887
  0.0408064674
  0.0287488342
  0.0319862482
  0.0302613526
  0.00953717969
 -0.00735576961
  0.0109766243
  0.0335489868
  0.052143957
  0.0643217486
  0.0646091661
  0.0362693413
  0.00967436487
  0.0043261852
 -0.00105591361
  0.00330209631
 -0.0013300316
  0.000530669339
 -0.00202356918
  0.00241010513
  0.00189138461
 -0.000940658376
 -0.000616127044
  0.0134229781
  0.0112394997
  0.0220965484
  0.0277524507
  0.0444741489
  0.0339730479
  0.0310713309
  0.0399284397
  0.0225190082
 -0.0047913893
 -0.0310901956
  0.00258213163
  0.0165349713
  0.0346150472
  0.0491688698
  0.0477297653
  0.0234648965
  0.0125500853
  0.00372028893
  0.000960270595
  0.00230603477
 -0.00291509466
  0.00259156212
  0.00139626748
 -3.32631729E-05
 -0.00108963163
  0.00514614732
  0.00152781501
  0.00823049536
  0.0123707327
  0.0184300992
  0.030666612
  0.0485892614
  0.0268182792
  0.0237383854
  0.0381498223
  0.00422192008
 -0.0357350197
 -0.0452393733
  0.000460185379
  0.0135593056
  0.0372079386
  0.0276236485
  0.0192202648
  0.0126564065
  0.00942955589
  0.00621874149
  0.00221893071
 -0.000908177406
  0.000547440759
  0.00257379756
 -0.00281400573
  0.00184420944
  0.00095349659
  0.00435571103
  0.00177864184
  0.0146151121
  0.0181260583
  0.0274252508
  0.0317569074
  0.038597688
  0.020866456
  0.0166003154
  0.0219767289
 -0.0233814389
 -0.0533921852
 -0.0515132299
 -0.0108446122
  0.00248423358
  0.019332207
  0.0132155467
  0.0167727593
  0.00921691327
  0.0107570271
  0.00309236758
  0.00594934004
 -0.00231318018
  0.00275891682
 -0.00385308247
  0.00099050588
 -0.000905505015
  0.0029325778
  0.00394994892
  0.00109034649
  0.00903107607
  0.0175652096
  0.0261422083
  0.0376185895
  0.0163245156
  0.00455279562
  0.0167478345
  0.00756249741
 -0.0372939984
 -0.0654498215
 -0.038964167
  0.00823086632
  0.00941632268
  0.00442496007
  0.0118692836
  0.0108639182
  0.00532638138
  0.0107293759
  0.006256734
  0.000574983957
 -0.00492266498
  0.00407215013
  0.00273920213
 -0.00187642424
  0.00261920386
  0.00309798287
  0.004799139
  0.00185551987
  0.0126263339
  0.0260513837
  0.0326814546
  0.0396113069
  0.0140021673
 -0.00171693517
  0.00751334073
 -0.00535288638
 -0.0554370795
 -0.0540005589
 -0.00875908229
  0.0319869735
  0.0274038009
  0.024008525
  0.0065743514
  0.000144156801
 -0.00397836332
  0.00685194101
  0.0036688872
 -0.00142885337
 -0.00243277102
 -0.00212487502
 -0.00147521285
  0.00271191436
 -0.0022645881
 -0.00294787369
 -0.0033763729
 -0.00141560327
  0.00677042764
  0.0309900784
  0.0365429068
  0.0296369659
  0.00580168447
 -0.00209636958
  0.00458087627
 -0.0159487763
 -0.051228994
 -0.0327362509
  0.00196463544
  0.0215198354
  0.026516624
  0.0159821846
 -0.0126627474
 -0.0247201933
 -0.0103432799
  0.00672647222
  0.00112651711
  0.00591353566
  0.00232764235
  0.00176533561
  0.0032180213
  0.000390937804
  0.00385232369
 -0.00246905464
 -0.00110901092
 -0.00206108524
  0.00589245272
  0.0239612154
  0.0282709808
  0.00539464802
 -0.012148113
 -0.0239379244
 -0.023897227
 -0.0322710354
 -0.0495025096
 -0.026720552
  0.00637160818
  0.0131408284
  0.0105964307
  0.000469447598
 -0.026294707
 -0.0246359252
 -0.00344391271
  0.00730748826
  0.00447530925
  0.0040680023
 -0.00163081154
  0.0010992186
 -0.00325601068
 -0.00351503197
 -0.00134730863
  0.00417387371
  0.00108776887
 -0.000860730515
  0.00240967007
  0.0151319715
  0.0257615732
  0.00943310318
 -0.0143110975
 -0.0363603883
 -0.0309683352
 -0.0343616327
 -0.0346897593
 -0.0219062516
 -0.012286632
 -0.00459498624
 -0.0059101937
 -0.00964143637
 -0.0292476168
 -0.0131019698
 -0.00469356897
 -0.00698886747
  0.00216329997
 -0.00255328194
 -0.00354534911
 -0.00111259838
  0.00138431013
 -0.000964297368
  0.00419848331
  0.00234016255
 -0.000267466306
 -0.000708274642
  0.00348418616
 -0.00472962955
  0.0205211018
  0.0213718442
 -0.0192169198
 -0.0502977767
 -0.0508877319
 -0.0510676085
 -0.0324271815
 -0.0330507084
 -0.0252961315
 -0.0316782609
 -0.00943096772
 -0.016209088
 -0.01716273
 -0.00348431935
 -0.00684653389
 -0.00485714827
 -0.000594626096
  0.00263288428
 -0.00337664987
 -0.00390918656
  0.00273907158
 -0.00271013582
 -0.000809921782
 -8.84813754E-05
  0.000537429522
 -0.000708732348
 -0.005766309
 -0.0130099085
  0.000601955824
  0.00288906485
 -0.0138742577
 -0.0504232314
 -0.0626020819
 -0.0529532369
 -0.0316491761
 -0.0313518631
 -0.0256665394
 -0.0126704467
 -0.00116403615
 -0.0019981239
  0.000545391112
 -0.00122915447
  0.00196632714
  0.00176675228
 -0.000134175706
 -4.02923516E-05
 -0.00122986978
 -0.00173358324
 -0.00316644817
 -0.000394656558
 -0.00143090689
  0.00378448637
  0.00110707083
  0.00197151564
 -0.00532681384
 -0.0163937049
 -0.00746386318
  0.00375661639
 -0.00858702439
 -0.0171012752
 -0.0234935715
 -0.0187713154
 -0.020522694
 -0.0200460844
 -0.00575333623
  0.0138535867
  0.00757313255
  0.00781515559
  0.00159085588
  0.0030496181
  0.0073149316
  0.0014067739
  0.0031144035
 -0.000901580145
 -0.00351833743
  0.00397934473
  0.00402520492
 -0.000536343997
 -0.0019661016
 -0.00335310628
  0.00328086279
  0.000717026648
 -0.00468526922
 -0.00297804179
 -0.00717507439
  0.000680099855
  0.0119221546
  0.0196949703
  0.0201013704
  0.0283155224
  0.019258225
  0.0182071295
  0.00933214082
  0.0184621965
  0.0187880543
  0.0193179842
  0.00841899774
 -0.0016145993
 -0.0038574472
 -0.00373255374
 -0.00240969972
  0.00321722147
  0.00331098587
 -0.00234914123
 -0.00138917969
  0.00400451165
 -0.00258165946
 -0.0015758376
 -0.000743695688
 -0.000612446162
 -0.00102413319
 -0.00173863806
 -0.00349571045
  0.00682152453
  0.0195035825
  0.0308994613
  0.0386752779
  0.0321201241
  0.03070533
  0.0239536585
  0.0194253283
  0.0192364348
  0.0154531448
  0.0120971968
  0.00229694756
 -0.00154253644
 -0.00407463078
 -0.00653278633
 -0.00151695178
  0.00344530283
  0.000699336004
 -0.00273977464
  0.00245066121
 -0.000201541217
 -0.000877052899
 -0.00315038144
 -0.000408892908
  0.00105670475
  5.03436992E-05
  0.00336073044
  0.000432554012
  0.0114618917
  0.00645379585
  0.0143209552
  0.0184783375
  0.0318051629
  0.0263215255
  0.0153424999
  0.0042099151
  0.0108999255
  0.00562792609
 -0.00453536232
 -0.00260511413
 -0.00261663384
  0.000585088133
 -0.00172735779
 -0.00326451354
 -0.000414580871
 -9.76450785E-05
 -0.00300270014
 -0.00118114113
 -0.00361017204
 -0.00153061181
 -0.00294234301
  0.000400149708
  0.00180419863
 -0.00188086124
  0.00517004767
  0.00696693242
  0.0172778138
  0.0311858434
  0.0238255612
  0.00896814924
  0.00922291809
  0.0221634896
  0.0231332981
  0.00382660741
  0.00942157921
 -0.00236756691
 -0.00097814097
 -0.00184633554
  0.000754985507
  0.000370110476
  0.00293997966
 -0.00323307713
 -0.00141572058
 -0.00259415443
 -0.00051006243
  0.00238156164
  0.00152006359
  0.000699100522
 -0.00301144284
  0.00212175451
  0.00338035205
 -0.0016495508
  0.00243238024
  0.0129849516
  0.0181863842
  0.00684527722
  0.00631308412
 -0.000296540152
  0.00881151118
  0.0165078687
  0.014251177
  0.00263778396
  0.00306870355
  0.00340113501
 -0.00230389802
  0.00155986502
  0.00345162418
  0.00200137365
  0.00410380309
  2.62313575E-05
 -0.00184037872
  0.00283191966
  0.00100501738
  0.00095576354
 -0.00397409784
 -0.00371690824
 -0.000874537914
  0.00175782882
  0.00119405547
  0.00149820729
  0.00275839225
  0.00314059699
  0.00329167059
  0.00218962496
 -0.00287663131
 -0.000826961068
 -0.00372093986
 -0.00355845763
  0.0015787638
 -0.00236910972
 -0.00126568208
  0.000357834297
 -0.00079403254
 -0.00352582095
 -0.00179502313
  0.000890244394
  0.0022459071
 -0.00255526204
 -0.00132024505
  0.0021378471
  0.00168283216
  0.00105123958
  0.000757904173
 -0.00152401355
 -0.00220485985
  0.000995669406
 -0.00102905886
  0.0011324652
 -0.00145836512
 -0.00404686635
 -0.00275351517
  0.00242121846
  0.000527541299
 -0.00416955533
  0.000398980333
  0.00186277283
 -0.000784653439
  0.000889903472
  0.00251617835
 -0.00341775285
  0.00273265684
 -0.00296136657
  0.00115194491
 -0.00227323892
 -0.00227532449
  0.00356878462
  0.00282886844
  0.00418244595
 -0.00319834051
 -0.0027032397
  0.00210842996
  0.002696355
  0.00255986297
 -0.00134552921
 -0.00303952177
 -0.00385686007
  0.00386200304
  0.000143282338
  0.0014874687
 -0.00180822492
  0.000308279204
  0.00294581649
 -0.00359886973
 -0.00337604265
  0.00298812437
  0.00101197338
  0.00269859333
 -0.00200839241
 -0.00230998624
  0.00100290859
 -0.00121428204
 -0.00378919265
  0.00225340536
  0.00414952571
 -0.00185056845
  0.00418994371
  0.00350644724
 -0.0032335631
  0.00416052657
 -0.00390375642
 -0.00172493971
  0.00205709344
  0.00300446148
 -0.00337693989
 -0.00350029873
  0.00417680293
 -0.00302193684
 -0.00385015866
  0.000108222174
  0.00267739445
 -0.00144652049
 -0.00379536143
  0.001325425
 -0.0052338202
 -0.0162039479
 -0.0107136075
 -0.00993365186
  0.00160752575
  0.00174094444
 -0.00213153993
  0.000741961207
 -0.00303506519
 -0.00170886946
 -0.00121649653
 -0.00309740257
  0.000652424934
 -0.00123841566
 -0.00380281855
  0.00163072493
 -0.00128975218
