  0.00287248133
 -0.000891810769
  0.0023904368
  0.00251997168
  0.00347587322
 -0.00255381947
 -0.00139134817
  0.00226488043
 -0.00187642855
  0.000455712376
 -0.00019085503
  0.00108816173
 -0.00114173448
  0.000113154788
  0.00381854304
  0.00351427327
  0.00114592437
  0.00183481473
 -0.00302624071
  0.000903225145
 -0.00408426719
 -0.00217101589
 -0.00306314851
  0.00256841137
 -0.0028989373
 -0.000836407049
 -0.00312598004
 -0.00330314507
  0.00421282479
 -0.00237898581
  0.000109198926
  0.00286339996
  0.000951109707
 -0.00172227069
  0.00116146548
  0.000205076257
 -5.41839965E-05
  0.00399202373
 -0.00171078972
  0.00254648252
  0.000225829438
  0.00245980312
 -0.000457361746
  0.00326707972
 -0.00173940217
 -0.00120759907
  0.00262984778
  0.00353818107
 -0.00363290568
  0.0037940333
  0.000219500057
 -0.00349526676
 -0.0025988885
  0.00137825733
  0.00329505103
 -0.00127591976
 -0.00368005557
 -0.0040528353
 -0.000357158547
 -0.00368913675
 -0.00220991495
  0.00397394604
  0.00339616963
  0.00296310079
 -0.00197023056
  0.000335728943
 -0.000682691172
  0.00290471999
  0.00136977274
  0.00314573268
  0.00203563504
 -0.00330887436
 -0.000928503901
  0.00458961701
  0.00464916598
  0.00262573136
 -0.00157569263
  0.00201917597
  0.00113931313
 -0.0012301204
  0.00158626626
 -0.00282045142
 -0.00050574624
  0.0032092838
  0.00277971232
 -0.00143260137
 -0.00228854188
  0.00332156286
 -0.00126353052
  0.00157620549
  0.00389319539
  0.0004044412
  0.00171769392
  0.0035121051
  0.000167079557
  0.00670143427
  0.00339836226
  0.00589538312
  0.00323471511
  0.00237710981
 -0.00474882371
 -0.00661623967
  0.00277324928
  0.00398767471
 -0.00211327988
  0.00358716745
  0.00124595491
 -0.000572750417
  0.00100985024
 -0.00184869322
  0.00241494805
 -0.00162578966
 -0.000447238475
 -0.00231270422
 -0.00263841177
 -0.00188943231
  0.000523075777
 -0.000516838081
 -0.00299442832
  0.00226480633
 -0.00297657679
 -0.00616186286
 -0.00461774333
 -0.00223240254
 -0.00681039956
 -0.0129240495
 -0.0197486059
 -0.0300450249
 -0.0294559449
 -0.0332767707
 -0.0232393541
 -0.0218361811
 -0.00758571597
 -0.00683219192
 -0.00611486235
  0.00135494766
 -0.00325926892
  0.00247800883
 -0.00283626028
  0.002069337
 -0.00359259055
  0.00380059419
 -0.00377835895
  0.000192608844
 -0.00152403241
 -0.00458144249
 -0.00801624238
 -0.0105035947
 -0.004365595
 -0.00340860235
 -0.0125774038
 -0.0336255974
 -0.0474286387
 -0.0502105591
 -0.036944752
 -0.0465874509
 -0.0515985551
 -0.0817202678
 -0.0675995027
 -0.0516805105
 -0.0287825843
 -0.0111834946
 -0.0137402611
 -0.011428902
  0.000152589393
 -0.00371215476
  0.00321412269
 -0.00316247389
  0.00420332116
 -0.00376545414
  0.0031287689
 -0.00367064481
 -0.00728869355
 -0.0151488535
 -0.0201132815
 -0.00626926403
  0.00989823629
 -0.00922849965
 -0.0306631467
 -0.0350364214
 -0.0216865761
 -0.0093711388
 -0.00879606885
 -0.0574310043
 -0.0881107899
 -0.104673095
 -0.0826368562
 -0.0708033708
 -0.0539201237
 -0.0255540213
 -0.0184066962
 -0.012911723
 -0.00531748461
 -0.000407669024
 -0.00433757807
  0.00182235284
  0.00281380371
  0.00359179962
  0.00377617776
  0.000854376768
 -0.000357096442
 -0.0184376107
 -0.00834264002
  0.0357607643
  0.0142883416
  0.0100196811
  0.028378544
  0.0481505745
  0.0202515436
 -0.00407791826
 -0.0426094499
 -0.0743534555
 -0.0612078389
 -0.0586632523
 -0.0155234275
 -0.0313481454
 -0.0367103737
 -0.0252291255
 -0.0264565811
 -0.0193998798
 -0.0104241072
 -0.00159385915
 -0.00118612321
  0.00389273335
 -0.00185728388
  0.000389317799
  0.00235996936
 -0.00104500665
 -0.0139751692
 -0.000345389528
  0.0256013158
  0.0809513302
  0.0513788242
  0.0644749076
  0.0390312566
  0.0481408872
  0.0562609819
  0.0327793709
  0.0121437734
  0.0415204897
  0.0355528717
  0.0288701237
  0.0236162025
  0.00567260296
 -0.0333885384
 -0.0219388559
 -0.00137616656
 -0.00215808351
  0.000599666991
 -0.00206760227
  0.00112244925
  0.00116220783
 -0.00129092487
  0.00459189647
  0.00489613318
  0.0156666396
  0.0109140483
  0.0378078556
  0.0440761547
  0.0628722501
  0.0484720065
  0.0428346389
  0.040791626
  0.0345495102
  0.0479288329
  0.02004041
  0.0566015555
  0.129342195
  0.11930684
  0.0753378246
  0.0283614133
  0.0306499689
  0.0230682691
 -0.005890236
  0.00140554192
 -0.00930358097
  0.00364920999
 -0.0048543808
 -0.00156871174
 -0.00261968446
  0.00408987194
 -0.00335458722
  0.0250034551
  0.0373600682
  0.0438815451
  0.0529683347
  0.0384169156
  0.0417857855
  0.0413418687
  0.0529054371
  0.0286610886
 -0.00391785731
  0.00291068246
  0.0447601011
  0.0632188428
  0.0859302711
  0.0887630652
  0.100669438
  0.0643457591
  0.0476016961
  0.0538782409
  0.0125239101
 -0.00338108227
 -0.0112543278
  0.0072511731
  0.00033581588
 -0.00286378847
 -0.00190905158
  0.00307843634
 -6.41828676E-05
  0.0168227786
  0.0566732194
  0.0673751047
  0.0111756056
 -0.0504546895
 -0.00861975612
  0.0335143812
 -0.0141828115
 -0.000127483102
 -0.0690023142
 -0.0643268926
 -0.0290161427
 -0.0178195618
 -0.0184475009
  0.0679371251
  0.0970780524
  0.0586312977
  0.0134915029
  0.0288341376
  0.0107999654
 -0.00742884702
 -0.0145967099
  0.00068817589
  0.00242462728
 -0.000613337586
 -0.00139346803
 -0.000892281598
  0.00134114067
  0.00478737744
  0.0321318419
  0.0452240034
 -0.0264855257
 -0.0870213762
 -0.042574292
  0.000610480528
  0.00525936683
 -0.0347545857
 -0.0783674273
 -0.100737604
 -0.0832413972
 -0.076365692
 -0.0640673149
  0.0203306494
  0.0456240346
 -0.00303144277
  0.0117978786
  0.0413465441
  0.00371783392
  0.000774083931
 -0.0209396734
 -0.00749577762
 -0.00103064473
  0.00232339528
 -0.000891764718
 -0.00215885488
 -0.00146910956
  0.00187635921
  0.00557646817
  0.0165174327
 -0.0256149536
 -0.0636148195
 -0.0548850313
 -0.0338883333
 -0.0830370935
 -0.115429538
 -0.154348364
 -0.156782763
 -0.153113916
 -0.108556262
 -0.102547564
 -0.043006146
 -0.00353264195
 -0.0241655167
  0.0199064626
  0.0370006593
 -0.00542064919
 -0.0018147631
 -0.0283118811
 -0.0127139957
 -0.00134008037
 -0.00172734908
  0.0013266912
  0.0026099429
 -0.00310983801
 -0.00378697987
 -0.000819989158
 -0.00840669758
 -0.0360452624
 -0.0404824661
 -0.0492408157
 -0.0444092407
 -0.129915051
 -0.1859249
 -0.20500999
 -0.201470717
 -0.183707547
 -0.104611684
 -0.0506343276
 -0.0271515104
 -0.0133441267
  0.0104521101
  0.0651731415
  0.0314392089
 -0.0089770458
 -0.00375990232
 -0.0207775656
 -0.00851034761
 -0.00133688326
  0.00369000439
 -0.00278941765
 -0.000154240148
 -0.00231790321
  0.00275917958
 -0.00217821288
 -0.0137108577
 -0.0401326009
 -0.0505301656
 -0.0418324731
 -0.0723617119
 -0.109461257
 -0.128072711
 -0.112028065
 -0.121560345
 -0.102542549
 -0.0395222947
 -0.00899155248
 -0.0343763178
  0.0119588223
  0.0686537302
  0.0809028434
  0.0416720157
  0.0236636702
  0.0093509625
 -0.00176996704
 -0.00125645607
  0.00735652679
 -0.000662737064
 -0.000964720441
  0.00027734524
 -0.00291544774
  0.00146949625
 -0.00531104881
 -0.0147570141
 -0.0330389228
 -0.0488676251
 -0.0410202358
 -0.0426212666
 -0.0549669846
 -0.0643081893
 -0.0360471457
 -0.00946624654
  0.00635111782
  0.0180584381
  0.0156118704
 -0.00903435094
  0.00439012672
  0.0750498879
  0.0848193687
  0.00655174015
 -0.00300285323
 -0.00181833697
 -0.0199994441
 -0.0150303139
  0.0039110477
  0.00350654499
  0.00150141401
 -0.00293105163
 -0.00394416678
 -0.0038158827
 -0.00380298593
 -0.016552085
 -0.0300544071
 -0.0228010189
 -0.0232682983
 -0.0134278167
 -0.0253597306
 -0.0689983097
 -0.0464866053
 -0.0224421568
 -0.0122485023
  0.0222612039
  0.0368236128
  0.00555474952
 -0.0333753703
 -0.0101281978
 -0.00891264949
 -0.0368635075
 -0.0245689808
 -0.0138313922
 -0.0120993761
 -0.00883746321
  0.0025359012
  0.00341273593
 -0.00260819535
 -0.000890642381
  0.00173998877
  0.00837915357
 -0.00686320278
 -0.012716485
 -0.0176122824
 -0.0347542063
 -0.0169341898
 -0.00543036041
 -0.0460166325
 -0.0735232198
 -0.0504185406
 -0.0240664591
  0.00983956475
  0.0362389375
  0.0298244701
 -0.0438883098
 -0.0658473721
 -0.0252887201
 -0.0424490825
 -0.0511501608
 -0.0303701435
 -0.0160123629
 -0.0124618662
 -0.00236121203
  0.00308806544
 -0.00200300257
  0.000881354659
 -0.000248550233
 -0.0028121728
  0.0122081084
 -0.00367935665
 -0.0135722611
 -0.0215852966
 -0.0372844699
 -0.0390814815
 -0.0479893684
 -0.0415967874
 -0.0253463447
 -0.00747383558
  0.0372256129
  0.0298002613
  0.0116483474
  0.0149036878
 -0.0508274882
 -0.052521287
 -0.0243470411
 -0.0475540019
 -0.0308494018
 -0.0464220666
 -0.0252070412
 -0.0138209807
 -0.00334689325
 -0.000357143717
 -0.00300614923
 -0.00073395448
 -0.00213600977
 -0.000787245639
 -0.00402923587
 -0.00535472025
 -0.014257065
 -0.0241295967
 -0.0383445703
 -0.0463208568
 -0.0492240635
 -0.027137529
 -0.0140243672
  0.0068287768
  0.0523346996
  0.0143974348
 -0.0147906173
 -0.0221089901
 -0.0604644802
 -0.0515025368
 -0.0305922881
 -0.025994702
 -0.0115399158
 -0.030635821
 -0.0169162914
 -0.00184693901
  0.00337787069
  0.0023248628
 -0.00179032149
  0.000310246845
 -0.0023715624
 -0.00018955327
  0.00381606219
 -0.0010869982
 -0.00595064761
 -0.0137858708
 -0.0303313712
 -0.0340556458
 -0.0293481116
 -0.010921801
 -0.0207252452
  0.0308598044
 -0.00143703105
 -0.0170094533
 -0.0144929297
 -0.062034115
 -0.0432995366
 -0.0681715348
 -0.0477601917
 -0.0312718338
 -0.0247639473
 -0.0362136767
 -0.0237753513
  0.00352833561
 -0.00189998098
  0.000740868143
  0.0020501721
 -0.00329496396
 -0.00106767076
 -0.00254156448
  0.00126100062
  0.00128770374
 -0.00204986586
 -0.00249285652
 -0.0100672178
 -0.0188291842
 -0.00836046465
  0.00640971374
  0.00381855688
  0.0128861852
 -0.0194629039
 -0.0296321301
 -0.0193621183
 -0.00522633789
 -0.010439051
 -0.0682434774
 -0.0503603262
 -0.0377340111
 -0.0364726723
 -0.0446298547
 -0.0305759382
 -0.0144815735
 -0.00533847533
 -0.00191457417
  0.00284759692
 -0.00113123484
  0.00337272283
  0.00209100667
 -0.000194666819
 -0.00193966007
  0.00186372025
  0.000828805522
  0.00857816191
  0.00254846732
  0.01993714
  0.0282860493
  0.00538655218
 -0.00437748904
  0.0105537997
 -0.0122023679
  0.00373074861
  0.0133736036
  0.00566173646
 -0.0415257762
 -0.0527755621
 -0.0533521014
 -0.0249722824
 -0.0348740195
 -0.031966097
 -0.0317638742
 -0.00606079006
 -0.0033702888
  0.000964508808
 -0.00362613636
 -0.000897188176
 -3.01362763E-05
 -0.000535465037
 -0.00223729343
 -0.00178001464
  0.0168353111
  0.00334814257
  0.0305034336
  0.06472477
  0.0553893699
  0.035036679
  0.0533488764
  0.0628174287
  0.0476656742
  0.0814096929
  0.0476472659
  0.0212092614
  0.00366559208
 -0.0498673339
 -0.0329665184
 -0.00726134819
 -0.00988512855
 -0.0199669212
 -0.0302300602
 -0.00732116622
  0.00256126314
  0.00167789532
  0.00153611287
  0.00341288038
 -0.00157950204
  0.00213188292
 -0.00170554085
  0.00424704527
  0.00356667879
  0.013860901
  0.0319483189
  0.0536691362
  0.0427869867
  0.02873826
  0.0483650235
  0.0668647035
  0.0693072293
  0.0880198175
  0.0189454514
  0.0289119319
  0.0168202055
 -0.0281091887
 -0.0208766343
 -0.0169654287
 -0.00532379616
 -0.0141359773
 -0.0201712091
 -0.00170949834
  0.00359763427
  0.000223951661
  0.000694504562
  0.00193699125
 -0.00232005931
 -0.00199128848
  0.000631962923
 -0.00401381531
 -0.00117952712
  0.0055635741
 -0.00536108911
 -0.00405343201
  0.0175913845
  0.0249175295
  0.0271652448
  0.0464792782
  0.0519102871
  0.00681558292
 -0.0083090362
 -0.0127713466
  0.000164429843
 -0.00205657931
  0.0120109939
 -0.00296744232
  0.0013073386
 -0.0040853066
  0.00291415278
  0.00297569362
  0.000850821035
 -0.00150741021
  0.00141822413
  0.000226549143
  0.00293844761
 -0.00210917722
 -0.00205836603
 -0.00360351799
  0.00132011734
  0.00617602918
  0.00434596451
  0.00325111844
  0.00474446535
  0.00531229307
  0.0034904286
  0.00160849008
  0.00242286302
 -0.000664083467
  0.00217363956
  0.00525317575
  0.0040188487
 -0.0135870203
 -0.00431050229
  0.00270325446
  6.25650405E-05
 -0.000274669748
 -0.0035611113
 -0.00260927692
 -0.000138070181
  0.00357494745
 -0.00385548937
 -0.00350915556
 -0.00215436855
  0.0017846407
  0.000939299493
 -0.00343782723
  0.0038973699
  0.00310283988
 -0.00281943905
 -0.00020309606
  0.00217243907
  0.00234319998
 -0.00416296738
  0.000663789754
  0.00199663972
  0.00205798579
  0.0035681188
 -0.00340788786
  0.0024287981
  0.00376961515
 -0.00336502539
 -0.00190073144
 -0.00220112637
  0.00261540964
 -0.00341938302
  0.00208334458
 -0.00188116627
 -0.00275858822
  0.0036959737
  0.00220266971
 -0.00340554668
  0.00406239078
  0.00291542056
 -0.0013380092
  0.00162512532
 -0.000367186105
 -0.000553930259
  0.00130058905
 -0.00148625239
  0.000971513439
 -0.00236196002
 -0.00353571948
 -0.000419503415
 -0.000953120706
  0.00306350247
 -0.00242486814
  0.00408865881
  0.00112815567
 -0.00244141723
  0.0014213093
  0.000243898067
 -0.00158453645
  0.00374248428
  0.00226467811
 -0.00319103279
 -0.00389880506
  0.00012611653
 -0.000850292832
 -0.00243548708
 -0.000399815934
 -0.00286952916
 -0.0016191276
 -0.000559331572
 -0.00417601497
  0.00126476936
 -0.00315611229
 -0.000321294825
 -0.002141162
  0.00622166688
 -0.00127467653
 -0.00335646075
  0.00279628594
  0.00409279895
 -0.00171764328
  0.0018885516
  0.00508313098
  0.00145983419
  0.00540248775
  0.000147186575
  0.00125387627
  0.00106621045
  0.0011687033
  0.00169163011
  0.00033279929
 -0.000788525003
  0.0027225033
  0.000655900676
  0.00355949744
 -0.00234969544
  0.0024423195
 -0.00106222441
 -0.00104968133
 -0.00332561651
  0.00223377458
 -0.00204362034
  0.00206822691
 -0.00732007682
 -0.0149798875
 -0.00697708793
 -0.00968242566
 -0.00715716985
  0.000978533259
  0.0173462579
  0.0238697152
  0.0165011326
  0.00141065998
 -0.0114927471
  0.00496078892
  0.00104619855
 -0.00304820947
 -0.00300649009
 -0.00256778125
  0.00234240025
  0.00290704631
  0.0019869242
 -0.00266803117
  0.00140764345
 -0.00163258351
 -0.00378819193
  0.00200007719
 -0.00514250715
 -0.00458153603
 -0.0181429638
 -0.0272031652
 -0.0172310574
 -0.00751112292
  0.00145046676
  0.00277564081
 -0.0127877804
 -0.0186320476
  0.0138950796
  0.0195088537
  0.0327844383
  0.0243043127
 -0.00418871857
 -0.000698021205
 -0.00184850015
  4.46560771E-05
  0.00109228569
  0.00280802895
  0.00264288678
  0.00230770189
 -0.00398165827
  0.000763380865
  0.0010127072
 -0.00599770668
 -0.0127657575
 -0.0278310702
 -0.0367240931
 -0.029614486
 -0.0359058193
 -0.0402437583
 -0.0314323857
 -0.00164911831
  0.0260270858
  0.0234707799
  0.0262609198
 -0.0150921754
 -0.0112501345
  0.0235386888
  0.032308818
  0.0129619917
 -0.0136282622
 -0.0217793065
 -0.00895836482
 -0.00812052807
 -0.0071694497
 -0.00151193365
 -0.00364574418
  0.00339060122
 -0.000572497902
  0.00321904864
  0.00124145492
 -0.0163548804
 -0.0244677876
 -0.0358890532
 -0.0321129514
 -0.0256010343
 -0.010420696
 -0.0298951729
 -0.0239637683
  0.0250198886
  0.0147054616
  0.0144196953
  0.0170251234
  0.0338392551
  0.0193430572
  0.0263923865
  0.0284104877
 -0.0057655947
 -0.0260728297
 -0.0400558993
 -0.0189418737
 -0.014166337
 -0.00773090747
 -0.00987247174
 -0.00693456955
  0.00388175883
  0.00232253437
 -0.00370160709
 -0.00202882401
 -0.0162376164
 -0.0113641214
 -0.01891811
 -0.0177182309
 -0.00870762078
  0.00246579893
 -0.0262390704
 -0.000886526595
  0.00408672757
 -0.00146568969
  0.00721848844
  0.063743289
  0.0585849166
  0.0554519687
  0.0568683704
  0.0372733111
 -7.84269414E-05
 -0.0104824818
 -0.0372374247
 -0.0363421061
 -0.0160752101
 -0.019769208
 -0.0108130233
 -0.00420726822
  0.00163278238
 -0.000472031569
 -0.00256125721
 -0.00247085973
 -0.0102166935
 -0.00852556418
 -0.0101124894
 -0.0230365871
 -0.00174807873
 -0.0310989311
 -0.0204028098
 -0.00173149904
 -0.020466165
 -0.0194160529
  0.0126433786
  0.0453928645
  0.0287369661
  0.0354783551
  0.065625124
  0.0499915688
  0.00695445851
  0.0175331495
 -0.0149652953
 -0.0305039021
 -0.0198352245
 -0.0154696972
 -0.00135144233
  0.00394912124
 -0.00329955963
  0.00316897207
 -0.00274995202
  0.00215530758
 -0.00725093822
 -0.0157270301
 -0.00551038204
 -0.00622117045
 -0.0174929252
 -0.0390991414
 -0.0247229383
 -0.012607696
 -0.0211039233
  0.0172344631
  0.045348924
  0.0265636428
 -0.0179033558
 -0.0196050877
  0.0341590545
  0.0463918535
  0.0127360948
  0.0148477235
 -0.000432828277
 -0.0126382115
 -0.00576078766
 -0.00919769435
  0.000350980743
  0.00283317385
  0.000534718909
 -0.0025082426
  0.00287063812
  0.000708700885
 -0.01184395
 -0.0120273987
  0.00226649254
  0.0157251543
 -0.014916671
 -0.0281856378
 -0.00640319581
 -0.00252904453
  0.00935410945
  0.0427448723
  0.00532638447
 -0.0536586008
 -0.0594414732
 -0.0462680546
  0.014751781
  0.0437375293
  0.00623335317
  0.0051748414
  0.0278280631
  0.0292790852
  0.00744842196
 -0.00390355883
  0.00204598633
 -0.00391374184
  0.00187302706
 -0.00126230551
  0.00306232574
 -0.00551553764
 -0.012728951
 -0.00819755979
  0.0298682306
  0.0382014419
 -0.0110903632
 -0.0171406479
  0.00900786258
  0.0705591841
  0.0348594857
  0.00566361826
 -0.0562273533
 -0.10606591
 -0.0860172385
 -0.0571369668
 -0.00151885034
  0.0189175328
  0.00377610757
  0.0137485743
  0.0527746599
  0.0576327474
  0.0202776732
  0.00441597166
 -5.26618738E-07
  0.00117536636
 -0.00297027771
  0.00359181774
  0.000948484344
 -0.000326980259
 -0.0178310484
  0.00722331537
  0.0535405204
  0.036326556
 -0.00414433943
 -0.0109848158
  0.0400231758
  0.0575908674
  0.00462716373
 -0.0443057642
 -0.0955392221
 -0.115581116
 -0.098332134
 -0.0653605337
 -0.0233871564
 -0.00110552211
  0.0153356825
  0.0193501803
  0.052045988
  0.0704842106
  0.0289314242
  0.00345730205
  0.00232278148
 -0.00102339706
  1.54973191E-05
  0.00163886867
 -0.00289196952
  0.000491039372
 -0.00992138272
  0.0246590886
  0.0585683453
  0.0240612155
  0.0065511273
  0.0368657385
  0.0605457855
  0.0394703647
 -0.00104406171
 -0.0544145361
 -0.0934429962
 -0.0994525237
 -0.0928284622
 -0.0637787967
  0.00212072079
 -0.00129636577
  0.00744723866
  0.0354114429
  0.0426208769
  0.0525290136
  0.0322168301
 -0.000604668137
 -0.00385921977
 -0.00299800776
  0.00207003758
  0.000257977114
  0.000200501346
 -0.0022051133
 -0.00813659902
  0.032899982
  0.0458571021
  0.00843236104
  0.011268114
  0.0418828348
  0.080178982
  0.0414643783
 -0.0429201723
 -0.0709213357
 -0.0781133435
 -0.0839740298
 -0.0871297906
 -0.0511667566
  0.00414906892
 -0.00912053029
  0.0079764126
  0.0539881341
  0.0352561665
  0.046855121
  0.032378517
  0.000901368531
  0.00372797274
  0.0012983182
  0.0012202337
  0.00409507697
  0.00252221636
 -0.00219344843
 -0.00513471544
  0.0362489062
  0.0450230625
  0.0139395626
  0.0351511204
  0.064747823
  0.0392150283
 -0.0328636824
 -0.0702173869
 -0.0974212686
 -0.0930148386
 -0.0824604999
 -0.051029651
 -0.0129355202
 -0.0113294088
 -0.0198733172
  0.0250476145
  0.0492632984
  0.0187996824
  0.0321198972
  0.022226331
 -0.0089205938
 -0.00135759058
 -0.000227598755
  0.000191918231
  0.00245647203
 -0.0031176364
 -0.00391745996
 -0.00648244889
  0.023264278
  0.0309597463
  0.0230960948
  0.0551298869
  0.0581562392
  0.00823476064
 -0.0460631497
 -0.0767062262
 -0.0994956619
 -0.10598641
 -0.0739711379
 -0.0445552388
 -0.018329969
 -0.0287322209
 -0.0134898093
  0.0195863898
  0.0329539772
 -0.00291149602
  0.00934741383
  0.0133474999
 -0.00154463228
 -0.00368273216
 -0.000999725801
  0.00310159374
 -0.00302460414
  0.00313970081
 -0.00207647107
 -0.00857095817
  0.011104577
  0.00773812011
  0.0246015316
  0.0651603202
  0.0541912613
  0.015819626
 -0.0118398764
 -0.0583860511
 -0.102662289
 -0.0889237009
 -0.0706379152
 -0.0358394552
 -0.039868313
 -0.027544565
  0.0112478693
  0.0182501307
  2.58969906E-05
 -0.0152682333
 -0.00218719544
  0.00142204336
 -0.00324339001
  0.00137846569
  0.00308092007
 -0.00145549354
  0.00410323934
 -0.00160761004
 -0.00311644643
 -0.0103292024
  0.00379126633
  0.00810625607
  0.0318590804
  0.0654309439
  0.0328545994
  0.0147312706
  0.0089370762
 -0.0511910873
 -0.068634764
 -0.0681059947
 -0.0209526058
 -0.0275565162
 -0.0293787377
  0.00857708636
  0.0202218252
  0.0123002439
 -0.0276346305
 -0.0226539337
 -0.00465254048
  0.000825610229
 -0.00157149001
  0.00194778934
  0.00276631624
  0.00268299651
 -0.000895651127
  0.00184708275
 -0.00385339747
 -0.00649166295
  0.00521090303
 -0.00140182487
  0.0299347006
  0.0519358026
  0.0538435377
  0.0221269423
  0.0434839084
  0.0081272691
 -0.020218452
 -0.0204781338
 -0.04166945
 -0.0447356003
 -0.0210826532
 -0.0119069642
  2.49634008E-05
 -0.0279142178
 -0.0367088813
 -0.0153680518
  0.000712835735
 -0.00166550523
 -0.000296523347
  0.00182554765
  0.000399898474
  0.00203031891
 -0.000448568924
 -0.00136467944
 -0.00547627124
  0.00209577488
 -0.0070547567
  0.00969442997
 -0.0173341294
  0.0174846076
  0.0415176031
  0.0503230018
  0.0549118356
  0.0733886091
  0.0427586376
 -0.038306697
 -0.0286817476
 -0.0251111925
 -0.0249338404
 -0.0418959197
 -0.0299500787
 -0.0347855137
 -0.0276621803
 -0.00174143523
 -0.00176265443
 -0.00378566693
 -0.00302751175
  0.0040481589
  0.000312676228
 -0.000902666744
 -0.00015938428
 -0.00341053945
 -0.00949204794
  0.00633517359
  0.0220455929
  0.0242601336
  0.00377220809
 -9.53566738E-05
  0.0249294238
  0.0280758598
  0.021090189
  0.0271354555
  0.00578029017
 -0.0102564811
 -0.00474438793
 -0.0280730245
 -0.0462737491
 -0.0291734735
 -0.0174011791
 -0.0118388702
  0.00631989045
 -0.000335836484
 -0.006833536
 -0.00228574425
 -0.00243150376
  0.0054652246
  0.00246822286
 -0.00391357157
  0.000334239204
 -0.00125139766
 -0.00276225134
  0.00311974115
  0.0274353412
  0.0364393907
  0.0113487812
  0.000890616135
  0.0129105948
  0.0103724153
  0.0105237712
  0.0251472816
  0.0404227586
  0.0388219629
  0.00551318891
 -0.0331678507
 -0.0408144801
 -0.0261140463
 -0.000654667014
  0.00468370075
  0.00772618858
 -0.00810599989
 -0.00708116074
  0.00289014433
  0.000560804869
  0.00483075702
  0.00257232898
  7.06695263E-05
  0.00114199267
  0.000833998899
 -0.000891603873
 -0.00326704638
  0.0200458948
  0.0264120853
  0.00333371385
 -0.00733140923
 -0.00082928638
  0.0231521339
  0.0383368979
  0.0437978385
  0.0368133781
  0.0355376911
 -0.00947940485
 -0.0332884449
 -0.015042207
 -0.000415202122
  0.00273487101
 -0.0137711874
 -0.0147196172
 -0.0097831448
 -0.0122379321
  0.00507292987
  0.000160836021
  0.000956296618
  0.00187770665
  0.00416373132
 -0.000220882344
  0.000228128972
 -0.00151980356
 -0.00801724756
 -0.00992613205
 -0.00886914204
 -0.00558536401
 -0.0221565608
 -0.0266931914
 -0.00148482038
  0.0137584403
  0.0121284162
 -0.00093492947
  0.00248863343
 -0.00731499287
 -0.0297281605
 -0.0220125282
 -0.0111455335
 -0.0157883878
 -0.00271550476
 -0.000336940368
 -0.00265498058
  0.00326067051
 -0.000222225863
 -0.000167243411
 -0.00301538008
 -0.00144128666
  0.00421549877
  0.0021628227
 -0.00378548645
  0.00408838735
 -0.00299990224
  0.00213611049
  0.00270386864
 -0.000139786159
 -0.00959862242
 -0.0156300151
  0.00194532303
  0.00871179645
  0.0105025995
  0.00154932792
 -0.0130906804
 -0.0059228017
  0.00124174817
 -0.00351028272
 -0.00913949106
 -0.0075324841
  0.00419676768
 -0.00122558587
 -0.00033759164
  0.00397654272
  0.00121881182
 -0.00157426354
  0.000402034942
  0.00377279142
  0.00248039896
  0.00160856102
 -0.00189040165
  0.00259039811
  0.0010304112
  0.000935291658
  0.00479237673
  0.00379702731
  0.00217335411
 -0.00536601745
 -0.00534421954
  0.00213234649
  0.00315250896
 -0.00571031088
 -0.00334908028
 -0.00245184283
  0.00136095059
 -0.00187229688
  0.00027149175
 -0.000107130475
 -0.00167040945
  0.00408566992
  0.00151041586
 -0.00240592808
 -0.00223553999
  0.00375493619
  0.00372234511
  0.00275179279
 -0.00204123352
 -9.75263621E-05
  0.00230267755
 -0.00378274078
 -0.0027108715
 -0.00377931948
  0.00295948422
  0.000650217177
 -0.00241240114
 -0.000227225686
 -0.00255807998
 -0.00193847178
  0.00350166476
 -0.00153682908
  0.00314759332
  0.00123332339
  0.00267082712
 -0.00272392691
 -0.00315173188
  0.00178059422
  0.00219346
  0.00092337941
 -0.00282854899
 -0.00412273108
  0.000675913517
  0.00290377342
 -0.00230675294
  0.00266227957
  0.00243680344
 -0.00280631412
  0.0011921662
 -0.00382633646
  0.00131806581
 -0.000727062169
 -0.00338717104
  0.00282910022
 -0.000314786273
  0.00374789213
 -0.000332293735
  0.00286541413
  0.000626646416
  0.00221963563
 -0.00318763123
 -0.000137276492
 -0.0035396861
 -0.00409687952
 -0.00242637111
 -0.00390605408
 -0.00194849949
 -0.00150314885
  0.00198554015
 -0.00397694585
  0.00364213672
  0.0033788972
 -0.00387777076
  9.61440749E-05
  0.00206076446
 -0.00196261754
 -0.00146348227
  0.000275661733
 -0.000547025618
  0.00395059034
  0.000671231406
 -0.00345086597
 -0.000998378241
  0.00150596627
  0.00399334003
  0.00534657804
  0.00103195224
  4.30985956E-05
  0.004718988
 -0.000133704235
 -0.00150796892
  0.00437398028
  0.00239547148
 -0.00227410977
  0.0027115512
  0.0033168576
 -0.00195825778
 -0.00345885458
 -0.00240819729
 -0.00419462381
 -0.00321389431
 -0.00298796661
  0.00340617957
 -0.00286975891
  0.00133008388
  0.00124503786
 -0.00061047041
  0.00408850803
 -0.00270120682
  0.00306441013
  0.0038171917
  0.0021919305
  0.00769671541
  0.00850468014
  0.0142085981
  0.01893722
  0.0160676331
  0.00246965348
 -0.00257026985
  0.0167263697
  0.00709074901
  0.00292412278
  0.00173351604
  0.00199325145
 -0.00021126803
 -0.000352739282
  0.00278281612
  0.00351474083
  0.00067521344
 -0.00384728728
  0.00354202319
  0.00168322516
 -0.00261334766
  0.0027262966
  0.00303537279
  0.00293864238
 -3.15060191E-05
 -0.000449314254
  0.00769278087
  0.00857420236
  0.0104910557
  0.0294461221
  0.0326706047
  0.0409184491
  0.0535631488
  0.0341390207
  0.0116470491
  0.011246452
  0.0163512753
  0.0129233789
  0.0162141047
  0.0102592026
 -0.000434630534
  0.00254852363
 -0.00336531912
 -0.00153516265
 -0.00154814805
  0.00363940335
 -0.00224232812
  0.00334897155
  0.00401402205
 -0.00292221121
  0.000638670919
  0.000136923275
  0.0105692779
  0.00635872123
  0.00208196952
  0.00153753015
  0.0155839749
  0.0330659937
  0.0378985694
  0.0547430026
  0.0527441364
  0.026027179
  0.0139902478
  0.0051292256
  0.0168747174
  0.0108969837
  0.000294084801
 -0.000376154231
 -0.00787991997
 -0.00695347156
 -0.00346449083
  0.00341584728
 -0.00396324126
  0.000251237552
 -0.00234122141
 -0.00128948319
 -0.000331265261
 -0.000462334364
  0.0051049116
  0.0248410311
  0.0480197456
  0.0554072697
  0.0511043735
  0.0490397095
  0.0827741257
  0.0859176432
  0.0279365158
  0.00640715329
 -0.00829955875
 -0.0167366546
  0.0502041851
  0.00835399048
  0.0197397221
 -0.000835242403
  0.0232421501
  0.00679970593
 -0.00979997999
 -0.0211688036
 -0.00318510754
 -0.0061351191
 -0.00397554776
  0.00158359882
 -0.00381036727
 -0.00320659962
 -0.00238706954
 -0.00310318063
  0.0157186255
  0.0376866506
  0.0626229072
  0.0679120798
  0.0565624398
  0.0529218086
  0.0468459898
  0.0543018409
  0.0220542316
 -2.37753741E-05
  0.0368278578
  0.0599260574
  0.0433913667
  0.0040139673
  0.00810031402
 -0.00811260957
  0.0223279387
 -0.00224814233
 -0.0258629559
 -0.0177676903
 -0.00109171674
  0.000701928072
 -0.00346660739
 -0.000220972279
  0.00250602349
  0.00171760846
  0.0010841787
  0.00834560167
  0.0197117988
  0.036173237
  0.0542925258
  0.0384556985
  0.0305440116
  0.0208012748
  0.0101594236
  0.0267382945
  0.0392007434
  0.0722242761
  0.0837211617
  0.0516848858
  0.0290958627
  0.0136672121
 -0.00203294926
 -0.026014412
  0.00488622145
  0.00462728666
  0.0102655548
 -0.00845160209
  0.00963895033
  0.00246838937
 -0.00935298249
 -0.000717659377
 -3.57411702E-05
  0.0021809487
  0.000753015949
  0.00377502331
  0.0220379275
  0.0369150539
  0.00304952608
  0.0111870558
  0.0201991646
  0.0440605938
  0.04269319
  0.041741302
  0.0535720278
  0.0465526108
  0.0358998275
  0.0337879787
 -0.00370127966
 -0.01354551
 -0.0131060323
 -0.0356351373
 -0.00744601809
  0.0150414386
 -0.00323250568
 -0.0100583541
 -0.000544883206
  0.0113986098
  0.000612263826
  0.000435978358
  0.00221372599
  0.00142599891
 -0.00260047918
 -0.000278186919
  0.00960106781
  0.0108199301
  0.00399581194
  0.00483949788
  0.0192185828
  0.0298566376
  0.027708853
  0.0105755118
  0.00174699533
 -0.0247908286
 -0.0472655916
 -0.0484560216
 -0.0576078121
 -0.025957885
 -0.0363377996
 -0.0646951724
 -0.0241941793
 -0.0105678692
 -0.0573954473
 -0.0381358816
 -0.0185985781
  0.00477262686
 -0.00240393475
  0.00295273502
  0.00216384639
  0.00161099061
 -0.000387682837
  0.00251807669
 -0.00346840985
 -0.0150969427
 -0.0163664169
 -0.0257784653
 -0.0214229317
 -0.0227228275
 -0.0314500353
 -0.0526302483
 -0.0965475367
 -0.0754250223
 -0.0768498901
 -0.0191230575
 -0.0588173989
 -0.0286431054
 -0.0527065326
 -0.0777311547
 -0.0484459479
 -0.0448701401
 -0.0760620586
 -0.0479053324
 -0.0245002367
  0.000382475307
  0.00310654209
 -0.00196252367
 -0.000801413516
 -0.00356382033
 -0.00299074381
 -0.00402758384
 -0.0125161584
 -0.0348044556
 -0.0415119041
 -0.0705692799
 -0.0688387318
 -0.0665259917
 -0.0807824293
 -0.119991838
 -0.105758427
 -0.0889908246
 -0.0705836725
 -0.0170247096
 -0.0407958591
 -0.0294594256
 -0.0290732373
 -0.0392282816
 -0.043938287
 -0.0546054219
 -0.0801385738
 -0.0570077379
 -0.0226659404
  0.00351099118
 -0.00339004505
 -0.00288511745
  0.000556943208
 -0.0027885842
 -0.000732357474
  0.00205288544
 -0.0262210515
 -0.0364745322
 -0.080094019
 -0.108486648
 -0.0887919949
 -0.0677737114
 -0.10326027
 -0.092520841
 -0.0731352715
 -0.0654119638
 -0.0338628833
 -0.0181505023
 -0.0230491707
 -0.000881932327
  0.00971640763
 -0.00716708367
 -0.00128847145
 -0.0401833211
 -0.056351312
 -0.0488573645
 -0.0205647613
 -0.00135495125
  0.00134003322
 -0.000309227934
 -0.000858823101
 -0.00414194214
  0.000487349063
  0.00222608284
 -0.0221582021
 -0.0500845623
 -0.0794359061
 -0.0837564642
 -0.0633214682
 -0.0622523774
 -0.0576559709
 -0.0102674595
 -0.0170938179
 -0.0202933137
  0.0153458627
  0.0163246043
  0.00190419819
  0.00593661754
  0.0579911504
  0.0558056288
  0.0210467099
 -0.0435700494
 -0.0690603637
 -0.0385891539
 -0.0181977025
 -0.00280351853
 -0.00184873288
 -0.00400781388
  0.000806251144
 -0.00367654084
 -9.51354809E-05
  0.00253287563
 -0.024990421
 -0.0729349039
 -0.0814875583
 -0.0671909315
 -0.0122122525
  0.0103303471
  0.0131254053
  0.0215023091
  0.0302010151
  0.0204708139
  0.0280930223
  0.0107303325
 -0.00812948667
  0.017751024
  0.0641656433
  0.0405922061
  0.0253824828
 -0.0518870809
 -0.0645028465
 -0.0414706874
 -0.0241939412
  0.000920639702
  0.00339437424
  0.00333635758
  0.00122817814
 -0.00330334406
  0.00355044979
 -0.00287505528
 -0.0183746584
 -0.0548643192
 -0.060989073
 -0.0394954434
 -0.00541548264
  0.00870913356
  0.00532403311
  0.0317887302
  0.0185784681
  0.00365559435
 -0.02034172
 -0.0135185777
 -0.0100180732
  0.0157406633
  0.0319065836
  0.0220445194
  0.00669561724
 -0.0115919663
 -0.0234155165
 -0.0171342951
 -0.0184068088
  0.0160590207
  0.0145485409
 -0.00165435038
 -0.00221358017
  0.000544491802
 -0.00251392378
  0.00481926673
  0.00100359698
 -0.0176965147
 -0.0375950079
 -0.0667834495
 -0.0693091049
 -0.0343130694
 -0.0239879225
 -0.00118249186
  0.0125950263
 -0.032075004
 -0.02126883
 -0.0228816805
  0.0040092342
  0.0293675791
  0.0303795643
  0.0258044739
  0.0380403908
  0.0402011361
  0.0197367946
  0.00720835931
  0.0163102231
  0.0161711435
  0.00895511484
  0.000132673398
  4.1847593E-05
  0.000554597371
  0.00268029746
  0.00505045828
  0.0194440018
  0.0188679681
  0.00829915431
 -0.0534380262
 -0.0706180082
 -0.0337032444
 -0.045892147
 -0.0203257347
 -0.0232267709
 -0.0352917312
 -0.0483177569
 -0.01873307
  0.013829426
  0.0425654377
  0.0287449102
  0.0460884108
  0.0413358537
  0.0584670702
  0.0488126998
  0.0366528848
  0.0272507335
  0.0118578593
  0.000906752708
 -0.00417021356
 -0.00380028187
 -0.000646982118
  3.85781563E-06
  0.00319233374
  0.0379547087
  0.0565454318
  0.0592583955
  0.00180485188
 -0.028670572
 -0.0195433423
 -0.0473352352
 -0.0104899958
  0.0535061343
 -0.0106152868
 -0.0309851248
  0.023523403
  0.04510504
  0.0507169785
  0.0273571986
  0.0362827878
  0.0336344201
  0.0457660116
  0.0537796511
  0.0450177591
  0.0331503105
  0.00904742174
 -3.97151515E-05
 -0.00183370372
 -0.00168644421
 -0.00335486829
 -0.000621713733
  0.00331114586
  0.0453777966
  0.0756537663
  0.0855057725
  0.0535052843
  0.0444629813
  0.0185272229
 -0.00810160862
  0.0303798685
  0.0600187969
  0.0430212763
  0.0162725389
  0.0287956787
  0.0475479531
  0.0780501322
  0.0389283017
  0.0548013693
  0.0543260879
  0.0438071589
  0.0316089809
  0.0121493093
  0.00956767291
  0.00370957759
 -0.00162656145
 -1.55989837E-05
  0.00287435357
  0.00255562981
  0.00618750995
  0.00636955346
  0.0443909087
  0.0635927505
  0.062046786
  0.0596282796
  0.0383645901
  0.00569132399
  0.0107967526
  0.0458890864
  0.0618194565
  0.0635988426
  0.0418972206
  0.0515541593
  0.0918231947
  0.0791235674
  0.0388745374
  0.0657776198
  0.0559354652
  0.0149725093
  0.019464472
  0.023483784
  0.0202893356
  0.00565248566
 -0.00342978239
  0.00346417171
  0.00160017469
 -4.79849682E-05
  0.00236610615
  0.0111080032
  0.0307652398
  0.0520812888
  0.0225012238
  0.0252543347
  0.0172308448
  0.0099455667
  0.0103866971
  0.0435089613
  0.0616039648
  0.0444723618
  0.0119073118
  0.01570852
  0.0524672343
  0.0515905769
  0.00543768287
  0.0213011932
  0.0138660069
 -0.000911220801
  0.0178829083
  0.0263614281
  0.0240102381
 -0.000525550707
  0.000940618801
  0.00132179016
 -0.00339847828
 -0.00420406398
  0.000990776981
  0.00708776231
  0.0140989212
  0.0285663859
 -0.00270302766
  0.00582656808
 -0.00238108297
  0.0157037629
 -0.00148485313
 -0.0237890345
 -0.0127098765
 -0.0439040185
 -0.0553213088
 -0.0246931663
  0.00412069341
  0.00393597595
 -0.00782267483
 -0.00580340158
 -0.000605435555
  0.00832618806
  0.0183438769
  0.0165193078
  0.000595561999
 -0.00256364457
  0.00133565194
  0.00143475823
  0.000146420776
  0.000550447238
 -0.00138053998
  0.0055831891
  0.0127964032
  0.0137336466
  0.000471366458
  0.00394517345
 -0.00936932326
 -0.0130690771
 -0.0270184077
 -0.0722869239
 -0.0529579823
 -0.058418951
 -0.0606182419
 -0.059062596
 -0.020783465
 -0.0214551538
 -0.0123347904
  0.0205991139
  0.0259910464
  0.0264766781
  0.0164695741
  0.0209531939
 -0.00323929639
  0.00196587357
  0.00379613604
 -0.00150999436
  0.00396274682
  0.00168541146
  0.00414667028
  0.00488463523
  0.0109625074
  0.0061753294
  0.00121463272
  0.0159268276
  0.0240341368
  0.015427812
  0.018754185
 -0.00498541932
  0.000386696862
 -0.018297715
 -0.0423489335
 -0.0124492723
 -0.0209660451
 -0.00306256809
  0.023520244
  0.0446384872
  0.0341006658
  0.013381351
  0.00103978213
  0.0023461101
  0.00132518845
  0.00289816726
  0.000539684372
  0.00371351639
  0.000642134676
  0.000113914254
 -0.00201838413
  0.000887991977
  0.00141457122
 -0.00406276299
 -0.00661779367
 -0.000350289106
  0.00680634198
  5.45109243E-05
  0.00468619404
  0.0100839643
  0.017680797
  0.000123978432
 -0.00486717199
 -0.00059712914
  0.00131392114
  0.0136700922
  0.0257405289
  0.0242636246
  0.011519324
  0.000801019764
 -0.00035956785
 -0.00511092199
  0.00308832149
 -0.000564774155
 -0.000161436195
  0.00159080997
 -0.0018885133
 -0.00384365773
  0.00108242019
  0.00269276802
 -0.000961842963
  0.00289076579
 -0.000171631906
  0.00479315323
 -0.00471214815
 -0.000443370086
  0.00281661321
  0.0067586536
  0.0050310315
  0.000196731618
  8.61876746E-05
 -0.00151174874
  0.004480793
  0.0051175425
 -0.00464634691
  0.000788303802
 -0.00129803852
  0.002981918
 -0.00178613422
  0.00307727877
 -0.000685763666
  0.00372624813
  0.00419185972
 -0.00138054403
 -0.00106043219
 -0.000191482634
 -0.00401164016
  0.00127296042
  0.000186766047
  0.00136773747
  0.000209243143
 -0.00324228246
  0.000548695579
  0.00330993666
  0.0029243244
  0.00161346133
 -0.00130569016
 -0.0032661637
 -0.000641348071
  0.00408902824
  0.00239893725
  0.00347485487
 -0.00743973746
 -0.00261510813
 -0.00222600012
 -0.00292683595
 -0.00296210176
  0.000501011032
 -0.00421848143
 -0.000526330064
 -0.000643616866
 -0.000682338774
 -0.0010219881
 -0.000673663054
  0.00215902336
  0.00213948613
  0.00335676048
  0.00236928954
 -0.000809459621
 -0.000678379892
 -0.00055993074
  0.00343902833
  5.49089864E-07
  0.00401869762
  0.00260220682
 -0.00125093995
  0.00134583536
 -0.00304968776
 -0.000397662354
 -0.0037689186
 -0.00394549698
 -0.00326600463
  0.00370785639
 -0.00315112582
  0.000325660115
 -0.00274004977
 -0.0018560556
  0.00158546452
  0.00198286718
 -0.00185263071
 -0.00316277171
 -0.00288265573
  0.00168693643
  3.71463571E-05
  0.000665587507
 -0.000375946127
 -0.00204527368
 -0.000199558432
 -0.00222856287
  0.00136717286
  0.00266457198
 -0.00277884188
  0.00058429503
 -0.00175165324
 -0.00230375113
 -0.00471500615
  0.000355428573
 -0.00316206797
 -0.000573290976
 -0.00252599179
 -0.00119287936
  0.000413223591
 -0.00157009025
 -0.00170692888
  0.00148400368
  0.00297747577
 -0.000225072489
  0.00384985475
  0.000341034128
 -0.00246411148
 -0.00222468238
  0.00140016858
 -0.00112486117
  0.00368416047
 -0.0027845911
  0.0037626325
 -0.000913692076
 -0.000607958739
 -0.00660834048
 -0.0110615172
 -0.00605245476
 -0.00356738035
 -0.0104837347
 -0.0036013761
 -0.00122644711
 -0.00703702529
 -0.0107127557
 -0.00542858887
 -0.00512383135
 -0.00395842741
 -0.000766190858
  0.000840276551
 -0.00336376351
  0.00402714736
  0.00341949915
  0.00234214659
  0.00278271697
 -0.00102747975
  0.00197009467
 -0.00109815507
  0.000730315187
  0.00396731871
 -0.00384648661
  0.00276028038
  0.00373818738
 -0.00221036244
 -0.00730608388
 -0.0143185251
 -0.00737767659
 -0.0125353683
 -0.00911188786
 -0.00575439129
 -0.00501896273
 -0.0155267443
 -0.0161104648
 -0.0162541635
 -0.0132782075
 -0.00665874038
  0.000663729587
 -0.000768129196
  0.00398711765
 -0.000186928107
 -0.00403383815
 -0.00359855215
 -0.000381686909
  0.00360756721
  0.00296550048
 -0.0018208761
 -0.000981380323
  0.00276885882
  0.00111822516
 -0.00141605321
  0.00100181147
  0.0136738529
  0.00706940703
 -0.00310749222
 -0.00631260474
 -0.00908858206
 -0.0167599007
 -0.0197657057
 -0.0308092561
 -0.0300948673
 -0.0301682896
 -0.0162842608
 -0.0027969125
  0.00301961164
  0.00326944591
 -0.00358690647
 -0.00525159632
  0.00313983827
 -8.73437901E-05
 -0.00397995054
 -0.001268996
  0.000100724018
 -0.00335659653
  0.00263689833
  0.00349332067
  0.010839457
 -0.00739409752
 -0.00689103446
  0.000691276829
  0.0138685643
  0.0112196212
 -0.00259527
 -0.0166129538
 -0.0274963822
 -0.0314718049
 -0.036565411
 -0.0290873169
 -0.0196772183
 -0.0139375928
 -0.0108839644
  0.0153375891
  0.0214961012
  0.0358525393
  0.0357107605
  0.0240390289
  0.00426730366
  0.00382661376
  0.00258965878
  0.00358033014
 -0.000271694546
  0.00283161415
 -0.000317507386
  0.00859252683
  0.0101512749
 -0.0182738054
 -0.0124908119
  0.00589437752
  0.000597426036
 -0.0179535499
 -0.0228939346
 -0.0421915444
 -0.0564718537
 -0.078356356
 -0.0889967399
 -0.0702047201
 -0.0445790505
 -0.0025731663
  0.0137997775
  0.0230270032
  0.0509633449
  0.0603317564
  0.0515709391
  0.0307358282
  0.0103403364
 -0.00224331217
 -0.00264384797
  0.00293595381
 -0.00198645237
 -0.00261662876
  0.00017214426
  0.00357820157
  0.000631593308
 -0.0128363751
 -0.0016888555
  0.00999562876
 -0.0119956342
 -0.0273353765
 -0.0275897325
 -0.0540797812
 -0.0799773055
 -0.109360539
 -0.133740545
 -0.0942761097
 -0.0282261135
  0.021742597
  0.0246299972
  0.0417775658
  0.0534588065
  0.0737504453
  0.0561582287
  0.0308258656
  0.0111335905
  0.0022727832
 -0.00197090683
 -0.000147551921
  0.00380725977
  0.00237164575
 -0.0029278525
  0.0010685637
  0.0074519032
 -0.00190052573
  0.0103586674
  0.00140210822
 -0.0013728669
 -0.0206391854
 -0.0287181278
 -0.0468894255
 -0.0706539404
 -0.0866301871
 -0.0756492069
 -0.040011675
 -0.00529755479
  0.0140852053
  0.0136852917
  0.0258987384
  0.0335678264
  0.0413857362
  0.0467742909
  0.0185469805
  0.0140272797
 -0.00201387193
 -0.00190546966
 -0.00309349831
  0.0017147022
  0.000547714943
  0.000183947812
  0.00318284416
 -0.00223447275
  0.00418973976
  0.00830436821
  0.00214131751
 -0.0174435676
 -0.0262175552
 -0.0330884123
 -0.0480907049
 -0.0403136033
 -0.0525980828
 -0.0425613488
  0.0221429739
  0.0151474148
  0.015879783
 -2.23126724E-05
 -0.000729240833
 -0.000678057373
 -0.000251198294
 -0.00481819786
 -0.00747322311
  0.0010057846
 -5.67647947E-05
  0.00104818034
  0.00144378474
  0.00044558897
 -0.00197736389
 -0.00370640746
 -0.00894863891
 -0.00220773459
 -0.00720071164
 -0.00661464469
 -0.0123493603
 -0.0219869163
 -0.0379515974
 -0.0365353807
 -0.0225377653
 -0.0198904855
 -0.0188426132
 -0.0105229065
  0.0166654529
  0.0108298311
 -0.00377110827
 -0.00801521868
 -0.0244884102
 -0.0255874682
 -0.00728340442
 -0.0202370483
 -0.00274758633
  0.00217520351
  0.0029382927
  0.00420395933
 -0.000124490902
 -0.00196842048
 -0.00290917235
 -0.00981556627
 -0.000210582892
  0.00263790506
 -0.0092311641
 -0.00765620418
 -0.0195211318
 -0.0164203422
 -0.022025901
 -0.0200748428
 -0.0167807274
 -0.0291718073
 -0.0359768879
 -0.0238284924
  0.0231293917
  0.0165227508
 -0.0161378503
 -0.0116248197
 -0.0402309733
 -0.0247678983
 -0.021428118
 -0.023084158
 -0.00638284793
 -0.00322443658
 -0.00286445837
  0.00303373307
 -0.00100760003
 -0.00396901272
  0.00244051226
 -0.000290335879
  0.00897151115
  0.013677784
 -0.016097432
 -0.00550719763
 -0.00940953273
  0.00918375137
  0.0283587615
  0.0158484225
 -0.0130298105
 -0.0297024499
 -0.044223374
 -0.0301243495
  0.00719873475
 -0.00154938235
 -0.0289774439
 -0.0219895894
 -0.0408475691
 -0.0339595844
 -0.0282802364
 -0.0315388551
 -0.0127620352
  0.0016085857
 -0.00268134105
  0.00310713094
 -0.00349050311
 -0.00124540778
  0.00148837645
  0.000127354081
  0.00795616896
  0.00540755384
  0.00400084855
  0.0145543798
 -0.00272416236
  0.0154575426
  0.0423297071
  0.0236841226
 -0.00796086842
 -0.0246304645
 -0.0336428424
 -0.0363669628
 -0.0119877577
  0.000834855475
 -0.0102059516
 -0.017475949
 -0.0145770122
 -0.010138903
 -0.018022784
 -0.0284287539
 -0.0162576035
 -0.00270841417
  0.00314743938
 -0.00375423246
  0.00191300291
 -0.00371696777
  0.00357480502
  0.00305942274
  0.00880142008
  0.0114453079
  0.0285245233
  0.0373447306
  0.0248862524
  0.0249837888
  0.0110334263
  0.00825133395
  0.000847236565
 -0.00985315233
 -0.0029296728
 -0.0036133377
  0.0164535706
  0.0503083246
 -0.00756753475
 -0.00359821815
  0.000229451736
 -0.00162480265
 -0.0126238052
 -0.0311647855
 -0.00813211866
  0.000602997037
  0.000137411154
 -0.00363178039
  0.00212310453
 -0.000833350566
 -0.00316410669
  0.00186015093
  0.0105081428
  0.0125383609
  0.0343708912
  0.0692678809
  0.0844509566
  0.0492971727
  0.0313387295
  0.03679461
  0.0434877218
  0.0453858077
  0.0160320121
  9.96574961E-05
  0.0140359045
  0.0270234793
  0.0121994197
  0.0186802398
 -0.00643036209
 -0.00515056325
 -0.0107918005
 -0.0144978574
 -0.0139088368
 -0.00091288669
  0.00186777437
 -0.00235086911
  0.00374568017
  0.000190731473
 -0.00201431148
  0.00259630565
  0.0159018239
  0.0202418584
  0.0275087964
  0.0816714793
  0.0694332413
  0.04397273
  0.0154467257
  0.0251397675
  0.0317193172
  0.0392008957
  0.00836570335
  0.0106906127
  0.0230022648
  0.00772176772
  0.0124517826
 -0.000272821159
 -0.0175760406
 -0.0142704887
  0.00786931716
  0.000737612481
 -0.00550187793
 -0.00164535207
 -0.00499405354
  0.00092659141
  0.000891978617
 -0.00418929627
  0.00267595803
  7.32877462E-05
  0.00560777369
  0.0098060237
  0.0301681097
  0.0461426669
  0.0238462559
 -0.00455313274
 -0.031319769
 -0.0272590665
  0.0223923464
  0.0447910522
  0.0267924029
  0.0395667295
  0.0277622115
 -0.00392764988
 -0.00511031811
 -0.0299566169
 -0.0259350581
 -0.00913481179
  0.00630211934
  0.0104152394
 -0.000575580368
  0.0050549444
  0.000521083261
  0.0013638285
  0.000978631641
  0.000600053053
 -0.00362289893
 -0.00467404879
 -0.00168389976
  6.36726144E-05
  0.0227278669
  0.00738305854
  0.00415021257
 -0.0067637002
 -0.0238246104
 -0.00470293329
  0.0226812411
  0.044690335
  0.043471186
  0.0249199644
 -0.00559903474
 -0.0120735407
 -0.0261901923
 -0.0280483436
 -0.0105737595
  0.00608743774
  0.0067974964
  0.00547185899
  0.00576079368
 -0.0020714419
 -0.00138721464
 -0.00223378388
 -0.00306542326
  0.00335577453
  0.000872133605
  0.000786544209
 -0.00487130195
 -0.00886491318
  0.00387230312
  0.00576164649
 -0.0027604154
 -0.00638481359
 -0.0157032791
 -0.0115251579
  0.00331160921
  0.0128547137
 -0.00131196264
 -0.0117539299
 -0.0144899464
 -0.0185069226
 -0.00804277436
 -0.0242017497
 -0.00684618824
  0.00386088602
 -0.00606558134
 -0.00109862478
 -0.00243203005
  0.00164915804
  0.00411144046
  0.00414940063
  0.00279290709
 -0.00149768035
 -0.00238566883
  0.00296490611
 -0.00736265071
 -0.00829955893
 -0.00368629392
  0.00536457841
  0.00192963546
 -0.00631373617
 -0.0356625471
 -0.0298234326
 -0.0371884332
 -0.0337793644
 -0.0297266883
 -0.0496916773
 -0.0248774968
 -0.0163374813
 -0.010282082
 -0.0197693436
 -0.00336485085
  0.00564180284
 -0.0038895151
 -0.000376819549
  0.003330713
 -0.00169176315
 -2.93531979E-05
  0.0020660178
  0.00373840611
 -0.000110839652
  0.00166130471
  0.00143676964
 -0.00229727399
 -0.00345657803
 -0.00736464044
 -0.00842314061
 -0.0154699687
 -0.0218494019
 -0.0297982482
 -0.0248824434
 -0.0593697098
 -0.0477667889
 -0.0116553862
 -0.0254868128
 -0.00427293602
 -0.0151273625
  0.0162331856
 -0.00395780058
  0.000193418755
  0.00506858242
  0.00167321201
  0.0064359243
  0.000850289901
  0.00241643451
  0.00453798562
  0.00191590338
 -0.00367325322
 -5.48586573E-05
 -0.000445829018
 -0.00510589025
 -0.0019335452
 -0.0116729709
 -0.00898602149
 -0.0116222679
 -0.0298995575
 -0.0335746962
 -0.0244446712
 -0.0286499884
 -0.0518548028
 -0.0309696376
 -0.0223301233
 -0.0246028855
 -0.00297311935
 -0.00439770583
  0.0240315849
  0.00327201795
  0.000421882119
  0.00456227166
  0.000902154721
  0.0048774366
  0.00339457154
  0.00227889546
  0.000576913839
  0.00266319707
  0.00041812564
  0.00055100589
  0.000325151413
 -0.00030241601
 -0.00984994847
 -0.0127090941
 -0.00784206343
 -0.0194016167
 -0.0315863786
 -0.0258959418
 -0.0201994844
 -0.0362788416
 -0.032612203
 -0.002826945
 -0.00684829741
  0.00218941987
 -0.00826147865
  0.000969310458
  0.00712835391
  0.00654482143
  0.00772004239
 -0.00134212559
  0.001379872
  0.000241814177
 -0.00232168167
  0.00170934392
 -0.00133115337
 -0.0037975675
 -0.000221189603
  0.00349624339
  0.00308753583
 -0.00591664179
 -0.00637536588
 -0.00848898887
 -0.00265915943
 -0.0128548514
 -0.021846276
 -0.00789275452
 -0.0246030445
 -0.0332908814
 -0.0282630852
 -0.000673740865
 -0.0158662145
 -0.0329190076
 -0.024029115
 -0.000801941844
 -0.00538896498
 -0.00977073607
 -0.00750958598
 -0.00636351077
 -0.00222035363
  0.00130076484
 -0.00241113793
  0.00339624059
 -0.00187778819
  0.00138910374
  0.000883678351
  0.0010129646
  0.0018134425
 -0.00359010946
 -0.00245279883
 -0.0088321805
 -0.0194692874
 -0.0235456921
 -0.0116513637
 -0.00211690604
 -0.036498426
 -0.0362006239
 -0.0230553162
 -0.0247314901
 -0.0212376101
 -0.0284119142
 -0.0233838953
 -0.0190800423
 -0.0221523852
 -0.013694608
 -0.00649215401
  0.00028397691
  0.00105432117
 -0.000137999857
 -0.00215086135
 -0.00215803087
  0.00067857844
  0.00120342078
 -0.00298369632
  0.00302269642
 -0.00162938164
  0.00184721901
 -0.00272707649
 -0.00733656109
 -0.000290039719
 -0.006368875
  0.00685201685
  0.005618373
 -0.00831267212
 -0.00395606578
 -0.00324998403
 -0.0017999678
 -0.0128370388
 -0.00135338419
 -0.00339316553
 -0.015245525
 -0.0166750987
 -0.00923890965
 -0.00329442614
  0.000653747364
  0.00278407032
  0.00352933222
 -0.0013662146
  0.00135017473
  0.00137966554
  0.00118889078
  0.00341405003
 -0.00216366256
 -0.0018295946
 -0.00379155252
 -0.00336287231
  0.000805451026
  0.00257235753
  0.00064879503
  0.00092122572
  0.00104787528
  0.0007072487
 -0.00278759156
 -6.76423565E-05
  0.000294564673
  0.0023388131
 -0.00214871993
 -0.00246669095
  0.00226592115
 -0.000939320405
  0.00125629438
  0.00304177314
 -0.00220122627
 -0.0030463478
 -0.00418932751
  0.00274927533
  0.00395962894
  0.00356191122
 -0.00283884555
  0.001087897
  0.000719670091
  0.00257195152
  0.000280040863
  0.00277791356
 -0.0034795495
  0.000710394448
  0.0036369478
  0.00150528633
 -0.000959269554
  8.78302203E-05
 -0.00176962881
 -0.00406646312
 -0.0033602294
  4.04952516E-05
  0.000692051525
  0.00184922595
 -0.00160625696
  0.0026736952
  0.00348461386
 -0.00324605004
  0.00187534773
  0.00263201118
  0.00401762913
  0.00389602762
  0.0038075698
  0.00405020762
  0.00242339679
  0.00354529207
  0.00339021268
  0.00380645752
  0.000411283407
 -0.000112023391
  0.00215650288
 -0.00353058189
 -0.00155601599
  0.00289885929
  0.00140171872
 -0.00212461583
  0.000283662798
 -0.00377945681
  0.00223533627
  0.00262610744
 -0.00390524544
  0.00299864716
 -0.00153056458
  0.00129861878
  0.000657758824
  0.00106875586
 -0.000258267261
 -7.95332258E-05
  0.00204461185
 -0.00260482557
 -0.00166942821
  0.00184033482
 -0.00293070411
 -0.00208376483
  0.00166863628
  0.00371459897
 -0.0027603788
  0.000836942801
  0.00329915033
  0.00187281064
 -0.00349698694
  0.00123374705
  0.00256413491
 -0.000668544335
 -7.06530951E-05
 -0.00253925647
 -0.000862637924
 -0.00496428927
  0.000188967546
 -0.00517573951
 -0.00182990147
  0.000383909838
 -0.00197061287
 -0.00300052286
 -0.00245309109
  0.00264912445
  0.00226044227
  0.001815966
 -0.00141655069
  7.20253907E-05
  0.00343304622
  0.00113592752
 -0.00230954608
 -0.00371956383
  0.00327406835
  0.0035809965
  0.0042169412
 -0.00369496637
 -0.00135263896
  0.000142470195
 -0.00135597354
 -0.00667058822
 -0.00632623942
 -0.00607967429
 -0.0107599053
 -0.0297941729
 -0.0224042705
 -0.00472147898
 -0.00608490603
 -0.00857290805
 -0.0279089265
 -0.017881881
 -0.00909428708
 -0.00201943528
  0.004226634
 -0.000704309918
 -0.00279541146
  0.00224510112
 -0.0031102502
  9.9440124E-06
 -0.00190477965
 -0.00389910996
 -0.00307603476
 -0.000193991344
 -0.00502294313
 -0.00745119266
 -0.00242660955
 -0.00184272703
 -0.0140464165
 -0.00984291975
 -0.00622769932
 -0.00703960461
 -0.0173477792
 -0.0225736503
 -0.0097059553
  0.0197615061
  0.0352849972
  0.00889960828
 -0.0171271183
 -0.024233249
 -0.017191203
 -0.0143734919
  0.000420605304
  0.000269407297
  0.000991189744
 -0.000464129406
  0.00147584988
  0.00241768444
 -0.00244093432
  0.00258750621
 -0.00165503675
 -0.00463501198
 -0.0114671312
 -0.0273139591
 -0.0123813779
 -0.0112524552
 -0.0140617834
 -0.0452812669
 -0.0635837159
 -0.0214851638
 -0.00630588354
 -0.00089941354
 -0.000542533268
  0.0141984827
  0.0271936052
  0.0095965323
  0.0178748898
 -0.00739046417
 -0.01411303
 -0.0268912395
 -0.0118929745
 -0.0142837656
 -0.00751761998
 -0.00161089049
  0.00173739633
  0.00100238393
  0.000640677147
 -0.00100865996
  0.00109533578
 -0.00444571728
 -0.0200326189
 -0.0202486699
 -0.016110005
 -0.0144196493
 -0.0235005073
 -0.0274536186
 -0.0113458316
  0.00503471053
  0.0396561979
  0.00260168835
 -0.0408631131
 -0.0287313787
 -0.0261288223
 -0.0231771705
  0.025008436
  0.0167450573
  0.00865833113
 -0.00863675045
 -0.018738135
 -0.0186078154
 -0.00693095066
  0.00304454799
  0.000101743977
 -0.00301487377
  5.27493671E-05
  0.0036325528
  0.0121559679
 -0.000133473896
 -0.0168424985
 -0.0287578109
  0.00152415652
  0.00050459994
  0.00899459838
  0.0374119081
  0.0332879822
  0.0191322314
  9.59258194E-05
 -0.035118636
 -0.0553858008
 -0.0444386283
 -0.056005246
 -0.0127899204
  0.0270289694
  0.0366782212
  0.0139121393
 -0.0180645904
 -0.0299971058
 -0.0284865042
 -0.00518551051
  0.00692711362
 -0.000489057689
  0.000978145965
 -0.00304638856
 -0.00103191396
  0.0151187647
 -0.00615339382
 -0.0203633807
  0.00719964346
  0.0382867652
 -0.00197035574
  0.0148988165
  0.0163937722
 -0.007331278
  0.0198928508
  0.0141331635
 -0.00750510256
  0.000507226012
  0.012930784
  0.0255228211
  0.0356237926
  0.0374819779
  0.0169233409
 -0.00301757581
 -0.00536476488
 -0.0132280895
 -0.00848768198
 -0.0169982389
  0.00382324456
 -0.00189198198
  0.00271963656
  0.00236472145
  0.00205770705
  0.0124357306
  0.0100231296
  0.0112814662
  0.014515273
  0.0291374501
 -0.00942220507
  0.00701181328
  0.00443134103
 -0.0400596136
 -0.00668260274
 -0.0375624894
  0.00992132045
  0.0930617252
  0.0999958837
  0.0620265678
  0.0466551598
  0.0600724922
  0.036788184
  0.0233334673
  0.0309504276
  0.00195446595
 -0.00367216812
 -0.00238401737
  0.00386909833
 -0.00395138189
 -0.00150240977
  0.00200256209
  0.0118242142
  0.0234052038
  0.027875852
  0.0287870996
  0.0145326964
  0.0117117034
  0.00803397442
  0.00285896617
 -0.0160456751
 -0.0402178068
 -0.0019011935
  0.00372671446
  0.0672768349
  0.108204044
  0.107888811
  0.0705085556
  0.0821399971
  0.0693999675
  0.0734517223
  0.049912488
  0.0286183165
  0.0142062646
  0.00578261145
 -0.00760536349
  0.00435958906
 -0.00359319808
 -0.00348252539
  0.00369755353
  0.00713150927
  0.0302775505
  0.0402632191
  0.00128458173
 -0.0323499023
 -0.0109888582
  0.0071355165
 -0.0357448165
 -0.0219578124
 -0.0447255587
 -0.00435654058
  0.0397181664
  0.0966199342
  0.078990341
  0.0734352818
  0.0870594236
  0.099079799
  0.0451520917
  0.0578856564
  0.0353752874
  0.0210690273
  0.0046257269
 -0.00567076777
  0.00284944501
  0.003230707
 -0.00135896671
  0.0037698366
  0.00305679233
  0.00183264856
  0.014756322
  0.0276145283
 -0.0299513312
 -0.0528998644
 -0.0211474388
 -0.00748461359
 -0.0276108986
 -0.0572426501
 -0.0588978744
 -0.00355528545
  0.0867068511
  0.132970944
  0.0895269124
  0.0345661218
  0.0321972623
  0.00987941572
  0.00939297598
  0.0226410791
  0.0182566605
  0.0159842511
 -0.00495752755
 -0.00276721112
 -0.00355708438
  0.00384029603
 -0.000704135276
  0.00406685647
  0.00326028926
  0.00220513227
  0.00584675018
  0.00963040996
 -0.0259159041
 -0.0327688499
 -0.0372061924
 -0.0444464184
 -0.0963889865
 -0.128868707
 -0.122187697
 -0.0203786244
  0.072568612
  0.0986507281
  0.0515002138
  0.0163939778
 -0.00248365769
 -0.0540635315
 -0.0195074099
  0.00278280192
 -0.00806551441
  0.00871051074
 -0.0108984793
 -0.00105690753
  0.00299463393
  0.00317610847
  0.00206343341
  0.00412878938
  0.00299798586
 -0.00286260803
  0.00542669578
 -0.00111493221
 -0.01158664
 -0.0240182359
 -0.0341797074
 -0.0481836126
 -0.113818271
 -0.167963841
 -0.143717939
 -0.0650286462
 -0.000981268203
  0.0327843863
  0.0191199317
 -0.00882781954
 -0.0296471718
  0.000618360076
 -5.01256109E-05
 -0.0276123969
 -0.010228124
 -0.000188920823
 -0.0118932364
  0.00222772283
 -0.00161411192
 -0.00238516219
  0.00124151936
 -0.00354500299
 -0.0033832969
 -0.00091695365
 -0.00474643199
 -0.0041423752
 -0.0352341576
 -0.0502794753
 -0.0417252628
 -0.0793241929
 -0.0999027411
 -0.114227968
 -0.0844646768
 -0.0268759153
  0.0158584481
  0.0767729648
  0.0197031655
 -0.0465541405
 -0.0102668954
  0.02272714
  0.0162287919
 -0.0209512214
 -0.0097703342
 -0.00620397033
 -0.0108120942
  0.00190446424
 -0.00111328213
 -0.000860990941
  0.000569020668
 -0.00127877468
  0.00179214476
 -0.00181494115
 -0.00232810334
 -0.0136214465
 -0.0355989328
 -0.0404002051
 -0.0374302
 -0.0507573297
 -0.0691028668
 -0.0592260722
 -0.0202653274
  0.0224543454
  0.0686421963
  0.0683214795
  0.0131871775
 -0.0243466358
 -0.0103387707
  0.0103485973
  0.0139142872
 -0.0300619963
 -0.0409864549
 -0.0447274365
 -0.0437186166
 -0.0267207674
  8.52498346E-05
  0.000315165401
  0.00213117479
  0.00171490478
 -0.00375099668
 -0.00159097509
 -0.00757308177
 -0.00975024663
 -0.0286433216
 -0.0489583378
 -0.0353304438
 -0.027416185
 -0.0264484392
 -0.00700749982
 -0.011507787
  0.00468469307
  0.0365077645
  0.0511237924
  0.0210488203
 -0.038967804
 -0.0618657213
  0.00721852161
 -0.00838944187
 -0.0399640661
 -0.0477908282
 -0.0512575702
 -0.0393192801
 -0.0202691915
 -0.00653836562
  0.00381339488
  0.00172892595
  0.00148539377
  0.000133573281
  0.00300603494
 -0.00408217559
 -0.00577661216
 -0.0272585133
 -0.0807824357
 -0.0602921482
 -0.0474839384
 -0.0425273969
 -0.0027928182
 -0.0273525208
 -0.0398710857
  0.0187467348
  0.0176388833
 -0.0230903977
 -0.0504555845
 -0.0600060838
 -0.00366022882
 -0.02659734
 -0.0366546256
 -0.0359057549
 -0.0382668256
 -0.0381899339
 -0.0186243116
 -0.0046587393
 -0.00200649716
  0.00386973875
 -0.00112711691
 -0.00241500832
  0.00715163467
 -0.00611028529
  0.00330538741
 -0.0159359844
 -0.0630308394
 -0.0895940761
 -0.083561137
 -0.0586427014
 -0.0230326955
 -0.076997503
 -0.0678758953
 -0.0279889533
 -0.0189576987
  0.00596036916
 -0.0273714781
 -0.0651654478
 -0.0317784116
 -0.0215587724
 -0.0237528956
 -0.0440749137
 -0.0399607499
 -0.0231336691
 -0.00940207956
 -0.00262859054
 -0.00195491141
 -0.000916253824
  0.000446651135
  0.000260497593
 -0.00204526548
 -0.0011580336
  0.00672426502
 -0.0137610523
 -0.0287760059
 -0.0394251799
 -0.0607041271
 -0.0553001712
 -0.0302152043
 -0.081947645
 -0.0605350058
 -0.0441790397
 -0.0198181727
 -0.000879948078
 -0.0387968688
 -0.0635402582
 -0.0155936417
 -0.0195578255
 -0.0194130998
 -0.0209698982
 -0.0291317268
 -0.0279330639
 -0.0209786027
 -0.00733573194
 -0.00220457897
 -0.00184373279
 -0.000945818111
  0.000214240672
  0.00162118301
  0.00604292371
  0.00140369637
 -0.00936681163
  0.0107740351
  0.00870959059
  0.0096613421
 -0.000366351012
 -0.0211713078
 -0.0466376396
 -0.0336403968
 -0.0410323205
 -0.0349775312
 -0.0193070059
 -0.0271911457
 -0.0339843593
 -0.0120722676
 -0.0190902453
 -0.0271554263
 -0.0324748027
 -0.0278063121
 -0.0192175869
 -0.0168394386
  0.00132369296
 -0.00380938788
  0.00389762708
 -0.00365902727
 -0.00177727454
 -0.000576187853
  0.00714781986
  0.0134982746
  0.0123424837
  0.0281382891
  0.0221893311
  0.0580946219
  0.0372932526
  0.0484089868
  0.0426746245
  0.0277863931
  0.0310239532
  0.0196692757
  0.0379871563
  0.0178555859
 -0.0132267055
  0.00143557026
 -0.0217852351
 -0.0307481899
 -0.0328848593
 -0.0186257503
 -0.0170685889
 -0.0046291003
 -0.0029139159
  0.00202456138
 -0.00377870345
 -0.00329862005
  0.00244975713
 -0.00363570495
  0.00270908027
  0.00700459512
  0.0132735203
  0.0210430223
  0.0141934369
  0.0521130884
  0.0872597994
  0.0874568128
  0.0661143358
  0.0765408138
  0.0625140294
  0.0412447971
  0.0627388489
  0.0505628327
  0.0158403461
 -0.0219248233
 -0.0394552395
 -0.0290966901
 -0.0247757233
 -0.0192310272
 -0.0242982198
 -0.00165969076
  0.00226612306
 -0.000251528705
  0.00240588631
  0.00363948237
 -0.00229915741
  0.0028490889
 -0.000298810988
  0.000932215848
  0.0188387795
  0.00187532381
  0.0011362412
  0.0478834967
  0.0789596603
  0.0533831813
  0.0539588591
  0.0784906371
  0.0729892385
  0.0786384184
  0.0513177123
  0.0294567618
 -0.00799439659
 -0.0356762377
 -0.0294379512
 -0.0179922117
 -0.0199113227
 -0.00117154683
 -0.0108153085
 -0.00146534814
  0.00270563401
  0.00122276877
 -0.00373810357
  0.000749850908
 -0.00325066585
  0.00288968883
  0.000342675764
 -1.95772018E-05
  0.0025894222
  0.00665086044
  0.0304953295
  0.0615759036
  0.0444487236
  0.03144447
  0.0333447793
  0.0358418205
  0.0285091817
  0.0422105095
  0.00274247218
  0.00292810231
 -0.0091376209
 -0.0116338179
 -0.00692009895
 -0.00763832931
 -0.00451198382
  0.00116658566
 -0.00337430838
 -0.00224090095
  0.0038078149
  0.00259281542
  0.00297249118
  0.00229154275
 -0.000406321718
  0.00345629371
 -0.00205804428
 -0.00675289224
 -0.00392818808
  0.00254002574
  0.00730061515
 -0.00208204462
  0.0126068093
  0.0165878109
  0.0142540361
  0.0221084455
  0.0310205602
  0.0102009898
 -0.000769687305
 -0.0152877121
 -0.00394742056
 -0.000781492276
  0.00387415283
  0.00217469908
  0.00394219158
  0.00244209202
  0.00121976614
 -0.00290023717
  0.00231025106
 -0.00285837851
 -0.000148745475
  0.0018961598
  0.00395634295
 -0.00139816071
 -3.42033663E-05
 -0.000671884677
 -0.00143152395
  0.00477943269
  0.00662536117
  0.00661624905
  0.0032607543
  0.00426126541
  0.000533549539
 -0.000499468571
 -0.000104094471
  0.00168914882
  0.00363835869
  0.00982144728
  0.00729804447
 -0.00680521548
 -0.00607506043
  0.000134856169
  0.000597526032
 -0.000339650582
 -0.00119205371
  0.000506825546
 -0.00211946473
 -0.0041941938
  0.00182849441
 -0.00403111977
 -0.0028306662
 -0.00254215735
  0.00208694613
 -0.00309622916
  0.000281587978
 -0.00216916328
  0.000453792323
  0.00233972073
 -0.00338387902
  0.000346826497
  0.0023000237
  0.00283213254
 -0.000523138196
 -0.00254253759
 -0.00412236952
  0.000888487291
  0.000740733299
 -0.000802536861
  5.5613593E-06
  0.00066602084
  0.00116957651
  0.000628284123
 -0.00342102909
 -0.00245480337
 -0.00393327278
 -0.000391176451
  0.00227392809
 -0.00183083144
 -0.000363464273
 -0.000119483666
 -0.00164004486
  0.00102777594
  0.00156026527
 -0.00377500473
  0.00215345294
 -0.00238005304
 -0.00172226188
 -0.00173018245
  0.00346534191
 -0.000884234739
  0.00208451146
 -0.000712800986
 -0.00556535803
 -0.00449114805
  0.00325511053
 -0.00233890878
  0.00331942035
  0.000457887598
  0.00124489744
 -0.000896924452
 -0.0030979981
 -0.00180743196
  0.00395326533
 -0.00229712097
 -4.03291658E-05
 -0.00420191345
  0.00153360849
 -0.00198830724
 -0.00181083873
 -0.00305176169
  0.00211411526
  0.000771022827
  0.00219792016
 -0.000547525889
  0.0012179241
 -0.00102187899
 -0.00129915125
  0.0103657776
  0.0100086354
  0.0037862316
 -0.00848755664
 -0.0159829849
 -0.0163792779
 -0.0112602587
 -0.00591880696
 -0.00469405101
  0.000546307656
  0.0020662644
  0.00349905864
 -0.000370248879
 -0.00212150658
 -0.003631176
  0.00204422533
 -0.00239014728
 -0.00170639087
 -0.00221800988
 -0.00237015458
  0.00404912404
  1.55889179E-05
  0.000548989782
 -0.00369151456
  0.00594015084
  0.00799856745
  0.0116683064
  1.93168897E-06
 -0.00298434552
  0.010605469
  0.0055072746
 -0.00600182829
 -0.0181004338
 -0.00749801195
 -0.01874158
 -0.0179728889
 -0.010442912
 -0.00629423191
  0.00133003936
  0.00227865601
 -0.00091887169
  0.00176175357
  0.00189803858
  0.00293278559
  0.00386215265
  0.00248876868
  0.00075510526
 -0.00274990055
 -0.003141858
  0.00492609654
  0.00168350392
 -0.00474680437
  0.00867904308
  0.00118661321
 -0.026091495
 -0.00587724614
  0.00412054362
  0.0201081017
  0.040875452
  0.014774212
 -0.0015532899
  0.0186791436
  0.00261486526
  0.00493425988
  0.0120013622
  0.00904953081
 -0.00121584055
  0.00349241843
 -8.53232735E-05
 -0.00062631349
  0.00245935286
 -0.000797472501
 -0.00308646633
  0.000135485282
 -0.00208659307
 -0.00345986979
  0.00284495405
  0.018475899
  0.00131019039
 -0.00318437117
  0.00319249128
 -0.00278422722
 -0.00696323718
  0.0172393216
  0.0251630089
  0.0447750268
  0.0630585721
  0.0606358233
  0.065557283
  0.0504219748
  0.0375307891
  0.0379510315
  0.0308930641
  0.00639315586
 -0.00875835505
 -0.0103281358
 -0.00929077135
  9.54089118E-05
 -0.00374071167
 -0.0029556419
  0.003170465
  0.00293966507
  0.000468791888
 -0.00414708163
  0.00817577226
  0.0198708983
 -0.0149892361
 -0.00458418263
 -0.00986428495
 -0.0180107015
 -0.018021305
 -0.00476638967
  0.0244939467
  0.0195016349
  0.00556610503
  0.0344614492
  0.0747343491
  0.0749139291
  0.061311542
  0.0399812844
  0.0195741665
  0.00299539443
 -0.015279966
 -0.0293148068
 -0.0342399643
 -0.00437536099
  0.0010318985
  0.00155193298
 -0.000177193715
 -0.00161684241
 -0.00104329264
 -0.00353375919
  0.00560892808
  0.0264760957
  0.00360072057
 -0.00217606103
 -0.0120367728
 -0.0334592626
 -0.0677529136
 -0.0369338093
 -0.0151743683
 -0.0120603092
 -0.00833027595
  0.0391501476
  0.0810251291
  0.0618357855
  0.07226245
  0.0351714817
  0.0146380273
  0.0170711951
 -0.017109331
 -0.0367701812
 -0.0393392159
 -0.0211234877
  0.00509385325
 -0.00105477962
 -0.00266587872
 -0.00290220151
 -0.00101102812
  6.28707363E-05
  0.0215008414
  0.0288353875
  0.0203608823
  0.00639673741
 -0.0193852351
 -0.0604120157
 -0.0542444916
 -0.0365916153
 -0.024654188
 -0.0369074644
 -0.000972154087
  0.0185982335
  0.0069199616
  0.0413653711
  0.0596024306
  0.0502469234
  0.0347181451
  0.0458372102
  0.00116098818
 -0.0269747977
 -0.0397994208
 -0.0394744359
 -0.00103056704
  0.000799786882
  0.00124173678
 -0.001220583
  0.00148268872
  0.00157968312
  0.0140877431
  0.00998147527
  0.0252134478
 -0.0143255115
 -0.0567644582
 -0.0803233211
 -0.0458204413
 -0.0182659187
 -0.0091064992
  0.00574949788
 -0.0257181864
 -0.0420185911
 -0.0434058734
  0.0103711024
  0.0417612137
  0.0785298755
  0.0538150734
  0.085122488
  0.0408609485
  0.0111705393
 -0.00971180405
 -0.0149958284
  0.000839993771
  0.000372722803
 -0.00285422158
 -0.00214222522
 -0.00640275631
 -0.00218799276
 -0.000177637697
 -0.00383719454
  0.00199381665
 -0.0132014827
 -0.0673256967
 -0.0670868473
 -0.0524928632
 -0.0592058086
 -0.0164259177
 -0.0314852541
 -0.0784868619
 -0.104588108
 -0.0500999597
 -0.009945263
  0.0510408714
  0.102293075
  0.102387391
  0.109320742
  0.0806945108
  0.0402176566
  0.00494418571
 -0.00648892302
  0.00127782119
  0.00122917717
 -0.00086382908
 -0.00123959704
 -0.00517241824
 -0.00929819924
 -0.0125724709
 -0.0166158207
  0.00467181179
 -0.00706833305
 -0.0704384824
 -0.0627216916
 -0.0469059001
 -0.034469339
 -0.0308564316
 -0.0553784337
 -0.119975547
 -0.115897721
 -0.0884066431
 -0.0251445843
  0.0284106765
  0.0902001168
  0.102844636
  0.0732432487
  0.0703254754
  0.0431938922
  0.0145131286
  0.00259770095
  0.00170325599
 -0.00412317613
 -0.00106675176
  0.0036580407
  0.00081851158
 -0.00445503012
 -0.01503256
 -0.0069400437
  0.00854974043
 -0.0109998147
 -0.0386802938
 -0.0364514258
 -0.049596371
 -0.0701551537
 -0.0322176551
 -0.0497449651
 -0.0623816747
 -0.0867407429
 -0.0873109163
 -0.0419728216
  0.00750785709
  0.0545114587
  0.0463343497
  0.0294847029
  0.0158949583
  0.0345364899
  0.0143457254
 -0.00268301052
  0.00472054394
  0.00360303005
 -0.00420271612
 -0.00340711789
  0.00501063255
 -0.00205292118
 -0.0108070383
 -0.00765376035
  0.0104012046
 -0.00927599179
  3.74842238E-05
 -0.0100372074
 -0.0337976437
 -0.0532592549
 -0.028298686
 -0.0451182232
 -0.0451866109
 -0.047158474
 -0.0742166517
 -0.0579145042
  0.00669252213
 -0.0105436468
 -0.015817251
  0.0130259132
  0.0100213204
  0.0163456806
  0.010752797
 -0.00512487932
 -6.34052128E-05
  0.00387585071
  0.00361225989
 -0.00234050913
  0.00325697459
  0.0034495342
 -0.00370760846
  0.00794477783
  0.0146937374
  0.0259351423
  0.0535163296
  0.018727407
 -0.00522310212
 -0.00504097225
 -0.0409740985
 -0.0426768264
 -0.0594587451
 -0.098764988
 -0.129126439
 -0.0849046915
 -0.0265224472
 -0.0615233327
 -0.0516763501
 -0.00329262437
 -0.003792802
  0.000549827139
  0.00537605637
 -4.1263025E-05
  0.00452143832
 -0.00014536135
 -0.000345111787
 -0.000585734189
 -0.000491416806
 -0.00241794603
 -0.000745730238
  0.0247690541
  0.0437332119
  0.0760730586
  0.0856444415
  0.0384548422
  0.0392309653
  0.0409441977
 -0.0103794264
 -0.0161481991
 -0.0601399505
 -0.102831111
 -0.0921231166
 -0.0737750498
 -0.0352976994
 -0.0525584178
 -0.0436721662
 -0.0291736994
 -0.0261145405
 -0.000384783607
  0.00223134629
  0.0103125981
  0.00546040802
  0.00397895277
  0.0023861996
 -0.00372407863
 -0.000542519742
 -0.00395475556
 -0.00393560561
  0.0476089442
  0.0532617486
  0.0606651502
  0.0623729071
  0.0550865537
  0.0745772538
  0.0484647248
  0.0147996926
 -0.0525373423
 -0.0649393559
 -0.0467433193
 -0.0444039211
 -0.0309411752
  0.00174338185
 -0.0226300528
 -0.0111420165
  0.0119626567
 -0.015973558
  0.00189700089
  0.0121269899
  0.0103110276
  0.0019366122
  0.00198871541
  0.00078729773
 -0.00189228572
  0.00183511421
 -0.00190843468
 -0.00690746133
  0.0397947827
  0.0485150154
  0.0292222351
  0.050414838
  0.0741252255
  0.116438429
  0.0884100051
  0.0231847906
 -0.00880004744
 -0.0098451432
 -0.0266026964
 -0.0279593485
 -0.029896743
 -0.00806003796
  0.0090099537
  0.0239806155
  0.0233452607
  0.00461329995
  0.0149836547
  0.0214077594
  0.0104634359
  0.00394441447
  0.00180654541
 -0.00163810316
 -0.00290229198
 -0.00123274104
  0.00205127959
  0.00753883231
  0.0300577507
  0.0410750914
  0.0409859815
  0.0873621147
  0.0939697592
  0.109105041
  0.0686919783
  0.0442506263
 -0.000465088275
 -0.0249010018
 -0.00975148215
 -0.0217508462
 -0.0214619487
 -0.0072283515
 -0.00697524044
  0.0240086978
  0.0217588761
  0.00883432099
  0.0257206356
  0.0227112384
  0.00414275446
 -0.00280648826
 -0.000976814762
  0.00376264307
 -0.00308397983
 -0.00453787388
 -0.00275478546
  0.01802533
  0.045485583
  0.0478395713
  0.0510089969
  0.0675060205
  0.0620028404
  0.0469157468
  0.039857444
  0.00165319185
 -0.0316578638
  0.0107363777
 -0.0031172124
  0.0160023422
 -0.00281378828
 -0.0235898222
  0.0152206153
  0.00527054669
  0.0100222472
 -0.0011549454
  0.00656055875
 -0.00404966624
  0.00206370602
 -0.00289341406
  0.00364297168
  0.00331352833
 -0.00147799616
 -0.00012000956
 -0.00350717901
  0.0219001756
  0.0246547107
  0.0536471681
  0.0451206338
  0.0314404034
  0.0299262376
  0.0363978635
  0.0225215919
  0.00950628757
  0.0259900288
  0.0180228638
  0.0304040228
  0.014126155
 -0.0414170417
 -0.0301463692
  0.00725545885
  0.00185087867
 -0.00601100048
  0.0161960252
  0.0125310193
 -0.00286429718
  0.00381258788
  0.00419508301
 -0.000116960922
  0.00396797047
  0.00345255577
 -0.000869216982
 -0.00283799556
  0.0126871794
  0.0396494765
  0.0465302312
  0.0391958325
  0.015707573
  0.00816360211
 -0.0010941619
 -0.0112272123
  0.00234956781
  0.015005109
  0.0128970014
  0.00492391091
 -0.0471131864
 -0.0577573454
 -0.0197051385
 -0.00823483958
  0.00452168059
  0.0154888917
  0.0267729468
  0.0167177861
  0.0102488655
  0.00432181177
  0.000288490773
 -0.000297314294
 -0.00421843912
  0.00345233382
  0.00365100892
  0.000540474061
  0.00665422447
  0.0324383783
  0.0227414196
  0.0307207641
  0.041643445
  0.0221923024
  0.0649998942
  0.0456741643
  0.0360439972
  0.0311930734
  0.00301705803
 -0.0196913462
 -0.0492553487
 -0.04296664
 -0.0298220037
 -0.0011866193
  0.0182056357
  0.0235522624
  0.0273535129
  0.00377091927
  0.00279475266
  0.00118126374
  0.00465219341
 -0.00243587009
 -0.00321585004
  0.00393820839
  0.00163228778
 -0.00752683811
 -0.0155317131
 -0.0110586398
 -0.0369052537
 -0.0321367443
 -0.0103182118
  0.00290939479
  0.0520038287
  0.074002353
  0.0810312634
  0.0729831012
  0.0612529197
  0.0242559805
 -0.0213465715
 -0.0114241981
 -0.00700662896
  0.0117080453
  0.0149848893
  0.0140879314
  0.0158723383
  0.0159451374
  0.00381181343
  0.0016600577
  0.000593234978
  0.0022957729
 -0.00227227377
 -0.00101873332
  0.00408180923
 -0.0104505573
 -0.0301157321
 -0.0474581779
 -0.0606719031
 -0.0678283502
 -0.0557030672
 -0.0237988204
 -0.00187365221
 -0.00266938586
 -0.00223576756
  0.018175305
  0.0163913311
  0.0159694287
 -0.00358577213
 -0.00211250754
  0.000397388962
  0.0154695909
  0.00716833822
  0.00911082783
  0.00254824332
  0.00413561882
 -0.00368801959
 -0.00090897096
  0.00171976355
  0.00377225844
 -0.00347081955
 -0.00190890764
  0.00184612518
 -0.00160541798
 -0.00529746083
 -0.0119732031
 -0.0169716328
 -0.018517816
 -0.0315022645
 -0.0330884512
 -0.0277250623
 -0.024515268
 -0.0172088968
 -0.0222997802
 -0.0186576475
 -0.0167411119
 -0.0170065015
 -0.0246111961
 -0.012869052
  0.00894822349
  0.00158217303
  0.00301725089
  0.00269718804
  0.000316726738
  0.00167541966
 -0.000983600376
  0.00204442966
  0.00181956
  0.00232933483
 -0.000457712956
  0.00136991227
  0.00304793351
  0.00196094797
 -0.000635982418
 -0.00223511145
 -0.000586115576
 -0.00344744216
 -0.00221452705
 -0.00580064067
 -0.00297314968
 -0.00198323675
 -0.0125175651
 -0.0118423501
 -0.0107069255
 -0.0105203936
 -0.0165278106
 -0.00138302604
 -0.0033402216
 -0.00118131055
  0.00421333521
 -0.00033848924
 -0.00104936106
  0.00276997516
 -0.00229127965
  0.00293117355
  0.000101260525
  0.000947026008
  0.000753697054
 -0.00230108539
 -0.000945545076
 -0.00392592178
  0.00330520736
 -0.00216353812
  0.00184050858
 -0.00242825596
 -0.0009134068
 -0.0034123204
 -0.00146138087
 -0.00208394442
 -0.000596671977
  0.00189909949
 -0.00260438736
 -0.00445988705
  0.00281334664
  0.00391787933
  0.00264664039
  0.00351664175
  0.00298207635
 -0.00137735141
 -0.00208420798
  0.00292164425
  0.00250606577
  0.00108833738
  0.00146971326
 -0.00400712018
 -0.000202395228
 -0.002650932
  0.00116181225
 -0.00367060409
 -0.000730111102
 -0.00400563901
 -0.00337461974
 -0.00166128447
 -0.0018707625
  0.00299855659
  0.000623579868
  0.00182334827
  0.00407747137
  0.00360860399
 -0.00415452357
 -0.000146041044
  0.00190462816
 -0.00173894671
  0.000629870495
  0.000989377898
 -0.00191547256
 -0.000906555418
  0.000284112986
 -0.00315530237
  0.00193799934
  0.00242181142
  0.00398824804
  0.00022215894
 -0.00071175761
  0.00123605564
  0.000436944676
  0.00330775307
  0.00280702942
 -0.00262314911
  0.0038590554
 -0.00214498772
 -0.00240688194
 -0.00376983489
  0.000214975023
 -5.5738409E-05
  0.00348456817
 -0.0036320558
 -0.0032993704
  0.00338687038
 -0.003716532
 -0.00232197191
 -0.00102938999
  0.0023305397
  9.60459333E-05
  0.00382238667
 -0.000901988812
  0.00240247954
 -0.00130607491
  0.00360403059
  0.00346908332
 -0.00358998174
  0.00180393585
  0.0032354252
  0.000854083364
 -0.00312972817
  0.00024957468
 -0.002930878
 -0.00404388112
 -0.00116530181
 -0.00133212095
  0.00381379445
  0.000463448022
 -0.00106753194
 -0.00541542923
 -0.00456213213
 -0.00366191322
  0.00368805609
 -0.0030638883
 -0.0013535939
  0.00378211874
 -0.00107326212
 -0.000597477716
 -0.00262805087
 -0.00329311922
  0.00412581342
 -0.00275156266
 -9.7915154E-07
  0.0023063868
  0.000164268462
 -0.000618854725
  0.00155356396
  0.000796192885
 -0.00303682529
  0.000567083503
 -0.00257566346
 -0.00296365766
 -0.0033269607
 -0.00123580492
 -0.00317369006
 -0.0017048956
 -0.00061437554
 -0.00699808984
 -0.0148462737
 -0.0107093651
 -0.00917027328
 -0.00765941987
 -0.00549778695
 -0.00718688265
 -0.00607717171
 -0.00336658105
 -0.00386079385
  0.00284950011
 -0.0039219244
 -0.00154393249
  0.00372816717
 -0.00401801711
 -7.35891141E-05
 -0.00049471814
  0.00251027579
 -0.00413122664
  0.00287178994
 -0.000867656004
 -0.000977420443
 -0.0087165625
 -0.00594174229
  0.0012404506
 -0.0053157522
 -0.00769053764
 -0.010538899
 -0.0152514544
 -0.0265337546
 -0.0232483517
 -0.0195524492
 -0.0205341351
 -0.0191507171
 -0.0211198743
 -0.00980720556
 -0.00934366754
 -0.00363952063
 -0.00215646917
  0.00293048699
 -8.22678544E-05
 -0.00225164641
  0.00404726489
  0.00259570582
 -0.0027453854
 -0.00419265843
 -0.00167041994
 -0.00248293051
 -0.00557877871
 -0.0159805639
 -0.0159973164
 -0.0134679509
 -0.00871482052
 -0.0219543389
 -0.0285806775
 -0.0225282033
 -0.0378385832
 -0.0540160924
 -0.0523805252
 -0.045237684
 -0.053856038
 -0.0435345052
 -0.0382565609
 -0.0252672146
 -0.0158202274
 -0.0107195074
 -0.00232290912
 -0.0039225705
  3.55347557E-05
 -0.00482817229
 -0.00321207926
 -0.00249244333
 -0.00188894462
 -0.00338672054
 -0.00430697606
 -0.00740528367
 -0.0181616344
 -0.0213408491
 -0.0182442666
 -0.00262376411
 -0.0129232986
 -0.0248932078
 -0.0347106127
 -0.0214802972
 -0.0152627203
  0.00468414972
 -0.00931983611
 -0.00669873077
 -0.0146874521
 -0.0362028761
 -0.0299247736
 -0.0361134395
 -0.0320233094
 -0.0234184058
 -0.00938018537
 -0.00315790586
 -0.00306026638
 -0.00419285771
 -0.000871200747
 -0.00111403338
  6.92708822E-05
  0.00389054171
 -0.000340753442
 -0.00367441473
 -0.0205860489
 -0.0169303479
 -0.00370667748
 -0.00115728197
  0.000932481222
 -0.00226335612
 -0.007525941
  0.011304976
  0.0411669721
  0.0460052422
  0.0423393894
  0.0354842624
  0.0207419293
 -0.00688919675
 -0.00563186014
 -0.0236305281
 -0.0335142045
 -0.023782685
 -0.0182046024
 -0.00665423102
 -0.00746681309
 -0.0047725755
  0.00114383122
  0.00302285546
 -0.00375175866
  0.00140969816
 -0.00237486191
 -0.0109753955
 -0.0122464088
 -0.00484601202
  0.0216127097
  0.0143681945
  0.00623125657
 -0.00348971392
  0.0155443055
  0.0340546426
  0.0297521798
  0.0185131188
  0.0366450659
  0.0278560675
  0.0311454476
  0.023500236
  0.0158710127
 -0.00398592324
 -0.0228775401
 -0.0226848402
 -0.0146684107
 -0.00482383146
 -0.00604577199
 -0.00512652947
  0.00248527635
 -0.000570464105
  0.00327241336
  0.00232116508
 -0.000367332271
 -0.00465953546
 -0.00663439265
  9.28954299E-05
  0.012176481
 -0.00170377243
 -0.0139959218
  0.00312311391
  0.0157873597
  0.0241407571
 -0.0112149381
  0.0277500619
  0.0512178509
  0.026142216
  0.0268378863
  0.0268742645
  0.015600283
  0.00876930153
 -0.013420081
 -0.0256766245
 -0.0125739689
 -0.00584019741
 -0.00297738639
 -0.00285684063
 -0.00138745572
 -0.00421448527
 -0.00257555029
  0.00332285046
  0.00644574943
  0.0105843849
  0.00204581159
  0.0077884828
  0.0104732043
  0.00039785665
 -0.0070729957
  0.0201647242
  0.0419068297
  0.011783465
 -0.00466193409
  0.00626567341
  0.0176740904
  0.0131782484
  0.0270015548
  0.035568646
  0.0279427326
  0.0222583043
 -0.00792739892
 -0.0130754922
  0.00355340318
 -0.000341079559
  0.000177776219
  0.00332827058
 -0.000783385653
 -0.00153647247
 -0.00371610843
  0.00703154469
  0.0109346854
  0.0145163402
  0.000862390786
  0.00443778764
  0.0159707016
  0.0243233837
  0.0128289247
  0.0264826429
  0.0128291686
 -0.00810574869
 -0.0111590134
  0.00500172896
  0.0121130421
  0.0339955997
  0.0394201005
  0.035575082
  0.0108810179
  0.0213693152
  0.0149544202
 -0.00230682522
  0.000710113489
 -0.0017607264
  0.00376883909
 -0.0037719347
 -0.000780284126
  0.000193666159
 -0.00402755976
  0.00380251703
  0.0108494907
  0.00759650219
 -0.0150588464
 -0.00578865835
  0.0123959367
  0.0196316353
  0.0159390969
  0.00989124538
 -0.000398338943
 -0.0341148447
 -0.045645347
 -0.0217818853
 -0.00641818865
  0.0324314673
  0.026874516
  0.0146342996
  0.00849815264
  0.0182013752
  0.00678151023
  0.00491249596
  1.28752698E-06
 -0.00694662103
 -0.00353043312
 -0.00130192803
 -0.000521303954
 -0.00300702043
  0.000180413515
  0.00275939104
  0.00263344199
  0.00782282708
 -0.000169099339
 -0.00747407629
  0.00877095988
  0.021445476
  0.0240536741
  0.00632212271
 -0.0292636222
 -0.0583015551
 -0.055640677
 -0.0296568639
 -0.0117171143
  0.0191188608
  0.00966343758
 -0.00121671951
  0.00720503227
  0.0132769829
  0.000940932132
  0.00299688268
 -0.0063394183
 -0.00930953149
  0.000174641927
  0.000325245482
 -0.0040752186
  0.00275324025
  0.00375611389
 -0.000374616434
  0.0046687187
  0.00507017359
  0.00323031405
  0.00288948948
 -0.00237498767
  0.0191385825
  0.0032776117
 -0.00622750561
 -0.0289686057
 -0.0552633099
 -0.0423530194
 -0.0316856418
 -0.0155252716
  0.0353629357
  0.0157661166
  0.0256723406
  0.0204674321
  0.0132011616
  0.00457903425
  0.00383862796
 -0.00603314946
 -0.00165421046
  6.88366806E-05
  0.00293437785
 -0.00225719859
 -0.00279634532
 -0.000815074832
 -0.00211051094
  0.00438220047
  0.00258553604
  0.00734309445
  0.00544839069
 -0.00985226198
 -0.0308413678
 -0.027337275
 -0.0250896622
 -0.0344837451
 -0.0461895473
 -0.0459679577
 -0.0283770167
  0.00739323696
  0.021977497
  0.0502216566
  0.0375086034
  0.0174405987
  0.0109721213
  0.00514879653
  2.60893909E-05
 -0.00397885481
  0.000392316618
  0.0011014999
 -0.00483694813
  0.00103980911
 -0.00309990922
  0.00362107301
  0.00329432134
 -0.00129467314
  0.00160477064
 -0.00791926829
 -0.00243059151
 -0.00628454064
 -0.00683269929
 -0.0100930722
 -0.00951364181
 -0.0229502206
 -0.0221951324
 -0.00938836435
 -0.00193857793
  0.015105387
  0.0120968461
  0.0337196433
  0.0181861675
  0.0180391729
 -0.00212538641
 -0.0325368074
 -0.0248410388
 -0.0234591292
 -0.0165799952
 -0.0052902767
  0.00292997175
 -0.00278098527
  0.00176004188
 -0.00411652558
  0.00265207937
  0.00447411945
  0.00497610429
 -0.00718094587
 -0.0122268513
 -0.0101369778
 -0.00713392889
 -0.00121707283
 -0.022190057
 -0.0252853172
 -0.016144893
 -0.0113968806
  0.00789740493
  0.0127615844
  0.00469158991
  0.00707397266
 -0.00242324693
  0.00108415835
 -0.0293766537
 -0.0380260518
 -0.0274741308
 -0.023428301
 -0.0156663623
  0.0011887874
 -0.000247697659
  0.00326756131
 -0.00355635307
 -0.000734746156
 -0.00164328816
  0.00619747878
 -0.00262182656
 -0.00670201961
 -0.0160390416
 -0.0232239914
 -0.030785023
 -0.04292392
 -0.0574170365
 -0.0484516759
 -0.0464002546
 -0.0229470083
 -0.00249344049
 -0.00351394725
 -0.0239695336
 -0.00961482509
 -0.018227316
 -0.00650128274
 -0.0258209988
 -0.0259053892
 -0.0233842992
 -0.0181416406
 -0.00581945289
  0.000877944525
  0.000204680167
 -0.000427753334
  0.00193361719
  0.00417888842
  0.00144492546
  0.00675290497
 -0.00588649411
 -0.0108063832
 -0.020510332
 -0.0210568006
 -0.0444529117
 -0.0562489673
 -0.0652632055
 -0.0556159784
 -0.0475332889
 -0.0246290539
 -0.0356139643
 -0.0311852005
 -0.0271789416
 -0.0117989822
 -0.0279041121
 -0.023441984
 -0.0225587832
 -0.0239774133
 -0.0192169388
 -0.0108716554
 -0.00430449712
  0.00140566836
  0.0034973003
 -0.00223310393
 -0.000894401709
 -0.000519925693
  0.00134626456
 -8.98833699E-05
 -0.00367833102
 -0.0144115307
 -0.0154576758
 -0.0307511676
 -0.0475988995
 -0.0336682289
 -0.0462461725
 -0.0547291858
 -0.0317651036
 -0.0354779117
 -0.0323835129
 -0.0197404156
 -0.0346837709
 -0.0276757474
 -0.028857858
 -0.0196663033
 -0.0103691218
 -0.0141620808
 -0.00834591677
 -0.00781131545
  1.27188659E-05
  0.00349120582
  0.00123468756
  0.00346583458
  0.000695798522
  0.000891264951
 -0.00283909962
  0.00516568122
 -0.00544880467
 -0.00604828525
 -0.0197154083
 -0.0276040619
 -0.0302671474
 -0.0195680088
 -0.0282203463
 -0.0194809156
 -0.020602536
 -0.0305219445
 -0.0159064642
 -0.0321575086
 -0.0358927259
 -0.0265306032
 -0.0372634417
 -0.0140946515
 -0.00263382107
 -0.0116451352
 -0.00532104504
  0.00149914891
 -0.00423482464
 -0.00144025699
 -0.00291019398
  0.00201094172
 -0.00180383091
  0.0037518938
  0.00142994735
  0.00400490458
 -0.00190571531
 -0.00359771394
 -0.00354785188
 -0.0183096503
 -0.0111171041
 -0.00351653005
 -0.0331910677
 -0.00480157022
  0.00332817371
 -0.0183358561
 -0.0132727352
 -0.0289715233
 -0.0338007717
 -0.0307380861
 -0.0351273002
 -0.0225415128
 -0.013196097
 -0.00655569042
 -0.00591743496
 -6.97352677E-05
  0.00364574179
  0.000404664274
  0.00158445336
  0.00391622768
  0.0036380807
  0.00409636489
  0.00171882884
 -0.00255139112
  0.000861654442
 -0.00295834576
  0.00310621297
  0.0102037903
  0.0065518786
  0.00454641131
 -0.0132855015
  0.00388124792
 -0.00461452255
 -0.0356441402
 -0.0236053218
 -0.0176213105
 -0.0138037864
 -0.0233290081
 -0.0365148149
 -0.0235923117
 -0.00688759605
 -0.00874631256
 -0.00779184859
 -0.0063548058
 -0.00221309706
 -0.00421129049
 -0.000643647567
 -0.00421670212
  0.00057940053
 -0.00290521182
  0.00392143171
 -0.00118177836
 -0.00527801856
  0.0105497369
  0.0177194117
  0.0227592527
  0.0221790233
  0.0135061929
  0.0344850688
  0.0423915815
  0.0300799153
 -0.00513975012
  0.0164503162
  0.0101481255
  0.0119413845
 -0.0106845824
 -0.0165391138
 -0.0188811096
 -0.00484331829
  0.00615607514
  0.00089210535
  0.00220913876
 -0.00259671429
 -0.000962093517
  9.74536366E-05
 -0.0027475498
 -0.000951477864
  0.00367571223
 -0.00274234578
  0.00346986988
 -0.00396111961
  0.00785476232
  0.0174333798
  0.0262552301
  0.0243107042
  0.0143742649
  0.045670042
  0.0558235363
  0.0475786454
  0.0544740458
  0.0589950358
  0.0423481555
  0.0361910018
  0.0201542655
 -0.0041802953
 -0.00952201517
 -0.00300614653
  0.00395442156
  0.00253177848
  0.00032318466
  0.00154330891
  0.0022252141
 -0.00327786655
  0.00160196389
 -0.00295878545
  0.00104149312
  0.00307632
  0.000862951442
  0.0044019696
  0.0011562166
  0.00333826191
  0.000113241765
 -0.00458891096
  0.00631493469
  0.00969393889
  0.0156183827
  0.00816387195
  0.0117916444
  0.0152547518
  0.00260295139
  0.00193960267
  0.00765734184
  0.0136057003
  0.00702961862
  0.00160117133
 -0.00323201403
  0.00217077972
  0.00261569953
  0.00340337473
 -0.00167111625
 -0.00352622937
  0.000233496564
 -0.00366780831
 -0.00258218983
 -0.00238644583
 -0.0024046876
  0.00268120983
 -0.00370516183
  0.00205014229
 -0.000659469182
 -0.00230508696
 -0.0012108879
 -0.00334829198
 -0.00122316461
 -0.00148781281
  0.00517292842
 -0.000667801703
 -0.0014018987
 -0.00344364852
 -0.00294098121
  0.00340854711
 -0.00117083501
  0.00326768763
 -0.00242516045
  0.00122388004
  0.000827584116
 -0.00138786867
 -0.000827246408
 -0.000778622764
 -0.0022064001
  0.00172354376
 -8.29460382E-05
  0.00224900263
  0.00227764136
  0.00155677042
  0.00408446308
  0.00409486006
  1.60740899E-05
 -0.00366947508
  0.00200181556
  0.00319258361
 -0.00264562682
  0.00407024261
  0.00341298657
 -0.000108718535
 -0.00274207929
  0.00263893796
  0.00230321758
 -9.42023804E-05
  0.0034276902
  0.0030951642
  0.00335751994
 -0.00390792283
  0.00214094567
 -0.00328954667
  0.00153786331
 -0.00125337638
 -0.000455509047
 -0.00351128901
  0.00218990727
  0.00155999702
  0.00243416066
 -0.00211494506
 -0.000412906267
  0.000489895863
  0.0036637314
 -0.000550349348
  0.000362849755
 -0.0013858402
 -0.00522910505
 -0.00185724085
 -0.0019099967
 -0.00155625845
 -0.0068224613
 -0.00365609255
 -0.00442289234
 -0.00135872125
 -0.00396331113
  0.00377285987
  0.00359862575
  0.00368628536
  0.00264611791
  0.00273423953
  0.00400026863
  0.000565157411
  0.00366659915
  0.00131622578
  0.00353368719
 -0.00101081606
  0.00202684318
  0.0015016883
 -0.0036727252
  0.000239097683
  0.00360864929
  0.000136274441
 -0.00349291255
 -0.00393112512
 -0.0102208722
 -0.00409998786
 -0.00653937195
 -0.0140641894
 -0.00200661211
 -0.00513274667
 -0.0206789304
 -0.0121985156
 -0.00346597891
 -0.00484079579
 -0.00591516426
 -0.000813819414
 -0.00205068123
  0.000295245771
  0.00250148834
 -0.00361073014
 -0.00119242086
  0.00227985081
  0.00117633318
 -0.00174772787
 -0.000625829576
  0.000488114214
  0.00146336223
 -0.00279527954
 -0.00450658151
  0.00164885261
  0.000843999657
 -0.0172790805
 -0.0188888951
 -0.011401883
 -0.0240233969
 -0.0383771627
 -0.0301402292
 -0.0285440271
 -0.0336788494
 -0.037114771
 -0.0325728457
 -0.0261377875
 -0.013005368
 -0.001587922
 -0.00333134389
 -0.00338213147
  0.00102225031
 -0.00113171976
  0.00113502059
 -0.00069816751
 -0.000520543734
  0.00416450589
 -0.00264022286
 -0.00325990654
 -0.00141524603
 -0.00250817241
 -0.0120962238
 -0.00530834683
  0.0077684249
  0.00334955825
 -0.0066313445
 -0.0126131402
 -0.0324991501
 -0.0634322453
 -0.0689925927
 -0.071551546
 -0.0840550275
 -0.0731904519
 -0.0609908197
 -0.0302727113
 -0.00174874899
  0.00883900486
 -0.000754488121
 -0.0041562203
 -0.00360128394
  0.0018256166
  0.000617886646
  0.00164287234
 -0.00352800932
 -0.00246899893
 -0.0032241396
  0.00154972465
 -0.00118323679
 -0.0115199296
 -0.0147442135
 -0.0078063227
  0.00244795345
  0.0012020851
  0.00426786283
 -0.000133397957
 -0.0378391061
 -0.0662282519
 -0.0752642021
 -0.0543660512
 -0.0404418102
 -0.0646972316
 -0.0539236527
 -0.015654506
  0.0232059654
  0.0436590426
  0.0331852164
  0.0279778813
  0.0122151586
  0.000282985299
  0.000332740405
  0.00390779958
 -0.000891106163
 -0.00327127905
  0.0025196788
  0.0029738515
  0.00344950988
 -0.0146208204
 -0.0150970719
 -0.00751413453
  0.00117506878
  0.00169447886
 -0.0121061253
 -0.0431225392
 -0.0628037068
 -0.0769814218
 -0.0558456718
 -0.0229789049
 -0.00876218271
 -0.00911257764
  0.0169558442
  0.0253900623
  0.0459977379
  0.0627832123
  0.0703556783
  0.0514838142
  0.0127172055
 -0.00663726038
 -0.00369514514
  0.00199809121
  0.00166817829
  0.00348417566
  0.000148870355
 -0.00579821512
 -0.00511055533
 -0.0201886068
 -0.0237589491
  0.00362086001
 -0.0107833399
 -0.0278125811
 -0.0481841017
 -0.0481709405
 -0.031386556
 -0.0274380037
 -0.0269954209
 -0.00174952498
  0.0207409479
  0.0315430264
  0.0466816147
  0.0587407533
  0.0495823706
  0.0755390761
  0.0796283427
  0.0590160903
  0.0179587728
  0.002151838
 -0.00388649111
 -0.00325640128
  0.00104989002
  0.00133168114
 -0.00249623049
 -0.00672621399
 -0.0132882775
 -0.0253749378
 -0.0347705612
 -0.0130266716
 -0.0160172266
 -0.0248916391
 -0.0196487888
 -0.038650519
 -0.0278412864
 -0.0367028094
 -0.0463421658
 -0.0180296396
  0.0110948724
  0.0148627645
  0.0327138175
  0.0554079949
  0.0367761639
  0.0336431922
  0.0399351829
  0.0394624874
  0.0400766448
  0.00507102426
  0.00318203112
  0.00327517659
 -0.00342529557
 -0.00532592262
 -0.0132941822
 -0.0149674743
 -0.0245008755
 -0.031715838
 -0.02122484
  0.00634391211
 -0.0109767342
 -0.0186803347
 -0.0192551401
 -0.0268508843
 -0.00969246159
 -0.0488977905
 -0.0853242108
 -0.049786624
 -0.0230183877
  0.00790676645
 -0.0160922371
 -0.0199680443
 -0.0106004219
 -0.0187160433
 -0.00376052018
 -0.000526062125
  0.0162710434
  0.00161420011
 -0.00285794593
  0.00412603336
 -0.00218107128
 -0.0179552493
 -0.0200525979
 -0.0249230778
 -0.030935174
 -0.0216689644
 -0.00300159295
  0.00841965842
 -0.0120051388
  0.0109066378
  0.0290879627
  0.0217705735
 -0.0291653302
 -0.0490109095
 -0.0618373167
 -0.04367923
 -0.0454156423
 -0.0334624173
 -0.0419253099
 -0.078192235
 -0.0538375949
 -0.0350901466
 -0.0296907022
 -0.024558806
  0.0120860137
 -0.00140313181
  0.000531934706
 -0.00202839433
  0.00241585196
 -0.00889086598
 -0.0302895342
 -0.0315801173
 -0.00941862978
  0.0114557815
  0.0241848282
  0.0267558672
  0.0453614676
  0.0301391882
  0.0655464452
  0.019225653
 -0.0427942445
 -0.0672247066
 -0.0557019709
 -0.0317840634
 -0.0496155629
 -0.0513044434
 -0.0510480333
 -0.088523058
 -0.0649371645
 -0.0532345984
 -0.0417573354
 -0.0256610044
  0.00232317292
 -0.00308808443
  0.00259774163
  0.00139959685
 -3.3342488E-05
 -0.00346936361
 -0.0129404603
 -0.012217202
  0.00386862849
  0.0351903099
  0.0558356383
  0.0481689526
  0.0488182562
  0.0744634143
  0.0895228511
  0.026785707
 -0.0302940913
 -0.0643218715
 -0.0485077069
 -0.00816519892
 -0.00126207601
  0.0127163295
 -0.0223271708
 -0.0691223715
 -0.0638359389
 -0.0519246464
 -0.0384115913
 -0.0298309908
 -0.00236605151
  0.000416374169
  0.00257993471
 -0.00282071565
  0.0018486069
 -4.52224768E-05
  0.00154056914
  0.00239368207
  0.00904230351
  0.0349263452
  0.078255136
  0.0614905785
  0.0889993235
  0.114853045
  0.12343297
  0.0600326583
  0.0390086653
 -0.00525190614
 -0.00888798404
  0.0223037091
  0.0597019991
  0.0444832955
 -0.0187373063
 -0.0384055334
 -0.0307288455
 -0.0378499095
 -0.0353660787
 -0.020025149
 -0.00560713586
  0.00275019226
 -0.00386227004
  0.000992867714
 -0.000907664166
  0.00293957045
  0.0013869101
  0.00964715082
  0.000679139174
  0.0385634594
  0.0704846107
  0.0482510247
  0.0785915134
  0.114201807
  0.123969204
  0.108746587
  0.0946965459
  0.0449531462
  0.0345294468
  0.0929954019
  0.101192797
  0.0136954869
 -0.0299798594
 -0.00974093994
  0.00354638113
 -0.0172805107
 -0.0314765283
 -0.0213544642
 -0.00705971796
  0.00385637759
  0.00274573368
 -0.00188089852
  0.00262544928
  0.00310536992
  0.00706870481
  0.0145554375
  0.0104079762
  0.0239235333
  0.0460666819
  0.0674466076
  0.0595958773
  0.0809690189
  0.0827784437
  0.077848883
  0.0703679277
  0.0152188277
  0.0220597869
  0.0684279546
  0.0566640069
 -0.0290777028
 -0.0248183777
 -0.00916298528
  0.00494978437
 -0.020983893
 -0.0318595992
 -0.0185691397
 -0.00563386361
 -0.00597844745
 -0.00147873046
  0.00271838085
 -0.00226998795
 -0.00359002988
 -0.000304607466
  0.0212341681
  0.00311695646
 -0.000325138656
  0.0527107167
  0.0356076245
  0.0228593661
  0.0177134784
  0.00634772792
 -0.0164517374
  0.00350473965
  0.000771908859
  0.0273318844
  0.0615461297
  0.026594908
 -0.0645342231
 -0.0672038653
 -0.0447014054
 -0.0351662369
 -0.00276625018
 -0.00315702702
 -0.00780266711
 -0.00193456171
 -0.000155728398
  0.00322569459
  0.000391869985
  0.00386150945
 -0.00240863392
  0.00184040838
  0.0125054453
 -6.46735951E-05
 -0.00477335242
  0.0125176676
 -0.0332412886
 -0.0447146799
 -0.0600274161
 -0.0840517803
 -0.0551671087
  0.0035554945
  0.00456523768
  0.027476269
  0.0564762539
  0.0269991812
 -0.0352457655
 -0.0736161835
 -0.0698313002
 -0.0253437614
  0.00598556826
  0.00156551567
 -0.0121343098
 -0.00506269966
  0.00110183966
 -0.00326377455
 -0.00352341346
 -0.00135052125
  0.000901803888
  0.00262086228
 -0.00617318481
 -0.0138119525
  0.0202820938
 -0.00749018213
 -0.0600702521
 -0.0632434394
 -0.0962806245
 -0.0780057535
 -0.0458707529
 -8.84492528E-05
 -0.000424853143
  0.00757614655
  0.0180466517
  0.00457583434
 -0.0535694523
 -0.0508135115
 -0.0219967819
  0.0136337403
  0.00628024151
 -0.0107784468
 -0.0177531538
 -0.00500822429
 -0.00111525134
  0.00138761098
 -0.000966596708
  0.00420849448
 -0.00386106889
  0.00203575651
 -0.0179371067
 -0.0215152163
 -0.000605652793
  0.0193245734
 -0.0127949297
 -0.0639008004
 -0.101814651
 -0.087120098
 -0.0651882419
 -0.0224664067
 -0.0275989027
 -0.0191394786
 -0.0140009862
  0.000142267674
 -0.0362648954
 -0.0352077958
 -0.0169148164
  0.016688161
  0.00785021148
 -0.00828270236
 -0.00150493498
 -0.00338027696
 -0.0039185079
  0.00274560282
 -0.00271659807
 -0.000811853018
 -0.000581918481
  0.00410032384
 -0.0166069585
 -0.0139715354
 -0.00748641153
  0.0153605304
 -0.010272466
 -0.027926531
 -0.0844994051
 -0.0817430908
 -0.106337505
 -0.0796943648
 -0.030514209
 -0.045359436
 -0.0138424418
  0.0158186514
 -0.0360315028
 -0.0253724994
 -0.00630280422
  0.00907922976
  0.00316727287
 -0.00864911026
  0.000209824897
 -0.00161274917
 -0.00184789935
 -0.00317399848
 -0.000395597605
 -0.00143431885
  0.00318850281
 -1.37608247E-05
 -0.0132056961
 -0.0234140492
 -0.0207014212
 -0.013638461
 -0.0278310557
 -0.0443657984
 -0.0426251371
 -0.0620293437
 -0.0912596408
 -0.06851809
 -0.00441155433
 -0.00197862338
  0.0178943605
  0.0219170161
  0.000742852604
 -0.00339680198
 -0.00272006261
  0.00737114458
  0.000274930321
  0.0028430715
  0.00102024169
 -0.00373815384
  0.00421246683
  0.00403480291
 -0.000537622894
 -0.00197078972
 -0.00432668795
  0.000604834594
 -0.0116340938
 -0.0380616622
 -0.0279361142
 -0.0330633622
 -0.0581600613
 -0.0425147138
 -0.0592814303
 -0.0264462732
 -0.0286831426
 -0.00542717303
  0.00403174212
 -0.0257915521
  0.00146667912
  0.0349227367
  0.0332842263
  0.0117558493
 -0.000746953657
  0.00583480879
  0.00558878916
  0.00393335588
  0.00503905831
  0.00327144117
 -0.00246339481
 -0.00139249215
  0.0040140603
 -0.00258781536
 -0.00189214259
 -0.00367640682
 -0.00715165578
 -0.0217235548
 -0.0130693147
 -0.00137989133
 -0.0312409217
 -0.0325207344
 -0.0179813991
  0.0120729028
  0.00560467684
  0.0140578645
  0.00796521981
  0.00272405447
  0.00434466753
  0.0261555197
  0.0241908838
  0.0141259962
  0.00432012353
  7.28295988E-05
  0.00551206969
  0.00812305574
  0.0048563015
  0.000701003552
 -0.00274630755
  0.00245650474
 -0.000202021787
 -0.000879144207
 -0.00315789344
 -0.00177400611
 -0.00165261865
 -0.00177733948
  0.0232249989
 -0.000130835526
 -0.0356077097
 -0.0281405326
  0.00174507517
  0.00670073617
 -0.000942809875
 -0.00710938318
 -0.0411992278
 -0.0458601282
 -0.0260478504
 -0.000222266333
  0.0211336155
  0.00626980809
 -0.00248378634
  0.00200779859
  0.00310772366
  0.0022920838
  0.000929817724
 -9.78779105E-05
 -0.00300985999
 -0.00118395753
 -0.0036187804
 -0.00153426151
 -0.00294935895
  0.000166699562
  0.000369334267
  0.00135170279
  0.00500885888
 -0.0276110783
 -0.0449825686
 -0.0152538059
 -0.0137531688
 -0.0119915978
 -0.0207654471
 -0.0177337724
 -0.0281289587
 -0.00695817288
 -0.00928299093
 -0.000570881861
  0.00990591078
 -0.00185880102
  0.00602018849
  0.00175695457
  0.00527150482
 -0.000434030362
 -0.00080439358
 -0.00260034012
 -0.00051127866
  0.0023872404
  0.00152368813
  0.000700767508
 -0.00301862354
  0.00280242021
  0.00891520059
  0.000201062198
 -0.00246445943
  0.00128918996
  0.00843470015
 -0.00501288832
 -0.00781928229
 -0.0129065663
 -0.0219575341
 -0.0189136756
 -9.77301606E-05
  0.00708853875
  0.0161528841
  0.00657111681
 -0.00447647528
 -0.00265154414
  0.0047454408
  0.00234349831
  0.0041135885
  2.62939054E-05
 -0.00184476705
  0.0028386723
  0.00100741381
  0.000958042532
 -0.00398357397
 -0.0037257711
 -0.000876623226
  0.00176202031
  0.00119690266
 -0.000295149485
 -0.00189107383
 -0.00139406677
  0.00181439109
  0.0018998569
 -0.00313607805
 -0.00178819857
 -0.00557775111
 -0.00557091749
  0.000115512037
 -0.00437659669
 -0.00419982426
 -0.000871273878
  0.00481598407
 -0.000658011178
 -0.00179930331
  0.000892367157
  0.0022512624
 -0.00256135499
 -0.00132339314
  0.00214294474
  0.00168684483
  0.00105374623
  0.000759711374
 -0.00152764752
 -0.00221011728
  0.000998043553
 -0.00103151262
  0.00113516553
 -0.00146184255
 -0.00405651599
 -0.00276008085
  0.00242699179
  0.000528799207
 -0.00417949752
  0.000399931691
  0.00186721456
 -0.000786524424
  0.000892025423
  0.00252217811
 -0.00342590239
  0.00273917278
 -0.00296842787
  0.00115469169
 -0.00227865939
 -0.00228074994
  0.00357729429
  0.0028356138
  0.00419241888
 -0.00320596686
 -0.0027096855
  0.00211345745
  0.00270278438
  0.00256596689
 -0.00134873759
 -0.00304676943
 -0.00386605664
  0.00387121188
  0.000143623991
  0.00149101553
 -0.00181253658
  0.00033238999
  0.00309777007
 -0.00360745114
 -0.00335136101
  0.00314378872
  0.0013051493
  0.00302572485
 -0.00186237307
 -0.00225234139
  0.00100529999
 -0.00121717747
 -0.00379822788
  0.00225877854
  0.00415942014
 -0.00185498108
  0.00419993452
  0.00351480827
 -0.00324127344
  0.00417044723
 -0.00391306482
 -0.00172905278
  0.00206199852
  0.00301162554
 -0.00338499211
 -0.0035086451
  0.0041867624
 -0.00302914256
 -0.00385933926
  0.000323144144
  0.0030054402
 -0.00432206347
 -0.00718506592
 -0.0009356213
 -0.000301081162
 -0.00157009466
  0.000602923597
 -0.00170436229
  0.00610978307
  0.00320839699
 -0.00155511622
  0.00108747717
 -0.00298820095
 -0.00171294421
 -0.00121939723
 -0.00310478825
  0.000653980623
 -0.00124136862
 -0.00381188627
  0.00163461335
 -0.00129282755
 -0.00350304492
  0.00412746673
 -0.00347380489
  0.00330566653
 -0.00868854702
 -0.0102559035
 -0.00331234685
 -0.0103389256
 -0.0117074898
 -0.0104779395
 -0.0218829829
 -0.0034743625
  0.01328166
  0.0180127556
  0.0101293306
  0.00108782994
 -0.00471767108
  0.00333021127
  0.00155536163
 -0.00400363377
 -0.00239823629
 -0.00248502508
 -0.00286754607
  0.000110725405
  0.000517483728
 -0.00175042828
 -0.00345719982
  0.00349802152
 -0.00132360134
  0.00213869545
 -0.0031028598
 -0.00250466518
 -0.00224655496
 -0.00748871433
 -0.00398584865
 -0.00622961308
 -0.000805419546
 -0.0145934006
 -0.0249662111
  0.00590836369
  0.0254162861
  0.0350805386
  0.0205438339
  0.0146517558
 -0.00422468829
  0.00140507143
  0.0153355399
 -0.00496676056
 -0.00397099734
  0.000189671543
 -0.00329955208
 -0.000625416626
  0.0019265525
 -0.00194519211
  0.00370721519
 -0.00177424473
  0.000359135128
 -0.00493956631
 -0.0082459808
 -0.00506431633
 -0.0135173296
 -0.0194611677
 -0.0531416741
 -0.0645466051
 -0.0271549411
 -0.0321222779
 -0.0531387654
 -0.0338754036
